//
//  JNA_Functions.cpp
//
//  Created on: Dec 18, 2014
//      Author: wei
//

#include "JNA_Functions.h"

double e0(double w[], int robot);
double e1(double w[]);
double e2(double w[]);
double e3(double w[]);

///------------- JNA interface function -----------------///
double evaluateFcns(double individual[], int func_index) {
	double fitness = 0.0;
	switch(func_index)
	{
	case 1:
		fitness = e1(individual);
		break;
	case 2:
		fitness = e2(individual);
		break;
	case 3:
		fitness = e3(individual);
		break;
	case 10:
		fitness = e0(individual, 10);
		break;
	case 20:
		fitness = e0(individual, 20);
		break;
	case 30:
		fitness = e0(individual, 30);
		break;
	case 40:
		fitness = e0(individual, 40);
		break;
	case 50:
		fitness = e0(individual, 50);
		break;
	case 60:
		fitness = e0(individual, 60);
		break;
	case 70:
		fitness = e0(individual, 70);
		break;
	case 80:
		fitness = e0(individual, 80);
		break;
	case 90:
		fitness = e0(individual, 90);
		break;
	case 100:
		fitness = e0(individual, 100);
		break;
	default:
		break;
	}
	return fitness;
}
///------------------------------------------------------///


double e0(double w[], int robot) {
	ANNWeights* arbi = new ANNWeights({6, 10, 3}, {false, true, false}, {false, true, true}, true);
	ANNWeights* w1 = new ANNWeights({19, 20, 2}, {false, true, false}, {false, true, true}, true);
	ANNWeights* w2 = new ANNWeights({14, 20, 2}, {false, true, false}, {false, true, true}, true);
	ANNWeights* w3 = new ANNWeights({11, 20, 2}, {false, true, false}, {false, true, true}, true);

	double w1_c[] = {-0.47010216520221915, -0.45936241275706946, -0.519321184640162, -0.3091422302071714, 0.7028055111725567, -0.2672360960292496, -0.6588323556945519, 0.6159027589085851, -0.6850207953796262, -0.27025987874267116, -0.3089394669681587, -0.36114463879651104, 0.6433483341380167, 0.2781103593178248, -0.9251126992656903, -0.554746401090237, -0.3492177278094736, -0.022797041591790038, 0.9456739169664135, -0.7126612008609154, -0.10762210048146462, -0.16212542760731952, 0.5279815924588004, 0.6171027010610717, -0.035964333152484596, -0.34996880579874706, -0.48662822247549087, 0.06831156503167045, -0.7489007795734384, -0.5512175043458521, -0.04733778501979179, -0.33808877375442636, 0.8118518836349169, 0.8232801530068031, -0.22052381747987876, 0.16679826816157603, -0.23679976925342777, 0.3729355800159691, 0.7133839237648589, -0.19335831164356382, -0.35255972416790426, 0.03447201823397404, 0.3575173554580111, 0.09108979405161152, 0.26408901284670416, -0.5615967975910953, -0.17830062305266653, -0.3741352700386306, -0.12373383596281169, 0.17558674909820077, 0.17720163997624278, -0.8629085126019832, -0.03629790898799279, 0.2825273176925515, -0.5733255539233565, -0.6435215827139903, 0.5971073367469821, -0.06800041309471212, 0.3707930590931144, 0.5979218776500053, 0.053510076900759616, 0.19587668613231618, -0.15539321400220332, 0.42583439441695853, 0.18755233197810642, 0.6513845190102456, 0.4206397707912404, 0.02082720765335188, 0.4210804484704287, -0.11957182801551669, -0.03976891354832139, 0.14130402563114927, 0.11239371232398664, 0.5386535183637349, 0.4169301126835787, 0.23449379563673303, 0.009258148251947693, 0.24423573198296594, -0.043373068088453676, 0.056605584278712484, -0.25076631240502234, 0.07785569531236596, 0.1715859023326456, -0.028225500412217372, -0.4139781833443201, -0.35144532892462926, -0.5695458888056144, -0.689464826720624, 0.4170436598416667, 0.3703271108029295, -0.14028110945155045, 0.3444597196524999, -0.5030690746242801, -0.5078003844303428, 0.2031163278102157, -0.04648588833563229, -0.36379679341337173, 0.19855596464767636, -0.40127974136248834, 0.3829159758422617, 0.7844361467050552, -0.11072167205906483, -0.06172204868798985, -0.477374455737903, -0.4941373424610013, 0.547460373047626, -0.08717555152455818, -0.288632179909095, -0.4055673314463155, 0.5585519915726237, -0.8098821325083924, 0.6132956122811088, -0.6974692371462091, -0.2977173688477479, 0.11226205236146218, 0.5900126337606201, -0.3188542401053832, 0.5380264141367193, -0.34289580557680355, 0.06642470120444942, 0.1303111910795419, -0.58183232825278, 0.06715978312085813, -0.5850149122661737, 0.0629376796994938, 0.15313128604790568, -0.182813094381294, -0.013508671490605773, 0.2890342916363333, 0.08218590034493405, 0.47031308469714683, -0.6047667474315881, 0.5357294620259687, 0.11420819380850868, -0.17073431114040452, 0.2368325444629235, -0.22961518022530547, -0.12877208945025204, 0.08380278095061193, 0.12066128851252221, 0.3758517048453368, -0.5303435533048859, -0.6311618892578257, 0.6091619745563225, -0.6852684320986147, -0.27678412097050376, -0.20863841128194616, -0.5684605331134703, -0.6034613625530401, -0.3423095006425151, -0.8588357454215233, -0.8005673732812701, 0.6982612747358851, 0.38762313248138985, -0.5069776330047172, 0.5630580739359551, 0.0981228531276198, 0.4500981086969261, 0.47802172859402503, -0.603564522513732, 0.22105436201133566, -0.4600698627436679, -0.3783491130963016, 0.172946133803282, -0.6488282192817654, 0.4445814374799185, 0.23733242960039275, -0.2616325507651868, 0.1722232685128971, -0.00152530863387337, 0.5508156839180033, -0.40346857633606703, -0.451205219441784, -0.2957924197444066, -0.8919219997543493, -0.28564123687427606, 0.12636175770546895, 0.20741601368255175, 0.07286750959543098, -0.16770220153474488, -0.4325674637167915, 0.5982850949012182, -0.21127774171510716, -0.667140736683717, 0.5396203843245252, -0.5823191875695914, 0.691918369502853, 0.3573380282803094, -0.2695237644465295, 0.6416523558409546, -0.5846755034651487, 0.41943704681908056, -0.4546726853716131, -0.548198282991504, 0.6465241978425919, 0.11722568263875888, 0.2059840353526189, 0.17820646424535475, -0.47108428475266817, 0.7076915862363455, 0.3221132952084837, -0.4597588060808415, -0.43931441579806624, -0.6521670978098464, -0.6431196832588152, 0.1717031549076476, -0.34597082407609586, -0.7060068933511321, 0.11145030208522871, 0.533652312631578, 0.5887943009895985, 0.7457275385467871, -0.4347937049326793, -0.5330895296879604, 0.7409884088008395, -0.6814142910068738, -0.38581590238354535, 0.6916485169524862, -0.8590640432667753, 0.12707364090609286, 0.5264042108079455, 0.19214600879099153, -0.6609690077761327, -0.1821017966405635, -0.6579117827500061, 0.3958726455873128, -0.20528244467816772, 0.3040543526366576, -0.5968150168542571, 0.04651941746201803, -0.04998310855560745, 0.34752426976263406, 0.432733427456142, -0.08567141372629566, 0.6352100113269835, 0.7817476195249814, -0.4435637743571509, -0.16786974925884113, 0.22431313457830732, -0.46923386765668074, 0.41271228251176084, 0.378221476289296, 0.6764735452622748, -0.3155355025544132, 0.5880432271509539, -0.04427749262712392, 0.09879059269025084, 0.31961919996988675, 0.6258942431879811, 0.06657494914658643, -0.4372037266281272, -0.016968429696066697, -0.43322028848911776, 0.0071430132946106, 0.08691718348967395, -0.5473758671164193, 0.38794378980756383, 0.5245287421812126, 0.46419291504020105, 0.09401050921237228, -0.46767596866865446, -0.48634659075652714, -0.370896979778234, -0.45079348140308556, -0.02636785815469147, 0.22039334185248965, 0.1413318175711907, -0.39446363035795007, 0.644133544690935, 0.5919577123971149, 0.8785674293143023, 0.6649393925148055, -0.5886522713443954, 0.5674153608458502, 0.11918729103658884, -0.38927385875749715, 0.9011879357169759, 0.31889489481859923, -0.3850566485311529, 0.471327849273238, 0.25651966887039307, 0.10535916520302548, -0.026685276916183207, 0.036600997584470815, -0.1064194927517965, 0.14511479908124203, -0.010538896232029048, -0.5858502180175595, 0.2555410864017418, 0.014099290424535628, -8.391731935110461E-4, 0.45022206976619317, -0.2015703051678103, -0.25118021903304283, 0.4483263360540345, 0.27676312080160825, -0.5905262222462611, -0.707484948332234, -0.9317447022653464, 0.057085413846923075, 0.3933519792074135, 0.45731511896804933, -0.21805075847438168, -0.3535201611729041, 0.6812763407851689, 0.42181472542014997, 0.442394538675134, 0.39497597175358684, -0.2201946169082924, 0.15546629598320771, 0.6086626691824832, -0.11458164228577263, -0.2735576581223116, -0.2507023092276702, -0.23140544411593697, -0.43024627513760816, -0.3506536535298327, -0.11042681850158001, 0.6321095542202396, 0.8536017217157185, -0.6890169080944211, -0.8142324820863319, -0.6617584666496771, -0.45150319782135373, -0.47814432875698487, -0.43913933963564106, 0.059501292185233076, -0.25426627866877005, 0.25639111585782315, -0.1677715497840534, 0.6138541494157677, 0.13034963874995908, -0.2717427933575137, 0.031551293608978966, -0.2865033956143073, -0.5059123590706205, 0.0613686991987461, -0.3132258391718576, 0.027302298003445635, 0.16912215004628128, -0.10887541631912442, 0.4978804011649584, 0.5340635146960371, 0.2486389147912535, -0.38500468148971834, -0.6116018369240227, -0.4504254614912177, 0.7170092720974202, -0.6558894530321612, -0.5534236774511638, -0.7528761921342396, -0.41458256909678376, 0.22201964192695423, -0.532952349846521, 0.17777962847913764, 0.672261078138556, -0.49417415423659294, -0.46252779286464396, 0.17235270176190864, 0.3951358879955795, 0.49910250226090835, 0.6849159710847118, -0.32681454305980207, 0.3057407877181211, 0.5504069377211548, -0.4276777558926123, 0.17024591756663948, 0.32471449722662754, 0.7788971008798075, 0.10902263502419059, 0.2589535011598272, 0.37069121555418005, -0.04081993157161842, 0.2174132125361275, 0.01823487554742114, 0.5691487153872623, -0.30931001464420793, -0.09348025060541307, -0.11929028980333514, 0.3718947141601639, 0.7630537929759715, 0.4869952992910397, -0.8492530582596032, -0.6328265654977239, -0.6141210285786981, 0.22721701478935202, 0.3152781722372795, -0.05253472604690734, -0.8229391245890167, -0.12395167175310434, 0.8221962927656851, 0.047053235026572354, -0.6340120854731561, -0.6780035375009189, -0.7196461555175204, 0.14241849096522674, -0.3683786945770667, -0.41302594763945955, 0.14779884515422087, -0.4910342619854574, 0.4439182566749355, -0.20234925319702282, 0.4571876115745448, -0.023906518377770886, 0.3448941687914938, 0.5891636907727312, 0.32057964360088675, 0.6849665710641404, -0.6330939967136539, -0.542520641047012, 0.021993541874676514, 0.5310695805511234, -0.375965444327447, 0.05341215651662866, 0.8916409223293553, -0.2225706511040934, -0.23121165779775926, 0.6778738883903672, -0.5226480866229065, -0.7135270082253063, -0.19361035876574625, 0.388537884795629, -0.6496456361142121, -0.4710710397579146, 0.07445392117405902, -0.6704938925828133, 0.1826247975858064, 0.49431255494213444, 0.0722280720472912, -0.25034368583419625, 0.4468281949027858, 0.11500975076494371, -0.1879483575264152, -0.3066692921504833, 0.056127477131950175, -0.20043864215225413, 0.1957736866420725, -0.07170724552202179, 0.11307961504117595, -0.04243421184299234, 0.1490890445615937, 0.1067546519671178, 0.5721863708899645, -0.31103217173850695, 0.5128406475641142, -0.33956427174208337, 0.4016540320217932, 0.7315421634689018, 0.03454442033098153, 0.5142760719737038, -0.44835729112459005, -0.29848489847907983, -0.4155392704074688, -0.46817776485375784, -0.19032712851304281, -0.45010959018526964, 0.6644252688599411, -0.3776676622146605, 0.21176885788405708, -0.27306856971434595, -0.3866839548412399, -0.0321181530714181, 0.5914909766474395, 0.22477293600702788, 0.39938475011136215, -0.756571510210275, 0.0615199993622418, -0.018222729351231898, 0.5723269264527708, -0.5537376393143062, -0.249174125296586, -0.38290768885214144, -0.03526858539126747, -0.06317697860583238, 0.67882767578578, 0.3301263845419638, 0.8592634561854504, 0.09918749695876439, -0.35469436591642495, 0.3833524983418053, -0.4101774267783851, -0.019475194103937766, 0.5617327346537981, 0.4487127482534489, 0.2989703183187214, -0.3157251506345307, -0.022506636142308648, 0.34190230339271854, -0.013044834075717888, -0.4516533882154424, 0.09294214929980005, 0.022019132843947176, -0.2953474655556736, 0.43034931747098304, -0.2545695235430254, 0.14779067410932206, 0.1369307264654688, -0.0683373870861102, 0.2557457096255017, -0.2960080365070499, -0.4172463256525485, -0.281193188126529, -0.06480119115920771, -0.2556313054117271, -0.46519884933290934, 0.3587477424218722, -0.23137644610787184, 0.35070834575752324, 0.13098995424120302, -0.5395380396177605, -0.25093504118440163, 0.24940851685513502, -0.3233591021703609, -0.24693627843056865, -0.7979482935686204, -0.06674429774812529, 0.5025598192848937, -0.020238075650874474, -0.07318679433401593, 0.21522451868055978, -0.3330771978207938, 0.36763701339685373, -0.3245374638983863, 0.03452721128546067, -0.38756484191755414, 3.1336415555076325E-4, -0.7652801201852472, -0.46320318737570587, 0.19175663108020063, -0.4457474870491969, 0.3074072381404661, -0.31400745951870385, -0.5016703658482389, 0.02370443657995877, 0.566346049548214, -0.381491160712183, -0.483667051117164, 0.4786897764131678, -0.5567796365755314, -0.4003805632885592, -0.43714783310721494, 0.2900938012053273, 0.20767181972741425, -0.11067821024742946, -0.677176519233495, -0.2899568288094804, -0.5228589874830112, -0.13154717447368539, 0.5522754372940731, 0.21521479096504645, -0.057458971540725184, -0.10008363939095105, -0.24575823972113367, -0.4013527997704811, 0.1736482963484245, 0.03589047188269534, 0.46370907148228274, -0.6360767593130259, 0.23668162451917252, -0.3760481843273341, 0.3495400937304429, 0.5520234694491085, 0.6172560912075598, 0.7132684290884395, 0.3112687141101686, -0.04413031327323225, -0.38956876359422754, 0.16259382330697186, 0.015395582383803785, -0.6980934744538636, -0.42197753078328726, 0.23558215051863224, 0.04042908957491839, -0.03708643013931803, -0.06915217806903375, -0.33892019085107045, 0.43524816596018334, -0.461674700146707, 0.7012559945326886, -0.25086139399547075, -0.2476523185009769, 0.21467258475548845, -0.07966365491093554, -0.7401970091704824, -0.23462248926153154, -0.1800087561098785, 0.2936999022505854, -0.17292863739996853, 0.22387407399287113, 0.2749154086044623, -0.37728232716702303, 0.352456501862617, -0.7050166571653163, -0.5985123592466465, 0.40224392971294337, -0.5419587800653867, 0.49470492079054984, -0.3366655650490349, -0.38578480037492835, 0.6997597745475824, 0.5050201766258894, 0.38660643495678987, -0.5204316872661207, -0.25454408293721864, -0.1569144648156161, -0.18902567197743525, 0.3423773947477391, -0.6158802477031817, -0.208944446795609, -0.016334716360260588, 0.2437106918038342, 0.01913317996747665, -0.24297670604746635, -0.694958887674106, 0.2600829866764762, -0.07117284282847461, -0.03526647099650184, 0.11305351143064979, 0.1851332146279745, 0.5902425171872534, -0.023864742930085295, -0.10966293523158777, -0.7413642513703197, 0.1726645058678782, -0.003211831844646587, 0.579907833778884, -0.24185185445437518, -0.48354670806711475, 0.18353359201057967, 0.0037750101967253535, 0.23180534933066327, -0.13523405652663825, -0.036767060455934426, -0.5815400138352537, 0.1909351812998723, -0.3105343394448058, -0.3519920407439984, 0.3673593622173681, -0.2641945660537657, 0.23841831763186003, -0.5182116698693794, 0.1326448625788825, 0.2857480029418348, 0.125119145921431, -0.7487688981207777, 0.24121863616506437, 0.39362207536009536, 0.22607602996113754, 0.29732453854164664, 0.28031215935413334, 0.6509311839598205, 0.15432302141754387, 0.537891382833765, -0.3044047976603572, 0.728942131394101, 0.1451814173985138, 0.17741263611250377, -0.5576678633089605, -0.4128184124034386, 0.3468415772681399, 0.18161713145408306, 0.6173803328337368, 0.0929430174510801, 0.36156280160662796, 0.08126933192461307, 0.10078139725333818, -0.5749660352693519, 0.7300460850799658, -0.3696330928265789, -0.28375734313709805, -0.005488983403658665, -0.5495421619074458, 0.09956086698711622, 0.306565507861824, -0.06358156834499956, -0.3097205163312864, 0.3853153414838036, -0.25220424711916783, 0.25262265610160395, -0.11565510796620397, -0.2932292753092772, 0.27392841990234773, -0.31272327719814874, 0.6791868582759754, -0.6259885011039997, 0.12492727083874233, -0.4017551798601904, -0.09978981401786423, -0.7211510270951726, -0.29826012858170226, -0.546244846901986, -0.28843857517172267, 0.5257959511394519, 0.10627595008092988, -0.7136393673940271, -0.1779784590917789, -0.8549077172012629, -0.29568108878466653, 0.40252698159563566, 0.34998356875110265, 0.5623440347399893, -0.4896922539646597, -0.2667614854131255, -0.2904546763795601, -0.5000966818898153, 0.017609326624424312, 0.8331627572246835, -0.8566931406341838, 0.5239195039575307, 0.03329744240044398, 0.8231169582488091, 0.34848949854000827, -0.3095232285005586, -0.18210382724913798, 0.46815572755050117, 0.1122642319314201, -0.23006064120863992, -0.011836899876285556, -0.6772948049610555, -0.6316109362514866, -0.19402684609754184, 0.2793081414026216, 0.5295197937397984, 0.003268352865405319, 0.5473386325932234, 0.562738435812155, -0.03070550109562971, 0.33806837556391, 0.5503980591134094, -0.4975369592952644, -0.350938994545103, 0.20797844264543636, -0.4901403027964975, -0.0952946920040085, -0.2888462455397484, -0.18109038337788352, 0.6304035275269971, -0.32435177788897374, -0.21725805157631123, -0.699696444192714, -0.23479073249570828, -4.956251645411441E-4, -0.22640621323834892, 0.7129147274238178, 0.6228292028654474, 0.151072525005402, -0.6430543102488941, -0.24629636859702553, 0.09332852600348543, -0.384314518332656, -0.4965440824798653, -0.7415357827458968, 0.006145807686822132, -0.2464309545911577, 0.054115220138742495, 0.02624570117415516, 0.20432360458901863, 0.2259725625411617, 0.04524025140538803, -0.03652881414270774, -0.47302886100371816, -0.3231835071237325, 0.08165485634541965, 0.5131881764947565, -0.14021908369070962, -0.30525739232927207, -0.36178549609080146, -0.06508199189379912, 0.12636657838165613, -0.6699800711072109, 0.40196415361993926, 0.5112509994396114, 0.5089025443596521, -0.34217138708011446, -0.0036555601048735287, -0.5206169568944562, -0.014884945826568269, 0.4136482479944762, 0.18767594170497753, -0.029069624540351724, -0.6843110648993802, -0.28846251463521033, -0.365910289961984, 0.3662874097368828, 0.13825921137060346, -0.16783391177566076, 0.3481529910365899, -0.1603181820336287, -0.33894547526451385, -0.5621053643773398, -0.1730286599233387, -0.4752289686512734, 0.24964466160574036, 0.10418348925889562, -0.5204913943752187, -0.05302447999028729, 0.5287350752220341, -0.28974123122999285, 0.08120744265942838, -0.038299658063144434, -0.2949259168744006, 0.016787690491731552, -0.23647431509158526, 0.26296357346551946, -0.3033855666038721, 0.1970272316994643, 0.5030879772516667, -0.22494107873387464, -0.13061459112547535, 0.1808077273370409, -0.5028504476919688, -0.3513849985038997, -0.10661986873344531, 0.23325842210492326, -0.5387140283687007, 0.6993353691039631, -0.4641891251888303, 0.003313655864287446, -0.27455844697977483, 0.2962884745722103, 0.09809342454044383, -0.310571408986949, -0.2717796426766618, 0.041775033483852156, 0.030294307223837316, 0.05922322148360274, 0.1651063268571575, -0.18627595963967358, -0.3703925012765447, -0.24002091237353784, -0.10571046217818622, -0.10024602695436083, 0.17312522875677472, 0.0665114145424574, -0.1973079406364588, 0.011767940701108984, 0.07248384164080533, 0.3374842341405634, 0.1910874641428756, -0.15822771999652024, -0.3538131961370415, -0.09632128907006399};
	double w2_c[] = {0.34198609250946516, -0.5091842846878205, -0.11841301349863927, -0.4394649755194392, -0.3851718203895425, 0.3644000668067082, -0.5273164246088976, 0.04671664240711824, 0.08918602363287026, 0.8959577615317866, -0.09674369817595482, -0.10077962425111184, 0.6214601688219774, 0.3497309816253131, 0.01644713719800373, -0.5062234305681749, -0.5072310618308447, -0.3407353377029659, -0.410061326203012, 0.22636273771161342, 0.3219892187095567, 0.18150693936226558, -0.30345900183985214, -0.4367753377659016, -0.4273373609960882, 0.7250641211521643, 0.4424360688102115, -0.2554910395164663, 0.09634509104597763, 0.8768944436065468, -0.34185391201075555, -0.6423952543417193, 0.5470001402044742, -0.633010009183457, -0.3428863266164652, -0.28258793557267986, -0.7172483635474742, 0.15096646050920348, -0.27655945731594833, -0.08804473025618074, 0.20249527991659072, 0.43233211691687695, -0.3876022711071495, 0.8721205356689785, 0.30648845056373863, -0.025325682688305817, 0.7924574118164492, 0.33192506436800306, -0.19257061237886214, 0.23830584605603064, 0.03624262353816901, 0.21714919513060701, 0.2881145641186104, 0.6248942916278624, 0.18863445937551684, 0.12955150698296458, -0.25492976160945213, 0.08899397963073843, 0.4398137847906392, -0.3184855258128299, -0.335697604546381, 0.11638810159299043, 0.3565860337825003, -0.19236036260111858, 0.7005369616021169, -0.6987574660771685, -0.14442320885283264, 0.5825373378474038, -0.13546472729173986, -0.4608067385625744, 0.2617936322156829, 0.3038186715364855, 0.09199812243806692, 0.35626471991528813, 0.8173175016593843, 0.06838972694243081, -0.35195333441600785, 0.474826995575778, 0.35837082982703566, -0.03371093668690854, -0.6936153194322277, 0.1664614107827854, -0.41513041736884004, 0.19682742775359435, 0.8074591686760968, -0.23125839504031417, -0.4996025111327798, 0.20699928390708042, 0.1452021252237798, 0.17415512267538336, 0.1264936490825479, 0.6640762160938233, -0.01901254390314884, -0.20472639473048065, -0.7083765863694428, 0.3537565168392241, 0.6069717946099461, 0.2295207999904453, 0.3108366440362161, -0.11890177711476407, -0.5774838621331022, -0.2844163450779736, 0.6266773999941407, 0.6075467741290529, -0.3943197221719725, -0.20455897945193, -0.5674363441243995, -0.4112070947966732, 0.2542386779152037, -0.0818833182019808, -0.26699643227314984, 0.427558257117767, -0.38443826338716885, 0.8041172257314176, 0.58844685757561, -0.07909266915822247, 0.6312830831593612, 0.05241284711041072, -0.0779503541733073, 0.623596657193055, -0.12751533929914782, 0.6184888255866746, -0.3683994666807368, 0.3971685672437802, -0.4503284381670947, 0.3811726384005061, 0.33818457078746833, -0.5699605517430828, -0.6052133985762707, 0.6767740963956206, 0.13391618974526096, 0.5139408465494336, 0.3628429285962634, -0.31507299032739694, -0.6540288428207806, -0.42948530253263056, 0.08700096185768136, 0.24859246402048044, -0.3622485735684867, 0.7575358809963878, -0.25561754786915936, -0.38648586552706865, -0.10221557914284175, -0.6997449232472867, -0.7429679546034005, 0.5137852651623666, -0.3304720409895259, 0.07723968360333891, 0.44495745493242334, 0.8399558060645265, 0.30155127388602576, -0.23414696709880822, 0.7811963582778442, -0.2470261395334229, 0.009814599716387484, -0.5051561876817792, -0.7137236357666965, -0.005155049414639699, -0.7027364605939241, -0.6099336753504142, 0.5494060906194622, 0.6071810898471414, 0.32969505971852586, 0.40073866392110924, -0.26875489254970175, -0.3391062060209838, -0.3152698465715692, 0.7192218903283012, -0.5690490126460966, -0.08946661657353075, -0.051402923002712875, 0.48233469190078554, 0.06257145126864948, 0.516107042726888, 0.07499145246232404, -0.03799942032322262, -0.34827773680658386, -0.0945914266344204, -0.41151706014486, -0.16702069282356968, -7.582360677768629E-5, -0.1008880170297761, -0.24024729815008736, -0.07732135624808545, 0.2863140159718542, -0.09224755059011813, -0.14674029202047398, -0.15333286808103952, 0.14694460269394063, -0.054643109139210624, 0.02811992345171027, -0.48047402424081875, -0.01186062164950693, -0.14894165036148527, 0.6955815151430491, -0.05496285462184326, 0.3411281820093305, -0.14689209858023625, 0.11386907122617011, -0.7028555140963144, 0.3636322662140157, 0.6516379174542241, 0.32057727138931147, -0.6860739440587643, -0.34446174475074226, -0.6601487766374698, 0.760436988066816, -0.1958977235079002, -0.14186834531984888, -0.5287428608555099, -0.7481537782461827, -0.5950815682408205, -0.02233552467682815, -0.5987781553450937, 0.5044221173368642, 0.30459466617631076, -0.5381448074974504, 0.31787846385804114, 0.7088819093629146, -0.42998615278949637, 0.41657586454375506, 0.8360249130241804, -0.6991189632762488, -0.035419282431723514, 0.28399663577392403, -0.8761317981337258, 0.6813604941745004, 0.1665364547337205, -0.5559595010211872, 0.12880574336650025, -0.8384207718674428, 0.5377546863307623, -0.7776464122992073, -0.6063884093175947, -0.24625949284870072, 0.1382078895053763, -0.6140158598725372, 0.6869732726008477, 0.08042307739988552, 0.408184357012474, 0.5066829516427366, -0.3595773717026057, -0.3267110088849664, 0.6014381266442705, 0.02329840488060532, 0.8164586422333479, 0.7662549499352861, 0.24361024389514693, 0.14004277900511178, 0.0395627379626384, 0.7716888931811412, 0.15266869846137374, 0.41292609476000275, -0.2889093262706264, -0.4150345807943695, -0.13393820309668236, -0.3379336471217325, -0.06683996162530423, 0.036378802836419755, 0.682232415658709, 0.4030654407105976, -0.5343779745937216, 0.07816617670839837, -0.703001998301181, 0.43796675738091695, 0.22941879349730768, 0.5947053967364385, -0.8060603878548612, 0.16245260226581656, -0.20161986634396856, 0.7073358741888568, -0.42658702927390807, 0.7467271548430053, -0.5697618395869877, 0.6452410275213967, -0.6636003947504425, 0.6367213671808261, -0.21744853964099214, -0.25872773743812405, -0.3970109624623769, -0.05844473502717717, 0.7399381437937409, 0.206627907232332, 0.6016972797387895, -0.930859664490385, -0.17456940237442098, 0.0013887574872348957, -0.8707996104813731, -0.6479688388455563, -0.7399215225659244, 0.7987807543731082, 0.6080421084778855, -0.39959509054188547, 0.59666366851976, 0.22043472475519632, -0.8571700636161779, 0.07270256013901051, -0.7819053302268772, 0.663652093843082, 0.44935097837111426, 0.4050461695831605, -0.34889960614682497, 0.8661636643618082, -0.4950934904663133, 0.5041020378190959, 0.403188310876315, 0.38350660049271945, -0.6335619226897921, -0.6953020031114396, 0.6174364127214858, -0.12555260418757316, -0.42121209467260384, -0.4721268997552919, -0.8786419836533468, -0.03468555872452783, 0.07209996743323221, -0.7789002780390467, 0.4277602691743167, 0.8467825810027011, -0.7418194579780539, -0.022665946129696884, 0.14340464783333595, -0.43784270425745486, -0.366697472937002, -0.6555230018151254, -0.0479649512326166, 0.5211426745600197, -0.21332812736836787, 0.12556699041239758, 0.08562805153977493, 0.046878926286784056, -0.4588913498599911, 0.05682950098355902, 0.06365146611093485, 0.3056038678185451, 0.19231092475808717, -0.5242493149021392, -0.05169910300919955, -0.07625366568649437, 0.19794035772841706, 0.6326394238116139, 0.8128057794504012, -0.060336533231088924, -0.745637325416344, 0.3262701681366642, -0.30203053241114164, 0.7439579824723414, 0.01756562409391399, -0.5459245129696694, -0.1648361471459796, 0.2803921705071714, -0.6975438510678689, -0.7628927162390157, -0.534588377473747, 0.32466213244018444, -0.3218171138359702, -0.14013513695779162, -0.746256911914013, 0.6238994586367339, -0.3021252337816742, -0.5763244327395035, -0.5889387050401482, 0.3067158843888174, -0.26922612306098165, 0.08074216613589791, -0.2819319430414569, -0.31502312482602046, 0.3640835059588528, -0.43185854412817826, -0.7433448735696934, -0.4545539101707893, -0.21193474540481377, 0.4456071680063466, -0.18741926864559133, -0.12353310235162965, -0.10735983060555065, 0.6834072553342472, 0.10667534818157474, 0.35173449213448776, 0.35474923772167144, -0.3485806004868143, -0.2936587640153575, -0.5856300776116211, 0.010660800045951699, -0.7810562011706421, -0.6550451901650846, -0.42262299623751176, 0.3352200555132105, 0.38411927124737405, -0.6648575925103196, 0.14790271442084518, 0.19586002670614341, -0.5244136083592087, 0.36266491261607003, -0.5190960457653422, 0.21633405380701312, -0.06109451507208734, 0.39923465009333026, -0.45409269620121906, 0.9128523088302067, -0.1606938203604012, -0.1983462260364092, 0.6375474937572702, 0.2939106286247873, 0.6645503426439718, -0.5661126655947919, -0.15901834243914523, 0.7939728003281415, 0.003956473395458682, 0.5576353890524215, -0.1037139352689149, 0.595817791757278, -0.07231171642660433, 0.2166951242033988, 0.5768475617570497, -0.007985600829158584, 0.4227315479011407, -0.26423926006040566, 0.08188150929976466, 0.3686347108578372, 0.5560645599281646, -0.25062511607728, -0.222490412728841, -0.4986719048605363, -0.2618114993468858, 0.7289933693918148, -0.17391898717237364, -0.22762239512610002, -0.4658098913405814, -0.031883685980854566, -0.18702262895906774, 0.11168500371936044, 0.7827451105745143, -0.8131434157567671, 0.4151300780046365, 0.5421441447939361, -0.5966805524263711, -0.2022357780572656, -0.17351808182868805, -0.5964237917664278, 0.6057910011079773, 0.5049609676455025, 0.375980873886884, -0.3016990765395412, 0.03898938809585739, 0.05295807933879769, 0.04792152611294074, 0.20385497631393976, -0.4179881009307973, -0.1275051645697507, -0.14922132105067373, -0.5440537137219824, -0.633404311334739, -0.46573378442350527, 0.36583722862885887, 0.17309996500551367, -0.6732431036124004, -0.028212197309951875, 0.014588545984900864, -0.39670961485818557, 0.2569401578540802, -0.10085103506212052, -0.06319773245021144, -0.5165493823093126, 0.32827061656414525, 0.14309401445604417, 0.2575106650531748, -0.4434607462964072, 0.01471763602724993, -0.4655244320785659, -0.3839664979058276, 0.12693810005216508, -0.19917273828094847, 0.13668868429022196, -0.8267195468632096, -0.5872199326961354, -0.5516651884332411, -0.29358462069604163, -0.05042124003283918, 0.5415127240552878, -0.2931590123023697, -0.5312053106042326, -0.26514860495342474, 0.05896716117183039, -0.24981807228279937, 0.6913837086088193, -0.14601486883914827, 0.3013359835559941, 0.2695315465484965, -0.09918978786322012, -0.0019058204881583773, 0.005429721690784997, 0.2998805273865701, -0.24973681441547801, -0.11927009257431923, 0.6255083455773442, 0.5780237619919683, 0.439932734712481, -0.30204408059011933, -0.5919599856293155, -0.4869761273530633, 0.07408972430976873, -0.014447623733709142, -0.08112079354859003, -0.26106261839669354, 0.2035264850034845, -0.3443153130453226, -0.059881799596068985, 0.4638219328418202, 0.34903442464832507, -0.4659699720237552, 0.3837191424651379, 0.4098795694655402, 0.08916830771898464, 0.2638923680958084, -0.578569506306203, -0.5246057582943107, -0.44373225071749844, 0.036535313250392554, 0.2672915223209875, -0.07505747386645609, -0.49691839373590607, 0.3958809332823897, -0.2742228781767886, -0.12879870345385974, 0.34428302196634025, -0.21929875881343336, 0.21401710481967956, 0.2703368877326442, 0.3531601916274054, 0.32047681490207547, -0.05694409209929939, 0.7007808855269833, 0.3477903542092369, 0.16015540472265355, 0.23356455129916634, 0.48211051809067035, -0.037055579363892505, -0.3906750464189763, -0.20741204361638985, -0.6067381535272239, 0.4733996649721594, 0.04988646038249262, 0.36626423778112815, -0.472880629065512, -0.2661226883409189, -0.37670110169693993, 0.3916958576949122, 0.18645349018811663, 0.22974661155683684, 0.1817793166106852, 0.34857981949368433, 0.5296321825427183, 0.06100231924200254, -0.2699533648006457, -0.5222170843767169, 0.6378410917695205, 0.3681557069929803, -0.18452519396699568, 0.406928120395315, 0.23227360005867279, -0.16680589631597434, 0.30447788966175215, -0.7172927930531743, -0.8846863310021817, 0.736392579925049, -0.5815544251165373, 0.5545276341272909, -0.284228389031973, 0.3827458273175312, 0.6204460153297593, -0.612897393897374, 0.5781244728541983, -0.5035136194909514, -0.29056770274036486, -0.5093707768720588, -0.46466083579534656, -0.3004738275078664, 0.15494900390855768, -0.2556741405752832, -0.09218269608942523, -0.14224012266264197, 0.29981513863926895, 0.38725319645686784, 0.12180189662799512, 0.02654345259025913, -0.04806632841836009, -0.04102938139814176, -0.06666025845895712, 0.34072220523874497, -0.31842153430239933, 0.6882677817876585, -0.3980620068451983, -0.1879835510849452, -0.43880179498787597, 0.14530641061325594, 0.049195073808699044, -0.47650611917341423, -0.03973037977720115, -0.03739515216000647, -0.21447718679279443, -0.9940637343562864, 0.15641799105328852, -0.6243207800382934, -0.22426127711368138, -0.037526662472383884, -0.5009718473435063, 0.3568364315448406, -0.23723805047634422, -0.5244562757258975, -0.4087115921385024, -0.557329739558575, -0.40041517595844395, -0.6502185395711618, -0.13887681004000246, -0.3168530277027117, 0.13835569239651346, -0.34823180547508165, 0.24541993515521168, -0.0959236559681243, 0.17415118101612417, -0.040416279630607406, 0.6560282218297776, 0.381940312874995, 0.056768785962705196, -0.6763915126651227, -0.022847369959814692, 0.035612395860359636, 0.4363055536466852, -0.4731751273540698, 0.3377242339565304, 0.08627989019647832, -0.30764872393116455, 0.17474132418976615, 0.7856766841383871, -0.21064751426042913, 0.3146853651267616, 0.08444229620745448, 0.21801001780258944, 0.07263746671531057, -0.08567195784629694, -0.7098409594784739, -0.2818442732701276, 0.057828887651940615, 0.43520371342587116, -0.446450861716771, -0.6581849276733298, 0.6082003152482343, 0.26455608720944257, 0.21463388813457346, -0.11212918500029856, -0.27706151407705304, 0.05237513851022586, 0.15295551540267296, -0.02074868841574871, -0.23974618084273702, -0.028638374701590516, 0.23206682643246004, -0.29141323437296407, 0.24554701830742637, -0.019722992802426592, 0.8879367021438476, 0.22527478473060303, 0.6496785615259387, 0.6627221696966458, -0.7180930648131777, 0.008460151216391647, 0.6228656741336419, -0.417967493639533, -0.3143348824431463, 0.19460198505582998, -0.0529871318854469, -0.3087035247116692, 0.019056161699182547, -0.3859539459787426, -0.5941617839469531, 0.4373870138213092, 0.04541905761517204, -0.009459217386496549, -0.05462065584441899, 0.1476567187317851, 0.3302048225333305, -0.4246516492170556, -0.1138056278098549, 0.4571829366692862, -0.4422403738221461, 0.382193016075994, -0.3231071504028935, -0.07891144117148409, -0.3251800632208894, -0.15212676995908278, -0.345134913181128, -0.5938125879540557, -0.39243161807796145, -0.14451558715578805, 0.7578292815052265, -0.11746926504453784, -0.3190436041393575, 0.20690564967162112, 0.40903962032251084, -0.4892443005313611, 0.4116404681560617, -0.20206399184448703, 0.10277527477817501, -0.19756517733967938, -0.6430237803513159, 0.047995848387686946, 0.16547111409340878, 0.6137489941423294, 0.5014392849657318, 0.4507668256241362, 0.7654955342813063, 0.5199098151854289, 0.17236767873196804, -0.39635034872751634, 0.1271330195308666, 0.6384384369045668, 0.36271656511658606, -0.46515413437482955, 0.08167504693894007, 0.32715625218581457, 0.26304794820510036, -0.18900243262719482, -0.1904975547516178, -0.15022013291240058, -0.22545721289248333, 0.3073679869537999, -0.04321152237557089, 0.022950683683639186, -0.09657232157880354, -0.06574099706878052, 0.3833608840093397, 0.040719544103232336, -0.23153125777294234, -0.0025501729802128725, 0.11991440142169012, 0.2250111523931933, 0.11952623364962417, 0.12309974716560686, 0.00195367240275471, -0.40151657279059016, -0.1141668066311846};
	double w3_c[] = {-0.17891360284594118, -0.327719034440653, 0.2321575627903436, -0.2956194586910912, -0.5083351220341187, -0.2920451361092163, -0.07797582880690557, -0.22581052078133426, -0.05191711532322321, 0.1173942435329711, -0.30454033314609413, 0.10748855019641806, 0.5004589851528569, -0.0258478440275934, -0.5070701396194123, 0.2056333160634156, -0.18664204751948985, 0.5549001037568504, 0.015634345682214154, -0.36220963401867456, -0.2160596134726228, -0.20687844862625146, -0.18874426587739512, 0.2170389686943825, 0.41778666550875404, -0.11808065116703488, 0.3781648199639744, 0.7510969220066783, -0.47598346843026523, -0.2657366041526811, 0.04280387926845516, 0.07773846982833263, -0.23034913034086418, 0.16442521336521804, -0.0517264497486683, -0.08885820819580302, -0.4858342992363528, -0.27143159035385334, 0.10827561890760151, 0.28310712278596495, -0.30213976253535985, 0.4176563932438892, -0.1533288680871863, -0.12181848798780677, 0.3122204219886197, -0.11954701785200596, -0.0820526378678787, -0.39067037135937693, -0.36664020103389383, -0.07053000859682418, -0.18723485027139486, 0.04278275158958303, 0.1257551402735155, -0.13239010379559762, -0.19757025159580766, -0.0372972183667169, -0.6312547523804437, -0.21398745698602847, -0.0396120742165183, -0.16506193336983205, -0.08469592321204111, -0.1982791396189777, -0.18191423760381692, 0.21855478280980697, -0.3273016915096615, -0.20289904973442308, -0.5115942643397853, -0.20157320321673536, 0.03326249120125499, 0.322503702942933, 0.6010797460364539, 0.38554736513659027, -0.07714236528454899, -0.2737396573300216, -0.15263292618175975, -0.12576427018599656, -0.3210929901077968, 0.23937907145525247, 0.11228746920844428, -0.16794907842867596, 0.06665774561249904, -0.4989548685432331, 0.024641111351734926, -0.12853412962181282, -0.12332121299896649, 0.2262099374040692, -0.09840208547041393, 0.48317608292625924, 0.5041534852415481, 0.00972710712880584, 0.06525034705660633, -0.22083789486422334, 0.015177841486631562, 0.21714434319733228, -0.027469705735548425, 0.13353225672620816, 0.28656254730265746, -0.21770914000000538, 0.05485067448414427, 0.42787420795523706, 0.0831558255668838, -0.5220973409484072, 0.5908471108283168, 0.3847806453512834, -0.3500823661908927, 0.22246892757782308, 0.3629638957983935, -0.5832820813658899, -0.21905056489408414, -0.4383317480295559, -0.11912443424688729, -0.13599172373189977, -0.36339429839333826, -0.10809259511184768, 0.09967846722910229, -0.33105800419212433, -0.42691071257391483, 0.004838493250615188, -0.0893186438506468, -0.14937674541231627, -0.2157342882489235, 0.7760119518972041, 0.3218571729158416, 0.3977546178413838, -0.02042952474259957, -0.7937193206679771, 0.6732896633645563, 0.20107091626092244, 0.23453855744735885, -0.21699840068669796, -0.35274594515339275, -0.14434928885370243, -0.3067945940942814, -0.47083967153960754, 0.5117296228074899, 0.20833412606728793, -0.22522107563676128, -0.12560658951602416, 0.5154025299572689, 0.48179876497093765, 0.14010549143328616, 0.11989429845231292, 0.2435830272031945, -0.03184878125199303, 0.968155777305749, -0.2841422706294641, -0.42733788064967265, 0.2526908606442011, 0.3048748523856951, -0.42142670397441157, -0.4118115306132306, -0.1400604738012485, 0.0972771242304408, -0.05740932116701669, 0.17789595505213712, 0.23471229639758778, 0.2289541886085621, -0.4341637384131559, -0.1099631715667492, 0.20970269740264366, -0.012055964587287693, -0.2888847022375872, -0.14443528420994342, -0.10475691668314087, 0.3469204972997261, -0.3101568843273398, 0.29961345722193766, 0.5307312284262685, -0.16287718430462902, -0.40087351083327916, -0.4521044484985656, 0.08255464984724523, 0.3245624074773599, -0.35054095084140113, 0.39984123863694326, -0.2842029840339638, -0.5149701344595162, -0.16807503613626576, 0.3605143348341643, -0.060539645232404335, 0.42799547487399303, -0.015754099571526542, 0.08380516443036498, 0.09771083743887227, 0.08758643322028589, -0.10918945666763896, 0.30426090279557905, -0.013646517938892211, 0.297197618244749, -0.16589664647774646, -0.31519711517135307, -0.1666499802747407, -0.1503270497224288, -0.0037748102134140815, 0.5676826627623319, 0.5156125420616807, -0.3098231162873588, 0.049878775162715216, 0.20954163926923627, 0.6832663531060352, 0.12325767653173383, 0.8383761387005342, -0.06916399359827849, 0.04102169720578694, 0.38154968689242214, -0.33114235553781945, -0.1212893404967326, -0.038117044534646316, -0.4996366038228096, 0.43415509939403363, 0.6720086654801475, 0.6976995339471372, 0.03274691581872963, -0.16071884688015414, 0.36510475608641496, 0.11771114123467921, -0.2159857250898503, -0.6652356701467055, -0.040239262236325124, 0.501176409331332, -0.22157429503664322, 0.11227546840596064, -0.5253433241677306, 0.5374500711704581, 0.8427873601999161, -0.10325770042887993, 0.3514418758998137, -0.07922103320640397, 0.25736652046850594, 0.5818819692920145, 0.38964471381875354, -0.4909796530134219, 0.49727039636473996, 0.19068015578870118, 0.3192139454458234, 0.02591847892303714, 0.20108885157320744, -0.5967816580189947, -0.4179940799416133, -0.10584343013473729, -0.36598792798962027, 0.2819086901609936, -0.22196337942263844, 0.13802110311671742, -0.2708249842385827, 0.5674100673747606, -0.1451254431499259, 0.12409717643260589, -0.5795485713392162, 0.47091193033035306, -0.09200206793150761, 0.2987823588891272, -0.2998424936526487, -0.7643191853915461, 0.4520091221135335, -0.3475998774327399, 0.08226958106065058, 0.5535765212573289, -0.2526887654777331, 0.7033506259185853, 0.460798899186852, -0.37879441552023546, 0.33491771607234255, 0.07060740493257578, 0.3450010319193401, -0.2995934780171172, -0.16174556006731347, 0.1626651502720821, -0.04451041445831369, 0.6078258146148996, -0.28936278231911566, 0.44489119476670114, 0.10478096224404962, -0.376999673443993, -0.033520311676004416, -0.22882428627915619, -0.10323134178110864, -0.20749854328510686, -0.2787245717018825, 0.009343218440577422, -0.1278286684389612, -0.22096354040448477, -0.03865542566509858, -0.23573884448030316, 0.44457194274046435, -0.4217348511146945, -0.2319629307361999, 0.43975542105615417, -0.31374901439615577, -0.41823089423817467, -0.606700975394009, 0.4329432027254748, -0.3297919500202781, -0.34619601115547677, 0.13528628953912414, 0.0794649030741077, -0.2675586625279822, -0.10935070291657131, 0.23304077317047406, 0.2718286892947549, 0.28100291332889904, 0.11699252286755918, -0.2570033989183882, 0.6442599515425479, -0.06075841619320943, 0.4083767543551597, -0.27782333853575925, -0.5446634348005094, -0.19041114314681834, -0.044605030240184126, -0.1004564274487236, -0.4127020577111705, 0.3956165828201519, 0.589114613501063, 0.5340543499702828, -0.20335013205890565, -0.21829190899648246, -0.12111639296007834, 0.5177652017250612, -0.40054578452845263, 0.21190253861710648, -0.01202778369560469, 0.024983896938556245, -0.09878644093599179, -0.6147735311820982, -0.04479731753221347, -0.61757139350756, -0.14678157151849786, -0.488091578245566, 0.09218307020192532, 0.3777588853417211, 0.03040202483912524, -0.05561434699204948, -0.6468417273742784, -0.07495772594990557, -0.30305076959463506, 0.028354178745039593, 0.41927528205548115, 0.09252501729712845, -0.31760223003972743, 0.7150027479771937, -0.24726523387608237, 0.4276336199121308, 0.022895817240983607, 0.06778353630640838, -0.11694136193605667, -0.6329283395344473, 0.52546653804785, 0.4483868703459556, 0.39521873392103274, -0.2954184212148214, 0.5081314053922996, 0.4389862043636932, -0.7230741865905936, 0.364530288582149, 0.5503393106152681, -0.3396847285351221, -0.18542201244215797, -0.012169885159748262, -0.23286126955148026, -0.14173252620766782, -0.49475744459543514, 0.17346616671932388, 0.03251613307689173, -0.30400588887894003, -0.10202070734478919, 0.8027182207547634, -0.1717723206941298, 0.7664278600419547, -0.1885311720354832, 0.3686523804704149, 0.3057023009267583, -0.13624235729043838, 0.48029926060970424, 0.08227804845899554, -0.11980720235942041, 0.24876711357721143, -0.41959841727173564, -0.426105051115501, -0.21452573894568552, -0.07415098669129216, -0.23745938523513963, -0.5945768977562438, 0.18144977799907666, 0.2567795958039423, -0.29330421100592163, -0.36989410491907837, 0.5639929957501686, 0.2928818115761124, -0.2578401205059415, 0.21835522488681977, -0.331486571270449, -0.2663602967277788, 0.09148849914756314, -0.2756850378228518, -0.04701222829487811, 0.26815488914573693, 0.330270900115761, 0.48875930941884466, -0.04200236679201885, -0.21492980006862913, -0.26610147468763684, -0.06982368900368469, -0.37060387565294517, -0.19827089197790349, -0.7704799741978308, -0.34538065146138075, -0.17289821745348644, 0.11649754704256865, -0.18622033658558512, 0.1807328422538456, -0.0541738567430729, -0.37307215091386375, -0.25087064958877325, -0.42266029811358585, -0.14994894279308407, -0.33584980588091046, 0.21025764522823825, 0.166006296261436, -0.04495105108857361, -0.009185051391009953, 0.18023970118893942, 0.2022927035494874, -0.1788857828971013, -0.04980233420028826, 0.3462532957398232, -0.12608146758700653, -0.44223371844294856, -0.25754103854771354, -0.281564186293506, 0.3099424866159114, -0.35175908582531146, -0.03445416590227601, 0.35547583583669395, 0.3713586572955555, -0.22534344759739638, 0.23683424200189426, 0.5260269320192696, -0.2698875347368292, -0.7797576162365154, 0.5476627957718405, 0.17018894080305735, 0.21740126526195191, -0.16397865234751968, 0.3598250315976021, -0.0715231558686759, -0.033542906967678365, -0.4517621714154468, 0.1939658140194215, 0.0717162525585218, -0.008899749699138627, -0.17404444238213065, 0.6314524963165883, -0.0909375760192099, 0.01517892632164397, -0.3835951410039255, -0.370515470704796, -0.2782375458426824, -0.37009220212728705, 0.05166210037949741, 0.02906352855753752, 0.4810828339007003, 0.26466182703748187, -0.3719356614193672, 0.16554970264869062, 0.1022001582674894, 0.0824443616861536, -0.3186804918404785, -0.0739525637712686, 0.04474574809251444, 0.16822510783271705, 0.5076259198862698, 0.010190325072321746, -0.047409008962135735, -0.11545474028610342, 0.3909335278042264, -0.33981329735926696, 0.36132413995647056, -0.617839974617104, 0.20609971729678064, 0.3498814368064034, -0.001855419524362495, -0.12997929561983926, -0.31438903990322475, 0.46592061721629496, -0.6647318351950948, 0.014718506400695164, -0.28264475735352007, -0.4572500579305592, 0.2041954785191332, -0.08203797147273784, 0.710421940117582, -0.08433484986182359, 0.05711879004822895, 0.1572546371558287, 0.4320967038281688, 0.9691346314232095, 0.22470603727597446, 0.04867838643373368, -0.10840880728393937, 0.2261183457647917, -0.16359872208824972, -0.39090054405534863, -0.10474718930997629, 0.017928487933593265, -0.10084041404463992, 0.13928917684450115, 0.5696121085178717, -0.2567631096383345, -0.46566970226923105, 0.15271029779274553, 0.3334021485112271, -0.07799827234841361, -0.42582065382506074, 0.26665628106758194, 0.061175883051493296, 0.21470272326836803, 0.035442921320156306, 0.5578626244168992, 0.49277777552431057, -0.04326717118001358, -0.5271457448659892, -0.4752924189413408, 0.030138785703765658, 0.11232547870520992, -0.40854531758801577, -0.23774541856624967, 0.4090616216884246, -0.2335822892687973, -0.7658056429660426, 0.3238624396973562, 0.14454711013698474, -0.20737592779885242, -0.5520191120815425, -0.06091226919656401, 0.18861074644687117, 0.27902948046189957, -0.1739153350179859, 0.007023943388585779, -0.255298392798637, 0.3519903450955838, -0.2687426924030054, 0.09921359201150387, 0.0343934532861572, -0.36643266155268966, -0.3660161753483803, 0.08526198637322675, 0.05247309258348132, 0.02993995032425309, 0.5459154551432368, -0.3784266262346657, -0.1402533622739228, 0.1590904940710643, 0.057652681877604625, 0.035831676568803886, -0.1335032178051529, 0.3908285830977643, -0.008740166856564952, -0.12142315329329972, -0.627422684843584, 0.4710785850200204, 0.48580789233867616, 0.31514801129055275, -0.08428595700347655, 0.16897682056345473, -0.10637603108118487, -0.0677042210220048, 0.08403059200979074, -0.06320040388843162, 0.2661634929820089, -0.07164492424244373, -0.32896618664513966, 0.03135794649584131, 0.5133852555119099, -0.10603786733705811, -0.13926991100519015, -0.0448914331593121, -0.1830509531373377, 0.4026672022376177, -0.022803103425392518, 0.03516342056104303, -0.6293203057163508, 0.7136487612643619, 0.001654459236706764, 0.09844007431966406, 0.2164477611954153, -0.2404572773036197, 0.40738385860804316, -0.46915330776787545, -0.2119760469343091, -0.357223070644943, -0.03153658090814593, -0.4575834287055524, -0.16313518752118966, 0.2910251627640318, -0.1678737459270721, 0.06371546291249713, 0.1010471567837791, -0.23586789613933526, -0.22683182222584994, -0.5230389844921266, -0.08541284177096639, -0.6226869565159071, 0.998978294196784, -0.047493905445018456, -0.0030596369458381796, -0.6427191268332834, 0.5185094550769431, 0.21478979161445516, -0.11251262920310265, -0.5956676432413246, -0.8024723050373506, 0.020993320578970683, 0.15437480889836566, -0.10907630799223293, -0.2137064187181168, 0.5258916769814548, 0.022480666302836905, -0.23800419731441275, -0.07049748676513162, 0.5669386651891708, 0.1314627493071652, 0.29133905864142084, -0.4670583865197955, 0.11437457158822857, 0.2817590093326896, 0.31693606309072864, 0.18128211562803728, -0.799980649924446, -0.14458010154213743, 0.31859691381596444, -0.6404315325046083, 0.2165902291772524, -0.08251471895672163, 0.1191705857153905, -0.17308254434671833, -0.335316279460579, 0.015855705372337017, 0.22214636885145925, -0.07015630643905535, -0.18946787146651042, 0.2166384337384523, 0.15955425759121492, 0.10381276678836054, -0.020749823670049072, 0.12425415002201515, -0.20327736168587757, -0.15559505295747514, -0.06235465213334415, 0.5785775519019363, -0.16535073224307562, -0.5175647931366107, -0.030675451372795075, -0.04708200253160654, -0.21583697441684116, -0.15132791898504142, -0.3609878898892057, -0.6573307310974861, 0.0406513670216071, 0.026348532455204937, 0.15399430855645743, -0.03188307878386109, -0.18175591712514505, -0.06622901895303285, -0.23007665746716788, -0.04870138868703772, 0.16616702495165042, 0.11775278573560814, 0.1510116783374381, 0.019680269015268967, 0.18663898256160877, -0.08778643578189435, -0.07843471218693782, -0.0810814264030974, -0.2105693211383109, 0.06531736082926733, -0.19540687500964973, -0.053807165690535126, 0.04829350246339584, 0.019805653338912783, -0.16023903921933824, 0.011528321536352262};

	w1->Set(w1_c);
	w2->Set(w2_c);
	w3->Set(w3_c);

	arbi->Set(w);

	double fitness = 0.0;
	for(int i = 0; i < 2; i++) {
		b2Vec2 gravity;
		gravity.Set(0.0f, 0.0f);
		b2World* world = new b2World(gravity);
		J1_S_Field::Configuration fc;
		fc.MaxStep = 12000;
		fc.World = world;
		fc.TrainingMode = 0;
		fc.Robot = robot;
		J1_M_M0 monitor;

		assa2d::SceneMgr* scenemgr = new J1_S_Field(&fc, arbi, w1, w2, w3);
		scenemgr->Run(&monitor);

		delete scenemgr;
		delete world;

		fitness += monitor.GetFitness();
	}
	fitness /= 2.0f;

	delete arbi;
	delete w1;
	delete w2;
	delete w3;

	return fitness;
}

double e1(double w[]) {
	ANNWeights* arbi = new ANNWeights({6, 10, 3}, {false, true, false}, {false, true, true}, true);
	ANNWeights* w1 = new ANNWeights({19, 20, 2}, {false, true, false}, {false, true, true}, true);
	ANNWeights* w2 = new ANNWeights({14, 20, 2}, {false, true, false}, {false, true, true}, true);
	ANNWeights* w3 = new ANNWeights({11, 20, 2}, {false, true, false}, {false, true, true}, true);

	w1->Set(w);

	arbi->Randomize();
	w2->Randomize();
	w3->Randomize();

	double fitness = 0.0;
	for(int i = 0; i < 2; i++) {
		b2Vec2 gravity;
		gravity.Set(0.0f, 0.0f);
		b2World* world = new b2World(gravity);
		J1_S_Field::Configuration fc;
		fc.MaxStep = 12000;
		fc.World = world;
		fc.TrainingMode = 1;
		J1_M_M1 monitor;

		assa2d::SceneMgr* scenemgr = new J1_S_Field(&fc, arbi, w1, w2, w3);
		scenemgr->Run(&monitor);

		delete scenemgr;
		delete world;

		fitness += monitor.GetFitness();
	}
	fitness /= 2.0f;

	delete arbi;
	delete w1;
	delete w2;
	delete w3;

	return fitness;
}

double e2(double w[]) {
	ANNWeights* arbi = new ANNWeights({6, 10, 3}, {false, true, false}, {false, true, true}, true);
	ANNWeights* w1 = new ANNWeights({19, 20, 2}, {false, true, false}, {false, true, true}, true);
	ANNWeights* w2 = new ANNWeights({14, 20, 2}, {false, true, false}, {false, true, true}, true);
	ANNWeights* w3 = new ANNWeights({11, 20, 2}, {false, true, false}, {false, true, true}, true);

	double w1_c[] = {-0.47010216520221915, -0.45936241275706946, -0.519321184640162, -0.3091422302071714, 0.7028055111725567, -0.2672360960292496, -0.6588323556945519, 0.6159027589085851, -0.6850207953796262, -0.27025987874267116, -0.3089394669681587, -0.36114463879651104, 0.6433483341380167, 0.2781103593178248, -0.9251126992656903, -0.554746401090237, -0.3492177278094736, -0.022797041591790038, 0.9456739169664135, -0.7126612008609154, -0.10762210048146462, -0.16212542760731952, 0.5279815924588004, 0.6171027010610717, -0.035964333152484596, -0.34996880579874706, -0.48662822247549087, 0.06831156503167045, -0.7489007795734384, -0.5512175043458521, -0.04733778501979179, -0.33808877375442636, 0.8118518836349169, 0.8232801530068031, -0.22052381747987876, 0.16679826816157603, -0.23679976925342777, 0.3729355800159691, 0.7133839237648589, -0.19335831164356382, -0.35255972416790426, 0.03447201823397404, 0.3575173554580111, 0.09108979405161152, 0.26408901284670416, -0.5615967975910953, -0.17830062305266653, -0.3741352700386306, -0.12373383596281169, 0.17558674909820077, 0.17720163997624278, -0.8629085126019832, -0.03629790898799279, 0.2825273176925515, -0.5733255539233565, -0.6435215827139903, 0.5971073367469821, -0.06800041309471212, 0.3707930590931144, 0.5979218776500053, 0.053510076900759616, 0.19587668613231618, -0.15539321400220332, 0.42583439441695853, 0.18755233197810642, 0.6513845190102456, 0.4206397707912404, 0.02082720765335188, 0.4210804484704287, -0.11957182801551669, -0.03976891354832139, 0.14130402563114927, 0.11239371232398664, 0.5386535183637349, 0.4169301126835787, 0.23449379563673303, 0.009258148251947693, 0.24423573198296594, -0.043373068088453676, 0.056605584278712484, -0.25076631240502234, 0.07785569531236596, 0.1715859023326456, -0.028225500412217372, -0.4139781833443201, -0.35144532892462926, -0.5695458888056144, -0.689464826720624, 0.4170436598416667, 0.3703271108029295, -0.14028110945155045, 0.3444597196524999, -0.5030690746242801, -0.5078003844303428, 0.2031163278102157, -0.04648588833563229, -0.36379679341337173, 0.19855596464767636, -0.40127974136248834, 0.3829159758422617, 0.7844361467050552, -0.11072167205906483, -0.06172204868798985, -0.477374455737903, -0.4941373424610013, 0.547460373047626, -0.08717555152455818, -0.288632179909095, -0.4055673314463155, 0.5585519915726237, -0.8098821325083924, 0.6132956122811088, -0.6974692371462091, -0.2977173688477479, 0.11226205236146218, 0.5900126337606201, -0.3188542401053832, 0.5380264141367193, -0.34289580557680355, 0.06642470120444942, 0.1303111910795419, -0.58183232825278, 0.06715978312085813, -0.5850149122661737, 0.0629376796994938, 0.15313128604790568, -0.182813094381294, -0.013508671490605773, 0.2890342916363333, 0.08218590034493405, 0.47031308469714683, -0.6047667474315881, 0.5357294620259687, 0.11420819380850868, -0.17073431114040452, 0.2368325444629235, -0.22961518022530547, -0.12877208945025204, 0.08380278095061193, 0.12066128851252221, 0.3758517048453368, -0.5303435533048859, -0.6311618892578257, 0.6091619745563225, -0.6852684320986147, -0.27678412097050376, -0.20863841128194616, -0.5684605331134703, -0.6034613625530401, -0.3423095006425151, -0.8588357454215233, -0.8005673732812701, 0.6982612747358851, 0.38762313248138985, -0.5069776330047172, 0.5630580739359551, 0.0981228531276198, 0.4500981086969261, 0.47802172859402503, -0.603564522513732, 0.22105436201133566, -0.4600698627436679, -0.3783491130963016, 0.172946133803282, -0.6488282192817654, 0.4445814374799185, 0.23733242960039275, -0.2616325507651868, 0.1722232685128971, -0.00152530863387337, 0.5508156839180033, -0.40346857633606703, -0.451205219441784, -0.2957924197444066, -0.8919219997543493, -0.28564123687427606, 0.12636175770546895, 0.20741601368255175, 0.07286750959543098, -0.16770220153474488, -0.4325674637167915, 0.5982850949012182, -0.21127774171510716, -0.667140736683717, 0.5396203843245252, -0.5823191875695914, 0.691918369502853, 0.3573380282803094, -0.2695237644465295, 0.6416523558409546, -0.5846755034651487, 0.41943704681908056, -0.4546726853716131, -0.548198282991504, 0.6465241978425919, 0.11722568263875888, 0.2059840353526189, 0.17820646424535475, -0.47108428475266817, 0.7076915862363455, 0.3221132952084837, -0.4597588060808415, -0.43931441579806624, -0.6521670978098464, -0.6431196832588152, 0.1717031549076476, -0.34597082407609586, -0.7060068933511321, 0.11145030208522871, 0.533652312631578, 0.5887943009895985, 0.7457275385467871, -0.4347937049326793, -0.5330895296879604, 0.7409884088008395, -0.6814142910068738, -0.38581590238354535, 0.6916485169524862, -0.8590640432667753, 0.12707364090609286, 0.5264042108079455, 0.19214600879099153, -0.6609690077761327, -0.1821017966405635, -0.6579117827500061, 0.3958726455873128, -0.20528244467816772, 0.3040543526366576, -0.5968150168542571, 0.04651941746201803, -0.04998310855560745, 0.34752426976263406, 0.432733427456142, -0.08567141372629566, 0.6352100113269835, 0.7817476195249814, -0.4435637743571509, -0.16786974925884113, 0.22431313457830732, -0.46923386765668074, 0.41271228251176084, 0.378221476289296, 0.6764735452622748, -0.3155355025544132, 0.5880432271509539, -0.04427749262712392, 0.09879059269025084, 0.31961919996988675, 0.6258942431879811, 0.06657494914658643, -0.4372037266281272, -0.016968429696066697, -0.43322028848911776, 0.0071430132946106, 0.08691718348967395, -0.5473758671164193, 0.38794378980756383, 0.5245287421812126, 0.46419291504020105, 0.09401050921237228, -0.46767596866865446, -0.48634659075652714, -0.370896979778234, -0.45079348140308556, -0.02636785815469147, 0.22039334185248965, 0.1413318175711907, -0.39446363035795007, 0.644133544690935, 0.5919577123971149, 0.8785674293143023, 0.6649393925148055, -0.5886522713443954, 0.5674153608458502, 0.11918729103658884, -0.38927385875749715, 0.9011879357169759, 0.31889489481859923, -0.3850566485311529, 0.471327849273238, 0.25651966887039307, 0.10535916520302548, -0.026685276916183207, 0.036600997584470815, -0.1064194927517965, 0.14511479908124203, -0.010538896232029048, -0.5858502180175595, 0.2555410864017418, 0.014099290424535628, -8.391731935110461E-4, 0.45022206976619317, -0.2015703051678103, -0.25118021903304283, 0.4483263360540345, 0.27676312080160825, -0.5905262222462611, -0.707484948332234, -0.9317447022653464, 0.057085413846923075, 0.3933519792074135, 0.45731511896804933, -0.21805075847438168, -0.3535201611729041, 0.6812763407851689, 0.42181472542014997, 0.442394538675134, 0.39497597175358684, -0.2201946169082924, 0.15546629598320771, 0.6086626691824832, -0.11458164228577263, -0.2735576581223116, -0.2507023092276702, -0.23140544411593697, -0.43024627513760816, -0.3506536535298327, -0.11042681850158001, 0.6321095542202396, 0.8536017217157185, -0.6890169080944211, -0.8142324820863319, -0.6617584666496771, -0.45150319782135373, -0.47814432875698487, -0.43913933963564106, 0.059501292185233076, -0.25426627866877005, 0.25639111585782315, -0.1677715497840534, 0.6138541494157677, 0.13034963874995908, -0.2717427933575137, 0.031551293608978966, -0.2865033956143073, -0.5059123590706205, 0.0613686991987461, -0.3132258391718576, 0.027302298003445635, 0.16912215004628128, -0.10887541631912442, 0.4978804011649584, 0.5340635146960371, 0.2486389147912535, -0.38500468148971834, -0.6116018369240227, -0.4504254614912177, 0.7170092720974202, -0.6558894530321612, -0.5534236774511638, -0.7528761921342396, -0.41458256909678376, 0.22201964192695423, -0.532952349846521, 0.17777962847913764, 0.672261078138556, -0.49417415423659294, -0.46252779286464396, 0.17235270176190864, 0.3951358879955795, 0.49910250226090835, 0.6849159710847118, -0.32681454305980207, 0.3057407877181211, 0.5504069377211548, -0.4276777558926123, 0.17024591756663948, 0.32471449722662754, 0.7788971008798075, 0.10902263502419059, 0.2589535011598272, 0.37069121555418005, -0.04081993157161842, 0.2174132125361275, 0.01823487554742114, 0.5691487153872623, -0.30931001464420793, -0.09348025060541307, -0.11929028980333514, 0.3718947141601639, 0.7630537929759715, 0.4869952992910397, -0.8492530582596032, -0.6328265654977239, -0.6141210285786981, 0.22721701478935202, 0.3152781722372795, -0.05253472604690734, -0.8229391245890167, -0.12395167175310434, 0.8221962927656851, 0.047053235026572354, -0.6340120854731561, -0.6780035375009189, -0.7196461555175204, 0.14241849096522674, -0.3683786945770667, -0.41302594763945955, 0.14779884515422087, -0.4910342619854574, 0.4439182566749355, -0.20234925319702282, 0.4571876115745448, -0.023906518377770886, 0.3448941687914938, 0.5891636907727312, 0.32057964360088675, 0.6849665710641404, -0.6330939967136539, -0.542520641047012, 0.021993541874676514, 0.5310695805511234, -0.375965444327447, 0.05341215651662866, 0.8916409223293553, -0.2225706511040934, -0.23121165779775926, 0.6778738883903672, -0.5226480866229065, -0.7135270082253063, -0.19361035876574625, 0.388537884795629, -0.6496456361142121, -0.4710710397579146, 0.07445392117405902, -0.6704938925828133, 0.1826247975858064, 0.49431255494213444, 0.0722280720472912, -0.25034368583419625, 0.4468281949027858, 0.11500975076494371, -0.1879483575264152, -0.3066692921504833, 0.056127477131950175, -0.20043864215225413, 0.1957736866420725, -0.07170724552202179, 0.11307961504117595, -0.04243421184299234, 0.1490890445615937, 0.1067546519671178, 0.5721863708899645, -0.31103217173850695, 0.5128406475641142, -0.33956427174208337, 0.4016540320217932, 0.7315421634689018, 0.03454442033098153, 0.5142760719737038, -0.44835729112459005, -0.29848489847907983, -0.4155392704074688, -0.46817776485375784, -0.19032712851304281, -0.45010959018526964, 0.6644252688599411, -0.3776676622146605, 0.21176885788405708, -0.27306856971434595, -0.3866839548412399, -0.0321181530714181, 0.5914909766474395, 0.22477293600702788, 0.39938475011136215, -0.756571510210275, 0.0615199993622418, -0.018222729351231898, 0.5723269264527708, -0.5537376393143062, -0.249174125296586, -0.38290768885214144, -0.03526858539126747, -0.06317697860583238, 0.67882767578578, 0.3301263845419638, 0.8592634561854504, 0.09918749695876439, -0.35469436591642495, 0.3833524983418053, -0.4101774267783851, -0.019475194103937766, 0.5617327346537981, 0.4487127482534489, 0.2989703183187214, -0.3157251506345307, -0.022506636142308648, 0.34190230339271854, -0.013044834075717888, -0.4516533882154424, 0.09294214929980005, 0.022019132843947176, -0.2953474655556736, 0.43034931747098304, -0.2545695235430254, 0.14779067410932206, 0.1369307264654688, -0.0683373870861102, 0.2557457096255017, -0.2960080365070499, -0.4172463256525485, -0.281193188126529, -0.06480119115920771, -0.2556313054117271, -0.46519884933290934, 0.3587477424218722, -0.23137644610787184, 0.35070834575752324, 0.13098995424120302, -0.5395380396177605, -0.25093504118440163, 0.24940851685513502, -0.3233591021703609, -0.24693627843056865, -0.7979482935686204, -0.06674429774812529, 0.5025598192848937, -0.020238075650874474, -0.07318679433401593, 0.21522451868055978, -0.3330771978207938, 0.36763701339685373, -0.3245374638983863, 0.03452721128546067, -0.38756484191755414, 3.1336415555076325E-4, -0.7652801201852472, -0.46320318737570587, 0.19175663108020063, -0.4457474870491969, 0.3074072381404661, -0.31400745951870385, -0.5016703658482389, 0.02370443657995877, 0.566346049548214, -0.381491160712183, -0.483667051117164, 0.4786897764131678, -0.5567796365755314, -0.4003805632885592, -0.43714783310721494, 0.2900938012053273, 0.20767181972741425, -0.11067821024742946, -0.677176519233495, -0.2899568288094804, -0.5228589874830112, -0.13154717447368539, 0.5522754372940731, 0.21521479096504645, -0.057458971540725184, -0.10008363939095105, -0.24575823972113367, -0.4013527997704811, 0.1736482963484245, 0.03589047188269534, 0.46370907148228274, -0.6360767593130259, 0.23668162451917252, -0.3760481843273341, 0.3495400937304429, 0.5520234694491085, 0.6172560912075598, 0.7132684290884395, 0.3112687141101686, -0.04413031327323225, -0.38956876359422754, 0.16259382330697186, 0.015395582383803785, -0.6980934744538636, -0.42197753078328726, 0.23558215051863224, 0.04042908957491839, -0.03708643013931803, -0.06915217806903375, -0.33892019085107045, 0.43524816596018334, -0.461674700146707, 0.7012559945326886, -0.25086139399547075, -0.2476523185009769, 0.21467258475548845, -0.07966365491093554, -0.7401970091704824, -0.23462248926153154, -0.1800087561098785, 0.2936999022505854, -0.17292863739996853, 0.22387407399287113, 0.2749154086044623, -0.37728232716702303, 0.352456501862617, -0.7050166571653163, -0.5985123592466465, 0.40224392971294337, -0.5419587800653867, 0.49470492079054984, -0.3366655650490349, -0.38578480037492835, 0.6997597745475824, 0.5050201766258894, 0.38660643495678987, -0.5204316872661207, -0.25454408293721864, -0.1569144648156161, -0.18902567197743525, 0.3423773947477391, -0.6158802477031817, -0.208944446795609, -0.016334716360260588, 0.2437106918038342, 0.01913317996747665, -0.24297670604746635, -0.694958887674106, 0.2600829866764762, -0.07117284282847461, -0.03526647099650184, 0.11305351143064979, 0.1851332146279745, 0.5902425171872534, -0.023864742930085295, -0.10966293523158777, -0.7413642513703197, 0.1726645058678782, -0.003211831844646587, 0.579907833778884, -0.24185185445437518, -0.48354670806711475, 0.18353359201057967, 0.0037750101967253535, 0.23180534933066327, -0.13523405652663825, -0.036767060455934426, -0.5815400138352537, 0.1909351812998723, -0.3105343394448058, -0.3519920407439984, 0.3673593622173681, -0.2641945660537657, 0.23841831763186003, -0.5182116698693794, 0.1326448625788825, 0.2857480029418348, 0.125119145921431, -0.7487688981207777, 0.24121863616506437, 0.39362207536009536, 0.22607602996113754, 0.29732453854164664, 0.28031215935413334, 0.6509311839598205, 0.15432302141754387, 0.537891382833765, -0.3044047976603572, 0.728942131394101, 0.1451814173985138, 0.17741263611250377, -0.5576678633089605, -0.4128184124034386, 0.3468415772681399, 0.18161713145408306, 0.6173803328337368, 0.0929430174510801, 0.36156280160662796, 0.08126933192461307, 0.10078139725333818, -0.5749660352693519, 0.7300460850799658, -0.3696330928265789, -0.28375734313709805, -0.005488983403658665, -0.5495421619074458, 0.09956086698711622, 0.306565507861824, -0.06358156834499956, -0.3097205163312864, 0.3853153414838036, -0.25220424711916783, 0.25262265610160395, -0.11565510796620397, -0.2932292753092772, 0.27392841990234773, -0.31272327719814874, 0.6791868582759754, -0.6259885011039997, 0.12492727083874233, -0.4017551798601904, -0.09978981401786423, -0.7211510270951726, -0.29826012858170226, -0.546244846901986, -0.28843857517172267, 0.5257959511394519, 0.10627595008092988, -0.7136393673940271, -0.1779784590917789, -0.8549077172012629, -0.29568108878466653, 0.40252698159563566, 0.34998356875110265, 0.5623440347399893, -0.4896922539646597, -0.2667614854131255, -0.2904546763795601, -0.5000966818898153, 0.017609326624424312, 0.8331627572246835, -0.8566931406341838, 0.5239195039575307, 0.03329744240044398, 0.8231169582488091, 0.34848949854000827, -0.3095232285005586, -0.18210382724913798, 0.46815572755050117, 0.1122642319314201, -0.23006064120863992, -0.011836899876285556, -0.6772948049610555, -0.6316109362514866, -0.19402684609754184, 0.2793081414026216, 0.5295197937397984, 0.003268352865405319, 0.5473386325932234, 0.562738435812155, -0.03070550109562971, 0.33806837556391, 0.5503980591134094, -0.4975369592952644, -0.350938994545103, 0.20797844264543636, -0.4901403027964975, -0.0952946920040085, -0.2888462455397484, -0.18109038337788352, 0.6304035275269971, -0.32435177788897374, -0.21725805157631123, -0.699696444192714, -0.23479073249570828, -4.956251645411441E-4, -0.22640621323834892, 0.7129147274238178, 0.6228292028654474, 0.151072525005402, -0.6430543102488941, -0.24629636859702553, 0.09332852600348543, -0.384314518332656, -0.4965440824798653, -0.7415357827458968, 0.006145807686822132, -0.2464309545911577, 0.054115220138742495, 0.02624570117415516, 0.20432360458901863, 0.2259725625411617, 0.04524025140538803, -0.03652881414270774, -0.47302886100371816, -0.3231835071237325, 0.08165485634541965, 0.5131881764947565, -0.14021908369070962, -0.30525739232927207, -0.36178549609080146, -0.06508199189379912, 0.12636657838165613, -0.6699800711072109, 0.40196415361993926, 0.5112509994396114, 0.5089025443596521, -0.34217138708011446, -0.0036555601048735287, -0.5206169568944562, -0.014884945826568269, 0.4136482479944762, 0.18767594170497753, -0.029069624540351724, -0.6843110648993802, -0.28846251463521033, -0.365910289961984, 0.3662874097368828, 0.13825921137060346, -0.16783391177566076, 0.3481529910365899, -0.1603181820336287, -0.33894547526451385, -0.5621053643773398, -0.1730286599233387, -0.4752289686512734, 0.24964466160574036, 0.10418348925889562, -0.5204913943752187, -0.05302447999028729, 0.5287350752220341, -0.28974123122999285, 0.08120744265942838, -0.038299658063144434, -0.2949259168744006, 0.016787690491731552, -0.23647431509158526, 0.26296357346551946, -0.3033855666038721, 0.1970272316994643, 0.5030879772516667, -0.22494107873387464, -0.13061459112547535, 0.1808077273370409, -0.5028504476919688, -0.3513849985038997, -0.10661986873344531, 0.23325842210492326, -0.5387140283687007, 0.6993353691039631, -0.4641891251888303, 0.003313655864287446, -0.27455844697977483, 0.2962884745722103, 0.09809342454044383, -0.310571408986949, -0.2717796426766618, 0.041775033483852156, 0.030294307223837316, 0.05922322148360274, 0.1651063268571575, -0.18627595963967358, -0.3703925012765447, -0.24002091237353784, -0.10571046217818622, -0.10024602695436083, 0.17312522875677472, 0.0665114145424574, -0.1973079406364588, 0.011767940701108984, 0.07248384164080533, 0.3374842341405634, 0.1910874641428756, -0.15822771999652024, -0.3538131961370415, -0.09632128907006399};

	w1->Set(w1_c);
	w2->Set(w);

	arbi->Randomize();
	w3->Randomize();

	double fitness = 0.0;
	for(int i = 0; i < 2; i++) {
		b2Vec2 gravity;
		gravity.Set(0.0f, 0.0f);
		b2World* world = new b2World(gravity);
		J1_S_Field::Configuration fc;
		fc.MaxStep = 12000;
		fc.World = world;
		fc.TrainingMode = 2;
		J1_M_M2 monitor;

		assa2d::SceneMgr* scenemgr = new J1_S_Field(&fc, arbi, w1, w2, w3);
		scenemgr->Run(&monitor);

		delete scenemgr;
		delete world;

		fitness += monitor.GetFitness();
	}
	fitness /= 2.0f;

	delete arbi;
	delete w1;
	delete w2;
	delete w3;

	return fitness;
}

double e3(double w[]) {
	ANNWeights* arbi = new ANNWeights({6, 10, 3}, {false, true, false}, {false, true, true}, true);
	ANNWeights* w1 = new ANNWeights({19, 20, 2}, {false, true, false}, {false, true, true}, true);
	ANNWeights* w2 = new ANNWeights({14, 20, 2}, {false, true, false}, {false, true, true}, true);
	ANNWeights* w3 = new ANNWeights({11, 20, 2}, {false, true, false}, {false, true, true}, true);

	double w1_c[] = {-0.47010216520221915, -0.45936241275706946, -0.519321184640162, -0.3091422302071714, 0.7028055111725567, -0.2672360960292496, -0.6588323556945519, 0.6159027589085851, -0.6850207953796262, -0.27025987874267116, -0.3089394669681587, -0.36114463879651104, 0.6433483341380167, 0.2781103593178248, -0.9251126992656903, -0.554746401090237, -0.3492177278094736, -0.022797041591790038, 0.9456739169664135, -0.7126612008609154, -0.10762210048146462, -0.16212542760731952, 0.5279815924588004, 0.6171027010610717, -0.035964333152484596, -0.34996880579874706, -0.48662822247549087, 0.06831156503167045, -0.7489007795734384, -0.5512175043458521, -0.04733778501979179, -0.33808877375442636, 0.8118518836349169, 0.8232801530068031, -0.22052381747987876, 0.16679826816157603, -0.23679976925342777, 0.3729355800159691, 0.7133839237648589, -0.19335831164356382, -0.35255972416790426, 0.03447201823397404, 0.3575173554580111, 0.09108979405161152, 0.26408901284670416, -0.5615967975910953, -0.17830062305266653, -0.3741352700386306, -0.12373383596281169, 0.17558674909820077, 0.17720163997624278, -0.8629085126019832, -0.03629790898799279, 0.2825273176925515, -0.5733255539233565, -0.6435215827139903, 0.5971073367469821, -0.06800041309471212, 0.3707930590931144, 0.5979218776500053, 0.053510076900759616, 0.19587668613231618, -0.15539321400220332, 0.42583439441695853, 0.18755233197810642, 0.6513845190102456, 0.4206397707912404, 0.02082720765335188, 0.4210804484704287, -0.11957182801551669, -0.03976891354832139, 0.14130402563114927, 0.11239371232398664, 0.5386535183637349, 0.4169301126835787, 0.23449379563673303, 0.009258148251947693, 0.24423573198296594, -0.043373068088453676, 0.056605584278712484, -0.25076631240502234, 0.07785569531236596, 0.1715859023326456, -0.028225500412217372, -0.4139781833443201, -0.35144532892462926, -0.5695458888056144, -0.689464826720624, 0.4170436598416667, 0.3703271108029295, -0.14028110945155045, 0.3444597196524999, -0.5030690746242801, -0.5078003844303428, 0.2031163278102157, -0.04648588833563229, -0.36379679341337173, 0.19855596464767636, -0.40127974136248834, 0.3829159758422617, 0.7844361467050552, -0.11072167205906483, -0.06172204868798985, -0.477374455737903, -0.4941373424610013, 0.547460373047626, -0.08717555152455818, -0.288632179909095, -0.4055673314463155, 0.5585519915726237, -0.8098821325083924, 0.6132956122811088, -0.6974692371462091, -0.2977173688477479, 0.11226205236146218, 0.5900126337606201, -0.3188542401053832, 0.5380264141367193, -0.34289580557680355, 0.06642470120444942, 0.1303111910795419, -0.58183232825278, 0.06715978312085813, -0.5850149122661737, 0.0629376796994938, 0.15313128604790568, -0.182813094381294, -0.013508671490605773, 0.2890342916363333, 0.08218590034493405, 0.47031308469714683, -0.6047667474315881, 0.5357294620259687, 0.11420819380850868, -0.17073431114040452, 0.2368325444629235, -0.22961518022530547, -0.12877208945025204, 0.08380278095061193, 0.12066128851252221, 0.3758517048453368, -0.5303435533048859, -0.6311618892578257, 0.6091619745563225, -0.6852684320986147, -0.27678412097050376, -0.20863841128194616, -0.5684605331134703, -0.6034613625530401, -0.3423095006425151, -0.8588357454215233, -0.8005673732812701, 0.6982612747358851, 0.38762313248138985, -0.5069776330047172, 0.5630580739359551, 0.0981228531276198, 0.4500981086969261, 0.47802172859402503, -0.603564522513732, 0.22105436201133566, -0.4600698627436679, -0.3783491130963016, 0.172946133803282, -0.6488282192817654, 0.4445814374799185, 0.23733242960039275, -0.2616325507651868, 0.1722232685128971, -0.00152530863387337, 0.5508156839180033, -0.40346857633606703, -0.451205219441784, -0.2957924197444066, -0.8919219997543493, -0.28564123687427606, 0.12636175770546895, 0.20741601368255175, 0.07286750959543098, -0.16770220153474488, -0.4325674637167915, 0.5982850949012182, -0.21127774171510716, -0.667140736683717, 0.5396203843245252, -0.5823191875695914, 0.691918369502853, 0.3573380282803094, -0.2695237644465295, 0.6416523558409546, -0.5846755034651487, 0.41943704681908056, -0.4546726853716131, -0.548198282991504, 0.6465241978425919, 0.11722568263875888, 0.2059840353526189, 0.17820646424535475, -0.47108428475266817, 0.7076915862363455, 0.3221132952084837, -0.4597588060808415, -0.43931441579806624, -0.6521670978098464, -0.6431196832588152, 0.1717031549076476, -0.34597082407609586, -0.7060068933511321, 0.11145030208522871, 0.533652312631578, 0.5887943009895985, 0.7457275385467871, -0.4347937049326793, -0.5330895296879604, 0.7409884088008395, -0.6814142910068738, -0.38581590238354535, 0.6916485169524862, -0.8590640432667753, 0.12707364090609286, 0.5264042108079455, 0.19214600879099153, -0.6609690077761327, -0.1821017966405635, -0.6579117827500061, 0.3958726455873128, -0.20528244467816772, 0.3040543526366576, -0.5968150168542571, 0.04651941746201803, -0.04998310855560745, 0.34752426976263406, 0.432733427456142, -0.08567141372629566, 0.6352100113269835, 0.7817476195249814, -0.4435637743571509, -0.16786974925884113, 0.22431313457830732, -0.46923386765668074, 0.41271228251176084, 0.378221476289296, 0.6764735452622748, -0.3155355025544132, 0.5880432271509539, -0.04427749262712392, 0.09879059269025084, 0.31961919996988675, 0.6258942431879811, 0.06657494914658643, -0.4372037266281272, -0.016968429696066697, -0.43322028848911776, 0.0071430132946106, 0.08691718348967395, -0.5473758671164193, 0.38794378980756383, 0.5245287421812126, 0.46419291504020105, 0.09401050921237228, -0.46767596866865446, -0.48634659075652714, -0.370896979778234, -0.45079348140308556, -0.02636785815469147, 0.22039334185248965, 0.1413318175711907, -0.39446363035795007, 0.644133544690935, 0.5919577123971149, 0.8785674293143023, 0.6649393925148055, -0.5886522713443954, 0.5674153608458502, 0.11918729103658884, -0.38927385875749715, 0.9011879357169759, 0.31889489481859923, -0.3850566485311529, 0.471327849273238, 0.25651966887039307, 0.10535916520302548, -0.026685276916183207, 0.036600997584470815, -0.1064194927517965, 0.14511479908124203, -0.010538896232029048, -0.5858502180175595, 0.2555410864017418, 0.014099290424535628, -8.391731935110461E-4, 0.45022206976619317, -0.2015703051678103, -0.25118021903304283, 0.4483263360540345, 0.27676312080160825, -0.5905262222462611, -0.707484948332234, -0.9317447022653464, 0.057085413846923075, 0.3933519792074135, 0.45731511896804933, -0.21805075847438168, -0.3535201611729041, 0.6812763407851689, 0.42181472542014997, 0.442394538675134, 0.39497597175358684, -0.2201946169082924, 0.15546629598320771, 0.6086626691824832, -0.11458164228577263, -0.2735576581223116, -0.2507023092276702, -0.23140544411593697, -0.43024627513760816, -0.3506536535298327, -0.11042681850158001, 0.6321095542202396, 0.8536017217157185, -0.6890169080944211, -0.8142324820863319, -0.6617584666496771, -0.45150319782135373, -0.47814432875698487, -0.43913933963564106, 0.059501292185233076, -0.25426627866877005, 0.25639111585782315, -0.1677715497840534, 0.6138541494157677, 0.13034963874995908, -0.2717427933575137, 0.031551293608978966, -0.2865033956143073, -0.5059123590706205, 0.0613686991987461, -0.3132258391718576, 0.027302298003445635, 0.16912215004628128, -0.10887541631912442, 0.4978804011649584, 0.5340635146960371, 0.2486389147912535, -0.38500468148971834, -0.6116018369240227, -0.4504254614912177, 0.7170092720974202, -0.6558894530321612, -0.5534236774511638, -0.7528761921342396, -0.41458256909678376, 0.22201964192695423, -0.532952349846521, 0.17777962847913764, 0.672261078138556, -0.49417415423659294, -0.46252779286464396, 0.17235270176190864, 0.3951358879955795, 0.49910250226090835, 0.6849159710847118, -0.32681454305980207, 0.3057407877181211, 0.5504069377211548, -0.4276777558926123, 0.17024591756663948, 0.32471449722662754, 0.7788971008798075, 0.10902263502419059, 0.2589535011598272, 0.37069121555418005, -0.04081993157161842, 0.2174132125361275, 0.01823487554742114, 0.5691487153872623, -0.30931001464420793, -0.09348025060541307, -0.11929028980333514, 0.3718947141601639, 0.7630537929759715, 0.4869952992910397, -0.8492530582596032, -0.6328265654977239, -0.6141210285786981, 0.22721701478935202, 0.3152781722372795, -0.05253472604690734, -0.8229391245890167, -0.12395167175310434, 0.8221962927656851, 0.047053235026572354, -0.6340120854731561, -0.6780035375009189, -0.7196461555175204, 0.14241849096522674, -0.3683786945770667, -0.41302594763945955, 0.14779884515422087, -0.4910342619854574, 0.4439182566749355, -0.20234925319702282, 0.4571876115745448, -0.023906518377770886, 0.3448941687914938, 0.5891636907727312, 0.32057964360088675, 0.6849665710641404, -0.6330939967136539, -0.542520641047012, 0.021993541874676514, 0.5310695805511234, -0.375965444327447, 0.05341215651662866, 0.8916409223293553, -0.2225706511040934, -0.23121165779775926, 0.6778738883903672, -0.5226480866229065, -0.7135270082253063, -0.19361035876574625, 0.388537884795629, -0.6496456361142121, -0.4710710397579146, 0.07445392117405902, -0.6704938925828133, 0.1826247975858064, 0.49431255494213444, 0.0722280720472912, -0.25034368583419625, 0.4468281949027858, 0.11500975076494371, -0.1879483575264152, -0.3066692921504833, 0.056127477131950175, -0.20043864215225413, 0.1957736866420725, -0.07170724552202179, 0.11307961504117595, -0.04243421184299234, 0.1490890445615937, 0.1067546519671178, 0.5721863708899645, -0.31103217173850695, 0.5128406475641142, -0.33956427174208337, 0.4016540320217932, 0.7315421634689018, 0.03454442033098153, 0.5142760719737038, -0.44835729112459005, -0.29848489847907983, -0.4155392704074688, -0.46817776485375784, -0.19032712851304281, -0.45010959018526964, 0.6644252688599411, -0.3776676622146605, 0.21176885788405708, -0.27306856971434595, -0.3866839548412399, -0.0321181530714181, 0.5914909766474395, 0.22477293600702788, 0.39938475011136215, -0.756571510210275, 0.0615199993622418, -0.018222729351231898, 0.5723269264527708, -0.5537376393143062, -0.249174125296586, -0.38290768885214144, -0.03526858539126747, -0.06317697860583238, 0.67882767578578, 0.3301263845419638, 0.8592634561854504, 0.09918749695876439, -0.35469436591642495, 0.3833524983418053, -0.4101774267783851, -0.019475194103937766, 0.5617327346537981, 0.4487127482534489, 0.2989703183187214, -0.3157251506345307, -0.022506636142308648, 0.34190230339271854, -0.013044834075717888, -0.4516533882154424, 0.09294214929980005, 0.022019132843947176, -0.2953474655556736, 0.43034931747098304, -0.2545695235430254, 0.14779067410932206, 0.1369307264654688, -0.0683373870861102, 0.2557457096255017, -0.2960080365070499, -0.4172463256525485, -0.281193188126529, -0.06480119115920771, -0.2556313054117271, -0.46519884933290934, 0.3587477424218722, -0.23137644610787184, 0.35070834575752324, 0.13098995424120302, -0.5395380396177605, -0.25093504118440163, 0.24940851685513502, -0.3233591021703609, -0.24693627843056865, -0.7979482935686204, -0.06674429774812529, 0.5025598192848937, -0.020238075650874474, -0.07318679433401593, 0.21522451868055978, -0.3330771978207938, 0.36763701339685373, -0.3245374638983863, 0.03452721128546067, -0.38756484191755414, 3.1336415555076325E-4, -0.7652801201852472, -0.46320318737570587, 0.19175663108020063, -0.4457474870491969, 0.3074072381404661, -0.31400745951870385, -0.5016703658482389, 0.02370443657995877, 0.566346049548214, -0.381491160712183, -0.483667051117164, 0.4786897764131678, -0.5567796365755314, -0.4003805632885592, -0.43714783310721494, 0.2900938012053273, 0.20767181972741425, -0.11067821024742946, -0.677176519233495, -0.2899568288094804, -0.5228589874830112, -0.13154717447368539, 0.5522754372940731, 0.21521479096504645, -0.057458971540725184, -0.10008363939095105, -0.24575823972113367, -0.4013527997704811, 0.1736482963484245, 0.03589047188269534, 0.46370907148228274, -0.6360767593130259, 0.23668162451917252, -0.3760481843273341, 0.3495400937304429, 0.5520234694491085, 0.6172560912075598, 0.7132684290884395, 0.3112687141101686, -0.04413031327323225, -0.38956876359422754, 0.16259382330697186, 0.015395582383803785, -0.6980934744538636, -0.42197753078328726, 0.23558215051863224, 0.04042908957491839, -0.03708643013931803, -0.06915217806903375, -0.33892019085107045, 0.43524816596018334, -0.461674700146707, 0.7012559945326886, -0.25086139399547075, -0.2476523185009769, 0.21467258475548845, -0.07966365491093554, -0.7401970091704824, -0.23462248926153154, -0.1800087561098785, 0.2936999022505854, -0.17292863739996853, 0.22387407399287113, 0.2749154086044623, -0.37728232716702303, 0.352456501862617, -0.7050166571653163, -0.5985123592466465, 0.40224392971294337, -0.5419587800653867, 0.49470492079054984, -0.3366655650490349, -0.38578480037492835, 0.6997597745475824, 0.5050201766258894, 0.38660643495678987, -0.5204316872661207, -0.25454408293721864, -0.1569144648156161, -0.18902567197743525, 0.3423773947477391, -0.6158802477031817, -0.208944446795609, -0.016334716360260588, 0.2437106918038342, 0.01913317996747665, -0.24297670604746635, -0.694958887674106, 0.2600829866764762, -0.07117284282847461, -0.03526647099650184, 0.11305351143064979, 0.1851332146279745, 0.5902425171872534, -0.023864742930085295, -0.10966293523158777, -0.7413642513703197, 0.1726645058678782, -0.003211831844646587, 0.579907833778884, -0.24185185445437518, -0.48354670806711475, 0.18353359201057967, 0.0037750101967253535, 0.23180534933066327, -0.13523405652663825, -0.036767060455934426, -0.5815400138352537, 0.1909351812998723, -0.3105343394448058, -0.3519920407439984, 0.3673593622173681, -0.2641945660537657, 0.23841831763186003, -0.5182116698693794, 0.1326448625788825, 0.2857480029418348, 0.125119145921431, -0.7487688981207777, 0.24121863616506437, 0.39362207536009536, 0.22607602996113754, 0.29732453854164664, 0.28031215935413334, 0.6509311839598205, 0.15432302141754387, 0.537891382833765, -0.3044047976603572, 0.728942131394101, 0.1451814173985138, 0.17741263611250377, -0.5576678633089605, -0.4128184124034386, 0.3468415772681399, 0.18161713145408306, 0.6173803328337368, 0.0929430174510801, 0.36156280160662796, 0.08126933192461307, 0.10078139725333818, -0.5749660352693519, 0.7300460850799658, -0.3696330928265789, -0.28375734313709805, -0.005488983403658665, -0.5495421619074458, 0.09956086698711622, 0.306565507861824, -0.06358156834499956, -0.3097205163312864, 0.3853153414838036, -0.25220424711916783, 0.25262265610160395, -0.11565510796620397, -0.2932292753092772, 0.27392841990234773, -0.31272327719814874, 0.6791868582759754, -0.6259885011039997, 0.12492727083874233, -0.4017551798601904, -0.09978981401786423, -0.7211510270951726, -0.29826012858170226, -0.546244846901986, -0.28843857517172267, 0.5257959511394519, 0.10627595008092988, -0.7136393673940271, -0.1779784590917789, -0.8549077172012629, -0.29568108878466653, 0.40252698159563566, 0.34998356875110265, 0.5623440347399893, -0.4896922539646597, -0.2667614854131255, -0.2904546763795601, -0.5000966818898153, 0.017609326624424312, 0.8331627572246835, -0.8566931406341838, 0.5239195039575307, 0.03329744240044398, 0.8231169582488091, 0.34848949854000827, -0.3095232285005586, -0.18210382724913798, 0.46815572755050117, 0.1122642319314201, -0.23006064120863992, -0.011836899876285556, -0.6772948049610555, -0.6316109362514866, -0.19402684609754184, 0.2793081414026216, 0.5295197937397984, 0.003268352865405319, 0.5473386325932234, 0.562738435812155, -0.03070550109562971, 0.33806837556391, 0.5503980591134094, -0.4975369592952644, -0.350938994545103, 0.20797844264543636, -0.4901403027964975, -0.0952946920040085, -0.2888462455397484, -0.18109038337788352, 0.6304035275269971, -0.32435177788897374, -0.21725805157631123, -0.699696444192714, -0.23479073249570828, -4.956251645411441E-4, -0.22640621323834892, 0.7129147274238178, 0.6228292028654474, 0.151072525005402, -0.6430543102488941, -0.24629636859702553, 0.09332852600348543, -0.384314518332656, -0.4965440824798653, -0.7415357827458968, 0.006145807686822132, -0.2464309545911577, 0.054115220138742495, 0.02624570117415516, 0.20432360458901863, 0.2259725625411617, 0.04524025140538803, -0.03652881414270774, -0.47302886100371816, -0.3231835071237325, 0.08165485634541965, 0.5131881764947565, -0.14021908369070962, -0.30525739232927207, -0.36178549609080146, -0.06508199189379912, 0.12636657838165613, -0.6699800711072109, 0.40196415361993926, 0.5112509994396114, 0.5089025443596521, -0.34217138708011446, -0.0036555601048735287, -0.5206169568944562, -0.014884945826568269, 0.4136482479944762, 0.18767594170497753, -0.029069624540351724, -0.6843110648993802, -0.28846251463521033, -0.365910289961984, 0.3662874097368828, 0.13825921137060346, -0.16783391177566076, 0.3481529910365899, -0.1603181820336287, -0.33894547526451385, -0.5621053643773398, -0.1730286599233387, -0.4752289686512734, 0.24964466160574036, 0.10418348925889562, -0.5204913943752187, -0.05302447999028729, 0.5287350752220341, -0.28974123122999285, 0.08120744265942838, -0.038299658063144434, -0.2949259168744006, 0.016787690491731552, -0.23647431509158526, 0.26296357346551946, -0.3033855666038721, 0.1970272316994643, 0.5030879772516667, -0.22494107873387464, -0.13061459112547535, 0.1808077273370409, -0.5028504476919688, -0.3513849985038997, -0.10661986873344531, 0.23325842210492326, -0.5387140283687007, 0.6993353691039631, -0.4641891251888303, 0.003313655864287446, -0.27455844697977483, 0.2962884745722103, 0.09809342454044383, -0.310571408986949, -0.2717796426766618, 0.041775033483852156, 0.030294307223837316, 0.05922322148360274, 0.1651063268571575, -0.18627595963967358, -0.3703925012765447, -0.24002091237353784, -0.10571046217818622, -0.10024602695436083, 0.17312522875677472, 0.0665114145424574, -0.1973079406364588, 0.011767940701108984, 0.07248384164080533, 0.3374842341405634, 0.1910874641428756, -0.15822771999652024, -0.3538131961370415, -0.09632128907006399};

	w1->Set(w1_c);
	w3->Set(w);

	arbi->Randomize();
	w2->Randomize();

	double fitness = 0.0;
	for(int i = 0; i < 2; i++) {
		b2Vec2 gravity;
		gravity.Set(0.0f, 0.0f);
		b2World* world = new b2World(gravity);
		J1_S_Field::Configuration fc;
		fc.MaxStep = 10000;
		fc.World = world;
		fc.TrainingMode = 3;
		J1_M_M3 monitor;

		assa2d::SceneMgr* scenemgr = new J1_S_Field(&fc, arbi, w1, w2, w3);
		scenemgr->Run(&monitor);

		delete scenemgr;
		delete world;

		fitness += monitor.GetFitness();
	}
	fitness /= 2.0f;

	delete arbi;
	delete w1;
	delete w2;
	delete w3;

	return fitness;
}
