//
//  JNA_Functions.cpp
//
//  Created on: Dec 18, 2014
//      Author: wei
//

#include "JNA_Functions.h"

////////---J_for_hiraga_2018---//////////
double jfh_robot_number(double w[], std::size_t robot, long long_buffer[], double double_buffer[], int add_info_length);
////////---J_for_hiraga_2018---//////////


////////---J_AROB_2018---//////////
double J0_s1(double w[], bool flag);
double J0_s2(double w[]);
double J0_s3(double w[]);

double J0_s0(double w[], float ws1, float ws2, float ws3);
double J0_a(double w[], float ws1, float ws2, float ws3);
double J0_d(double w[], float ws1, float ws2, float ws3);
////////---J_AROB_2018---//////////

///------------- JNA interface function -----------------///
double evaluateFcns(double individual[], int func_index, long long_buffer[], double double_buffer[], int add_info_length) {
	double fitness = 0.0;
	switch(func_index)
	{
	////////---J_for_hiraga_2018---//////////
	case 10:
		fitness = jfh_robot_number(individual, 10, long_buffer, double_buffer, add_info_length);
		break;
	case 20:
		fitness = jfh_robot_number(individual, 20, long_buffer, double_buffer, add_info_length);
		break;
	case 30:
		fitness = jfh_robot_number(individual, 30, long_buffer, double_buffer, add_info_length);
		break;
	case 40:
		fitness = jfh_robot_number(individual, 40, long_buffer, double_buffer, add_info_length);
		break;
	case 50:
		fitness = jfh_robot_number(individual, 50, long_buffer, double_buffer, add_info_length);
		break;
	case 60:
		fitness = jfh_robot_number(individual, 60, long_buffer, double_buffer, add_info_length);
		break;
	case 70:
		fitness = jfh_robot_number(individual, 70, long_buffer, double_buffer, add_info_length);
		break;
	case 80:
		fitness = jfh_robot_number(individual, 80, long_buffer, double_buffer, add_info_length);
		break;
	case 90:
		fitness = jfh_robot_number(individual, 90, long_buffer, double_buffer, add_info_length);
		break;
	case 100:
		fitness = jfh_robot_number(individual, 100, long_buffer, double_buffer, add_info_length);
		break;


	////////---J_AROB_2018---//////////
	case 10010:
		fitness = J0_s1(individual, false);
		break;
	case 10011:
		fitness = J0_s1(individual, true);
		break;
	case 10020:
		fitness = J0_s2(individual);
		break;
	case 10030:
		fitness = J0_s3(individual);
		break;
	case 999001:
		fitness = J0_s0(individual, 0.0f, 0.0f, 1.0f);
		break;
	case 999002:
		fitness = J0_s0(individual, 0.1f, 0.1f, 1.0f);
		break;
	case 888001:
		fitness = J0_a(individual, 0.0f, 0.0f, 1.0f);
		break;
	case 888002:
		fitness = J0_a(individual, 0.0f, 1.0f, 0.0f);
		break;
	case 888003:
		fitness = J0_a(individual, 0.0f, 10.0f, 1.0f);
		break;
	case 777001:
		fitness = J0_d(individual, 0.0f, 0.0f, 1.0f);
		break;
	case 777002:
		fitness = J0_d(individual, 0.1f, 0.1f, 1.0f);
		break;
	case 9999001:
		fitness = J0_s0(individual, 0.2f, 0.2f, 1.0f);
		break;
	case 8888001:
		fitness = J0_a(individual, 0.2f, 0.2f, 1.0f);
		break;
	case 7777001:
		fitness = J0_d(individual, 0.2f, 0.2f, 1.0f);
		break;
	case 9999002:
		fitness = J0_s0(individual, 1.0f, 1.0f, 1.0f);
		break;
	case 8888002:
		fitness = J0_a(individual, 1.0f, 1.0f, 1.0f);
		break;
	case 7777002:
		fitness = J0_d(individual, 1.0f, 1.0f, 1.0f);
		break;
	case 9999003:
		fitness = J0_s0(individual, 10.0f, 10.0f, 1.0f);
		break;
	case 8888003:
		fitness = J0_a(individual, 10.0f, 10.0f, 1.0f);
		break;
	case 7777003:
		fitness = J0_d(individual, 10.0f, 10.0f, 1.0f);
		break;
	case 9999004:
		fitness = J0_s0(individual, 100.0f, 100.0f, 1.0f);
		break;
	case 8888004:
		fitness = J0_a(individual, 100.0f, 100.0f, 1.0f);
		break;
	case 7777004:
		fitness = J0_d(individual, 100.0f, 100.0f, 1.0f);
		break;
	case 9999005:
		fitness = J0_s0(individual, 1000.0f, 1000.0f, 1.0f);
		break;
	case 8888005:
		fitness = J0_a(individual, 1000.0f, 1000.0f, 1.0f);
		break;
	case 7777005:
		fitness = J0_d(individual, 1000.0f, 1000.0f, 1.0f);
		break;
	default:
		break;
	}
	return fitness;
}

////////---J_for_hiraga_2018---//////////
double jfh_robot_number(double w[], std::size_t robot, long long_buffer[], double double_buffer[], int add_info_length) {
	ANNWeights* weights = new ANNWeights({22, 20, 2}, {false, true, false}, {false, true, true}, true);
	weights -> Set(w);

	double fitness = 0.0f;
	for(int i = 0; i < 3; i++) {
		long random_seed = time(NULL);
		srand(random_seed);

		b2Vec2 gravity;
		gravity.Set(0.0f, 0.0f);
		b2World* world = new b2World(gravity);

		S_Field::Configuration sc;
		sc.World = world;
		sc.TimeStep = 0.02;
		sc.MaxStep = 9000;
		sc.Robot = robot;

		M_M0 monitor;
		monitor.penalty_goal = -1.0f;
		monitor.penalty_boot = -1.0f;
		assa2d::SceneMgr* scenemgr = new S_Field(&sc, weights);
		scenemgr -> Run(&monitor);

		long_buffer[i] = random_seed;

		delete scenemgr;
		delete world;

		fitness += monitor.GetFitness();
	}
	fitness /= 3.0f;

	delete weights;

	return fitness;
}


/////////////////---J_AROB_2018---/////////////////
double J0_s0(double w[], float ws1, float ws2, float ws3) {
	ANNWeights* arbi = new ANNWeights({8, 20, 3}, {false, true, false}, {false, true, true}, true);
	ANNWeights* w1 = new ANNWeights({14, 20, 2}, {false, true, false}, {false, true, true}, true);
	ANNWeights* w2 = new ANNWeights({19, 20, 2}, {false, true, false}, {false, true, true}, true);
	ANNWeights* w3 = new ANNWeights({14, 20, 2}, {false, true, false}, {false, true, true}, true);

	double w1_c[] = {0.6265354022856425, 0.6530069254658386, 0.5728130309246787, 0.8013825023351742, -0.1315928966192233, -0.26775215125096463, 0.4836753278778654, 0.3892314010300594, -0.6076248551988253, 0.34101266957535004, 0.44417790052715705, 0.5242139598678287, -0.007617372117280571, -0.6113872872015365, -0.00889228067582521, -0.4128345934150268, 0.07009386127177765, -0.5772827070924126, 0.6787553798871057, 0.4639611182058311, 0.0928786544562121, 0.574446102439661, 0.6592174277601791, 0.5203814459437744, -0.12860513551433275, 0.2205272850206419, -0.20175238092228304, -0.5642301510100123, -0.793497589099891, -0.8028382709098631, 0.3803815377933094, -0.06648168585141168, -0.6218068081614839, -0.4942155390009475, 0.07182672306642743, -0.5021329136992011, -0.3927813928042512, -0.2600278824886008, 0.3741088021656564, 0.6394314775495845, 0.39771974971910384, -0.30801640766080074, -0.06463287261620938, 0.2775526250669241, 0.5220210047297361, 0.2391839881536285, -0.7032549983448267, 0.43839192466499827, 0.10732942415298159, -0.4229763323084944, 0.341907606410219, -0.454335081910613, -0.03998649708697893, -0.09073643432836033, -0.2031964448292431, 0.13158714904843233, 0.13424031089617908, -0.13106497425991814, -0.8027584069885998, 0.7545494246029111, -0.5202190586822962, -0.17607534589331736, -0.6113620066720933, 0.23042287327339533, -0.1237011307447962, -0.4969277928558964, 0.09946836437992951, 0.6535230132062175, -0.2031046045382938, 0.38467720095116564, -0.055157325079177144, -0.01305910207768915, 0.22762277996627603, -0.058553327577286034, -0.7859718752273437, 0.6173042148473814, 0.6273515192286715, -0.21845953492251524, -0.39268453276159243, -0.31358690180160964, 0.29560539133421626, 0.12569572361837067, -0.2965538956451968, -0.3407155386268023, 0.7032339727583311, -0.4743788088570088, -0.4542964879773511, -0.3797001803767118, 0.3854155102531574, 0.3345917730901783, 0.006097430447601799, -0.7598622573251108, -0.47374757870591383, 0.01441955643973307, -0.6357934187504728, 0.5626864268628848, 0.135078484159379, 0.0939254812582471, -0.04112316612806653, -0.4987989892279885, 0.003109199865110157, -0.7545835912365079, 0.12596532104791694, -0.28904626452941873, 0.6298906726020034, 0.07395606830740847, 0.500860685069472, 0.19238238882767644, -0.4570336214669002, 0.001793708066289812, -0.2665556399158029, -0.2077563304050769, 0.5109518916058302, -0.25062453206248275, -0.5682433404208914, 0.5321456331586281, 0.5759583105180882, 0.13984306839770771, 0.17562844919914392, -0.5051615394775493, -0.4016524661604743, -0.689197335470433, 0.2907918969658747, -0.6943065349084697, -0.6177481846147923, 0.14251536279587496, -0.5059663799007981, 0.6268716634592215, 0.5301334685698732, 0.04708694010148039, -0.5781495768497216, 0.4723900224709752, 0.5759068665321837, 0.7751752862422916, -0.23714597431450654, 0.34105237550878825, 0.11428805156064537, 0.6143973069658641, 0.6060311732240039, -0.7474701089564997, 0.6254260839919878, -0.540636831461677, 0.19927310966367257, -0.7775845199206766, -0.45773075773607474, -0.07081854896366253, 0.7361514851540336, 0.45786759685107226, -0.3478067296600959, 0.37283589988165244, 0.17612658963827096, 0.18521320926089418, 0.8607372792220884, 0.6120895339826596, 0.5078169150013766, -0.6224972160991011, 0.7879833099760928, -0.43156323418845877, 0.5704548506704019, 0.3290326059018788, 0.07530514030751699, -0.15444868279604268, 0.26260628177222767, -0.6900527896102796, -0.49132841978868097, -0.22839909375329584, 0.08458380473890242, 0.2670914823534973, 0.19831538578569985, 0.021898496152025534, -0.07835757081955244, 0.4449325667941015, 0.0398796693253694, 0.4381749970266217, -0.56459180197803, -0.4286535366226327, -0.38409290068589125, 0.5306172483721782, 0.44948992175159097, 0.37067553774129086, -0.6593591430175387, -0.2855141907658384, -0.5536899772778385, 0.12384577696552737, 0.3476292404651291, 0.27376359586435817, 0.4209412610136969, -0.37687714527425825, -0.1784731303124847, -0.17525419080441193, 0.3754743313365073, -0.040606941181576844, -0.5228371197971899, -0.22756379637122864, 0.3469330784167922, -0.5106774551064972, 0.6663059439649679, 0.02356964003613341, -0.25221593015058186, 0.06833308231928972, 0.1936872398102299, -0.5637127610405898, 0.37928960093200864, -0.4952512233194994, 0.42881458889781865, -0.3049065928372779, 0.28727888091293086, 0.5574704131216768, -0.4431640101571869, 0.051355242504335874, -0.7767779326789801, 0.3534144849100902, 0.43120384736175027, 0.7041968065719879, -0.5074694984606091, 0.4022851507518368, 0.1400026965835484, -0.21663066077453091, -0.3317925383779377, -0.6740173826237595, -0.4009577741219548, 0.6078127049850248, -0.13919919776416817, -0.10987130909813164, -0.6243926032556694, -0.05925388594051748, 0.37533396381893674, -0.6300627040355062, -0.3851130653673831, 0.6032451028995203, -0.4176148269417392, -0.21445485032483436, 0.23386109327401866, -0.23994202708414486, 0.43845490842615015, -0.5268630200666611, 0.14732225192160617, -0.6148585593109057, -0.5585326290985365, 0.02376641042029793, 0.28357722241542505, 0.08325333403974466, -0.8255977460713749, 0.4146665804843875, 0.38905419669944363, -0.19047126162129102, 0.5840863996382384, 0.12223695377645886, 0.08387908062469378, -0.14483023919425372, 0.22821198690813482, -0.4013351836933404, -0.666152093174617, -0.04816686819778692, -0.2837737729969752, 0.08232967661594355, -0.3691587552448274, -0.13310819528067144, -0.2663719854660316, -0.2203714748276626, 0.15170647877506788, -0.425930925566642, 0.2354013557491603, -0.3404920392685511, 0.42018100548482334, -0.5643448601127441, 0.5154124778436269, 0.05649493896976522, 0.09982335484001748, 0.3311241863592112, -0.5213164588146124, -0.7106222580373032, -0.08010128402436806, 0.007546486651198194, -0.22708925337385033, -0.04031801410672872, 0.10611690826695858, -0.1262643590881812, -0.43329213680351963, -0.5812798155931885, 0.5925568379354557, 0.7645305664712627, -0.6949311959205642, 0.5722022667600724, 0.18738204567722241, 0.46247249675818536, -0.7695575256590383, -0.06689676126744108, -0.6536821788001553, -0.5448502047818177, -0.6403925690679855, -0.37561424238030344, 0.6825591886622664, 0.44307815648058096, 0.8120953399105681, 0.642285493072599, -0.006052520304819772, -0.6012507262778463, 0.7450896027573465, -0.006774287860483369, -0.5435959974446811, 0.5689430401209735, 0.721981302472967, 0.6662650819245118, 0.595615201414167, 0.30004824892854964, 0.5432087808994424, -0.6231526625340252, -0.2345862129033767, -0.4176767331793826, -0.07695298831161561, -0.34905668419552727, 0.7371770608093763, 0.041840147311589235, -0.1729439302730319, -0.5455482579301986, 0.676115175590208, 0.8287029478845472, 0.023485163255897, 0.7551260313328241, -0.17970521107962614, 0.38585461066641463, 0.3455060387450938, 0.4016066686428791, -0.6850386575012111, -0.5404104330897161, 0.46222305735767466, 0.37576953253809575, -0.16105693913419433, -0.31033695517343424, 0.15702712314367306, 0.13761449453052793, 0.4163058497547868, -0.14135591421959798, -0.08392972525613737, 0.28815583405853157, -0.04042959585233405, 0.3789523010614183, 0.2048250892565078, -0.37420982634807565, 0.16752301297214695, -0.5255967084888888, 0.6469111587384008, -0.04016363273391624, 0.7308375669188683, 0.34500268054109207, -0.4670767124337559, -0.10853482473280734, -0.25102344338290195, 0.16952837893407602, 0.6408148162708054, -0.11747409958812485, -0.7158830929162506, 0.4480765362857155, 0.5741319909953877, -0.0013196028990008976, 0.061800081360035744, 0.08770859201729081, 0.7438408552590863, 0.40824098905906814, 0.6590459929701509, -0.1338262996785748, -0.07669173403640903, 0.26469436835196514, 0.5924952469082634, -0.1798617188524404, 0.4886027993326266, 0.732300881969665, 0.18542502091695331, 0.2491329699510288, 0.25797530196892715, -0.07546266448875921, -0.42123947854634963, 0.2910267537582039, 0.46551796187158084, 0.5076705280535077, -0.07866472579609786, -0.4747205911229989, 0.6421271624262511, 0.1565975495983497, -0.08150112392292508, -0.018495784704914267, 0.49215347095865736, 0.4757531237109939, 0.2764394064547478, 0.4407445570246603, -0.35589004897695586, -0.5575204136749462, 0.06555145360253839, 0.10066592342357933, -0.08133043583969396, -0.04865777549009496, -0.32091367272539256, -0.24587149475215966, 0.26338232898335573, 0.6809251047705402, -0.45060094772790493, -0.43679636493563456, 0.5434268428448461, 0.6461112100968366, -0.5981438895175561, -0.21412608473529285, -0.4644426267196697, -0.2707731747247247, -0.45935747432323265, -0.2980697604444566, -0.07857420316027139, 0.23446281714767886, 0.39923717364799993, -0.06727843907598367, -0.9216280939052244, -0.5863590778173474, -0.0060846304123884885, -0.006873077265664959, 0.04927932634140275, -0.2674199371557609, -0.3836169955513916, -0.430416799396285, -0.2860880692704282, -0.10737580479126044, 0.18372478573531228, -0.17210051286488337, 0.4525633974701818, 0.3745381792958451, 0.24240033741493713, 0.3381270192488066, 0.317120472765573, 0.2247407613794222, 0.46955462978237694, 0.521534517460076, 0.21254319822129963, -0.3215978135897146, 0.5798524325385368, -0.8014624628912289, -0.10190938779052192, 0.26534467483320395, 0.39503580006383354, 0.2532994723833289, -0.4007279379652633, -0.2242376788834598, -0.24802709802619308, 0.12696082956848698, -0.768619351261632, -0.707600589791762, 0.17073999868911258, -0.15045338170356237, -0.17274230778668018, 0.4757565296965629, 0.07289011641841191, 0.31913820998123765, 0.14234747348906768, 0.6389883411482165, 0.12841204374086365, -0.5030041437434024, 0.5622795203875532, 0.44539332804673004, 0.4905615897728912, -0.4392843742925229, -0.17148800431129194, 0.3883352773668184, 0.11725269250870055, -0.4624485803791781, 0.6166226416590697, -0.28192873803722784, 0.23562574596253358, -0.29549186621615464, -0.1325019967976578, 0.09578563454627412, -0.04070048625813032, -0.26855962443904263, 0.5344319344212737, -0.39544026783166664, 0.16765324339691354, 0.23525359857291528, 0.7669304612562479, -0.25947178256777514, -0.1542050269178476, -0.36728291356295756, 0.38840472793279734, -0.03902129415423977, -0.17415931242369573, -0.002093815975822356, -0.5526104980513473, -0.5184288950547482, -0.3131813514374828, 0.02952071155339778, 0.5101192185081155, 0.4459526996626987, 0.7733271593401491, 0.48037652501570743, 0.3166418967380515, -0.42710978478173356, 0.530634814466838, -0.19067708719094056, -0.12884532800730586, 0.0509098899787168, 0.5193845041534031, 0.3094733463214483, 0.13795511748383543, 0.48056322536611745, 0.3762264521159678, 0.2130129361317615, 0.021238666342816515, 0.6119900010134272, -0.10016180834256985, -0.17673593978103305, 0.6837190229599341, 0.33138120887085604, 0.30631639638444386, -0.271990741034532, 0.17755658495360493, -0.032739472858935685, 0.16147452563188167, 0.35534121649980077, -0.5734507214281991, -0.10153975913604305, -0.6941542556072668, 0.368336095311231, -0.026001031366955543, -0.2672632653859476, 0.12169178767022606, 0.559097046641967, -0.18345046857122305, 0.3228817738232071, 0.08410331158650595, 0.1365837963006936, -0.6665269788442039, 0.35687136114710344, -0.34674878870353565, -0.2895810261297585, -0.24127103224261962, 0.042822922568842375, -0.1967539593382254, -0.4506835861579345, -0.15813398935488096, -0.19775773527414925, 0.05772966049898172, -0.4077549255992301, 0.41029930142358595, 0.2315327041345719, 0.6526094229043432, 0.9426479283447569, 0.0562036021620706, -0.21626405454925526, 0.1966441269896953, -0.27118934486831436, 0.5669260392107105, -0.20701555404229055, -0.10130191322905169, 0.40464851407190927, 0.22170717448904836, 0.5758965141777205, 0.4334643691717283, -0.33089767016298616, 0.282903013796536, -0.037656060602372046, -0.15865170982915164, -0.4793041093258329, -0.7057721883499414, 0.8971556894136966, 0.3646150779100372, -0.5285653527794566, 0.08418792223158282, -0.44457675244303496, -0.09634029292930274, -0.2701497029522451, 0.22081393579158415, 0.4620937804781099, 0.35474027845788525, -0.3065360868904846, 0.4577943902743166, -0.04254951552077502, -0.013938277239586815, -0.026577769724354706, -0.14901452781613436, 0.6303469415020572, 0.3161141417762979, -0.4364624560361346, -0.18690606565936813, -0.031124464640392993, -0.06590143507511878, -0.6188668743172384, -0.2114963574293932, 0.15121194045652936, -0.6025579665112338, 0.03748125153688646, 0.32354981275958655, -0.7547852021644749, 0.6463542071611154, 0.542294798754353, -0.5488158857611002, -0.17429203738112112, 0.3938324354316025, -0.2621840347471908, -0.224914474632255, -0.5215575865446589, 0.2916333234837445, -0.17272875979176916, 0.009823612876517007, -0.6262724176915428, -0.1293610416025026, 0.15346363434578308, -0.37530939299989496, 0.009635013738052409, -0.05899648990513387, 0.44854335261730727, 0.35862696070918254, -0.07820515199478587, -0.30077648760189235, -0.4686076286825297, -0.06870008859462712, 0.7171945487391235, 0.5468416686992984, -0.2843542396781106, -0.36571469592014083, 0.2891171994607581, -0.20312674295640737, 0.10891974668475093, 0.5838871414971059, 0.37034995748514987, 0.3551165468452422, -0.008820509379568159, -0.47852932453197383, -0.422826395463836, 0.45106644755021896, -0.703119477914417, 0.12544815700158762, -0.03533913466973449, -0.07094649914403915, 0.11096860944170865, 0.07214910638269435, 0.06879229349842997, -0.20413030086332126, 0.3254062586700517, -0.3206741001807343, -0.45643035045803854, 0.49259152222049485, 0.0838244330363611, -0.614579203746183, -0.040377777797429126, -0.34059916739714835, -0.11505560645261596, -0.2808757220068629, 0.20950948091448163, 0.4367765214397049, -0.7501620748306363, -0.45150951551718804, -0.30350230447507076, -0.09319482691123301, 0.7586993123427154, -0.07281313767914825, 0.3423416244853146, 0.09073049761679561, 0.3192997113338069, -0.2098995261973281, 0.7525807111204552, 0.22707589204401046, 0.5398682806288586, -0.0035796199548248225, -0.3586159568266985, -0.517949248019606, 0.038138272423835856, 0.0872854713013171, -0.3027551744799897, -0.4449691070627288, -0.34459693038449496, -0.2796633156815431, -0.47932347881257265, -0.24101468823607677, 0.6097455937934977, -0.7253947699163766, -0.2772624038594965, 0.7785858431485592, -0.08033806888357993, -0.5063040618714446, -0.24919003785389432, -0.07591733408595243, 0.5200151951128826, -0.07896727911822442, -0.38246550536762525, 0.40326107521863164, 0.7539394758739755, -0.07327054668117865, 0.45951820633616997, 0.06104271135802984, -0.11731419071266547, 0.18875481664673288, -0.14635927625729508, 0.0564239968949774, 0.5621742441938431, 0.4830227059643939, 0.12369559016708154, -0.032031063327210146, 0.1474167786646553, -0.7359847367223725, 0.1844280252861404, 0.46442650395746315, -0.5276556551919839, 0.030624462763524388, 0.002467949539812206, -0.0793206455031425, 0.5869159911877506, 0.17212581904197008, -0.43388811374735703, 0.6635473677363979, 0.7201067262042619, 0.0220846371755838, -0.33605751844311427, -0.507330867495591, 0.004632271244618527, 0.7629009876320889, 0.14701415689895553, -0.24293743946017707, -0.16125187959315704, 0.07543397475978741, -0.43091826257904164, 0.6703370530450895, -0.47269658470435727, 0.4148421268886551, -0.15445862102393712, 0.14746785336013415, -0.09334101329149405, -0.010742023646616944, -0.15998478844698102, -0.16700135670398597, 0.10956112693086652, -0.13262128041297738, 0.2758789052966285, -0.20700382202277914, 0.18445046157312117, -0.15035959232732526, 0.2800420546695606, -0.15192640348744163, -0.26445352370823993, -0.018549176484251615, -0.043428124277900264, 0.16948571422901654, -0.14101802243276051, 0.169627451137796, 0.19009767810851194, -0.26130802761615096, -0.12101347455153519};
	double w2_c[] = {0.2089707144461596, 0.34164552851225494, -0.0682571565768332, 0.57981982757226, 0.0967428448932853, -0.06982760878437445, 0.12527687823333034, -0.043326089493831946, -0.34080376584155264, 0.5256922151847251, 0.19374566159671236, 0.5725250233220301, -0.31761230816023267, 0.31687112890169106, -0.3432940290103097, -0.13321424986096528, 0.44368251109745305, -0.15011592408854202, 0.05330135109894686, -0.22536975905195314, 0.4340276588462184, -0.5368582747313848, -0.13619198782961645, 0.3574888746879403, -0.5437628855633426, 0.15563384422276638, 0.004835200587750249, -0.9250521020911346, 0.17228229014162877, 0.8151377341898806, 0.310229217320235, 0.3456671627094155, -0.5339424899172958, -0.5777094446118494, -0.37745400215168845, 0.08957345882790141, -0.02494839786826354, 0.3590352458602621, -0.40445787204806766, -0.5481969340794656, 0.12905590880440482, 0.057517285200345186, -0.4956874143045308, 0.5571631856037783, -0.1775250803964472, 0.2734673757173005, 0.7236626217085391, -0.8367213748416338, 0.4487189073958294, -0.2355404118505083, -0.03179144948223908, 0.3776879790572917, -0.19479365326571463, 0.08846889604000409, -0.082881610749173, -0.2553657303800419, -0.4955727347120642, -0.43933482504494015, -0.11043718327167595, -0.44647712692528285, -0.12349497382202998, -0.17474186686268803, -0.7050092629644077, 0.4239877525500275, 0.09849688059343639, 0.45882199717581623, 0.49283292002023404, 0.645311252544994, 0.3262936667191668, 0.11533542504968863, 0.2280240239934174, 0.6111118556866568, -0.1041604598013041, -0.34327301617564815, -0.27898630227003485, -0.05696613123954501, 0.5232890308745157, 0.18561450075358676, 0.7433386443405533, -0.005253857414180857, -0.4942494290922886, 0.1577020850819858, -0.17451998044898126, 0.16230422106652775, 0.13605026734403153, -0.4886664286635451, -0.62228242763512, -0.022921008486893053, 0.06816427083149318, 0.01431985059403898, -0.13296116715463108, -0.6518731682561372, -0.5030246113788835, -0.36981891137116635, 0.8957710727402133, -0.6480099950714587, 0.6791292057044849, 0.5990591256233354, 0.8605150788252536, 0.10506738149953779, -0.091574722882953, -0.2412426643572159, 0.6811323427340086, -0.1560395507827999, -0.5442132290317512, -0.41142253874051693, -0.13509419111120308, 0.3603638602711673, -0.39563586270472517, 0.3023739319668371, 0.08526783458458934, 0.4684971901774838, 0.14724681647966914, -0.26376940911642965, -0.4021950670699859, -0.04215234600566928, 0.27964647680723814, -0.28867890559336873, -0.0342766379087313, 0.5867636572404875, 0.7359219241670745, -0.1806007135401605, -0.03341547880644774, -0.4060719444354435, -0.11522553510134581, 0.8269523890324046, 0.0913492679231798, 0.8513445019940413, -0.005492076560636661, -0.37522905270322005, 0.3553455083601289, 0.07191586783920022, 0.3148219081216964, 0.08201325998443992, 0.38005632491940144, -0.277407038598092, 0.3728760840670467, 0.3141520054309995, -0.22350667762286527, 0.10438718421609314, -0.6866165622884145, 0.43298719251262374, 0.22362949374489247, 0.2656815607686496, -0.4760660072242128, 0.566758682716669, -0.22529942893708785, -0.24040116879025164, 0.03212971788005042, 0.15282088091229828, -0.1179260435279492, 0.19528395919434371, -0.1847177008774292, 5.73698144457388E-4, -0.23269042769540887, -0.1270387317069877, 0.9443300334908413, 0.38671337393766825, -0.5150617197804196, 0.07681542183570364, 0.15889644518867774, -0.3207938835693704, 0.1418107958214635, 0.18429388508707023, 0.08986745304221205, 0.5770268826132052, 0.2943208595728872, 0.0848454267687325, -0.3021554727795759, 0.08671311820894738, 0.1594784245533419, -0.11855378911112012, -0.023681195475058148, 0.017133034239925488, -0.24124654933596829, -0.595992346576373, -0.2697738068124504, -0.34722108407863056, 0.6809435123861404, -0.22213186057900602, 0.0605058721419861, 0.378816980523368, -0.44574936679224036, 0.3783316296333748, 0.6004959758623434, 0.8424354023448024, -0.26240838164515695, -0.3585122404053831, -0.06209049268914448, -0.44024374114547926, 0.6016123663660828, 0.28073809716462866, -0.21454851609665535, 0.08850232217185233, 0.15311018201170284, -0.21235116437679602, 0.1436508149261841, 0.1390557209887671, -0.13522156856457399, -0.308880868102027, -0.3917061261143419, 0.0045889171733842805, -0.49448818740405653, 0.04055319633531933, 0.20499382975163713, -0.4920679311404251, 0.2361688338378615, 0.34419350480297145, -0.11529217387603706, 0.4265220094494928, -0.624785380800179, -0.2396029450885691, -0.0458003789543171, -0.3981632109970101, 0.16564021416083333, 0.18598752947805458, -0.10680674684523801, -0.4583483054994388, -0.516142023757575, 0.5493425058457412, -0.25450871210326753, -0.3819327122069078, 0.8743241446817047, -0.35400714820461016, -0.5400479523974867, 0.27099220305090843, -0.6493772098677713, 0.05076072891905217, 0.6104125563308606, -0.17394587845207693, -0.3514908897401189, 0.025448755583660422, 0.36672155490866143, 0.09475777755179232, -0.4382553930533631, 0.6185853764428165, 0.32553007841939724, -0.3066071291619395, -0.34787844117222094, 0.010373405324119109, 0.3402033676278547, 0.6753699534550885, -0.1004322147973287, -0.3395520051667544, -0.19121367384979748, 0.022054878989629642, 0.07703897516293999, -0.6210350687993447, 0.2748272777828307, 0.17986174719043557, -0.4333467937340076, 0.28815759895900084, -0.13443805983277105, 0.1986138686692833, -0.5861985880483362, -0.4723084255997813, 0.4601707137739529, 0.007603657315084722, -0.2986414830085491, -0.6377694872588052, -0.2849528753564846, -0.2949615159901406, 0.0946673136298317, -0.17659329964479162, -0.14237988522346853, -0.5033646507767995, 0.16886212447160526, -0.345634690924031, 0.16928569086427253, -0.003083929423182006, 0.18393371923581675, -0.6587179409193504, -0.40561741561305303, 0.3123305823279673, 0.4372075393830093, 0.02437281190207878, 0.33096675483531485, -0.3991174631763046, -0.3875961996234288, 0.5026306719938699, -0.40609976529175806, -0.012239121205640122, 0.37903931308531735, 0.02635250540914813, -0.7911891032387557, -0.10378303716477774, -0.03299250417139182, -0.3696032375767328, 0.5755049839381905, 0.7064412806881637, 0.5236114300492823, 0.4153953604561873, -0.177404623195955, -0.24669858495750824, 0.21156342590458355, -0.15013205032023802, 0.7000953456169308, 0.24059638502713948, 0.24612943160262157, -0.5488265332326541, -0.3682583039983741, 0.4055661405000551, 0.7627954029728445, -0.39921057213546046, -0.005833887415770976, 0.7849140389274221, 0.15014839065042335, 0.7142547869509444, -0.4030970156690571, -0.5905219132990689, 0.1896105278331796, -0.25472345318106454, -0.010010140242759369, 0.7242034869790162, 0.7783502760450991, 0.2864760394371748, -0.4220013445667833, -0.906144170156763, 0.36470041720965957, 0.8181912485277715, 0.8730038406418082, -0.23742552921970878, -0.7151224691986653, -0.268427530401288, 0.4924990877043122, 0.28564093141389, -0.03921754934233214, -0.8016140941689436, 0.2152852381837786, 0.47063581763155155, -0.617323477528013, 0.2509727227235783, -0.7323487937143263, 0.12124849162259894, -0.8213321658787069, 0.380386575402721, -0.4312004579996287, 0.37451059193471103, -0.3146921120480608, -0.4061371794542682, 0.6601439763063324, -0.506913748714765, 0.31100672117364625, -0.5683920799935009, 0.7661471544227361, 0.5208339343259478, 0.5476650178568703, -0.03757817862708339, 0.19867008658824148, 0.6404723934527461, 0.3810103536028481, 0.4910782798353996, -0.390340685932454, -0.3076548418165732, -0.6765369723223162, 0.7411321610766873, -0.5997291275015653, 0.05681484870430516, 0.11981588317791178, -0.14344070175686974, 0.4507123482298402, -0.023381187658140096, 0.06775125468401237, 0.16702762653918157, 0.6035541752545444, -0.23058291870618844, 0.16206104729699905, -0.4343372405502147, 0.8237334653601557, 0.7161910010687157, 0.5746466436852286, -0.1948015177243281, -0.34106546046594893, 0.29817193490954313, 0.46134521898177816, 0.3929717989922013, 0.09527544590586062, -0.3441816211093359, -0.05192089608238584, -0.6119294502914963, -0.13838761814694045, 0.38611855295066644, -0.2749770610667246, -0.23253129462907013, 0.5047035494024605, -0.44338657348678856, -0.22720746385809137, 0.29496216794570557, -0.5860435642607793, -0.4142486323129453, 0.43276497571170885, 0.06546544008262228, -0.2604847461638237, 0.5015846240372632, 0.6070175949506389, -0.44336512527275895, 0.1583559522330523, 0.5429592272173218, -0.31653145700031743, 0.7408749345380108, 0.31511220051394273, 0.050336808009941225, 0.4430482195385788, 0.5890929489403987, 0.6493998264805452, -0.7288119087656775, -0.5925259763976309, 0.14564501573809346, 0.2589260519445812, -0.4486834202333694, -0.003378488121109857, 0.5935784791586031, -0.03522888579067227, -0.38575929189285807, -0.04133609851097936, 0.22593839507107039, 0.29624768667936635, -0.2711870151258656, -0.0033944534622786793, -0.42976432885641735, -0.08544785791785396, -0.7894764683191123, 0.2578249490971325, -0.1705338509121277, -0.22039892669834468, -0.4914246090529455, 0.3358828913444525, -0.42993448238738285, 0.17919900268852698, 0.38540221742755965, 0.06536417511385768, 0.3296475807299062, -0.025874636842553103, 0.017383572783442436, -0.09537057731245155, -0.16340664241518163, -0.34398247224309103, 0.26252168236475265, -0.014745331723890004, 0.27506372109820243, -0.4915742600544354, -0.38290487753990454, -0.20126291474558636, -0.2152972377530925, -0.11986501460520921, -0.25383131319327357, -0.3456020311788208, -0.11765709000819487, -0.7141703501081473, -0.6353937172762079, 0.17204766037505909, -0.1165564703892421, 0.2092882531712647, -0.4802420084296064, 0.6543270431668706, -0.6074327186633708, -0.5160868301263324, 0.25179325776522155, -0.6829235559496931, -0.25352828447856907, 0.023572934246119476, 0.5607856848768158, 0.08403378107173654, -0.1969235655119233, -0.008465267351883438, -0.036061183713020015, 0.011764189722262421, 0.325915908622566, -0.6016138532875719, -0.6360103457248143, 0.06684216013551333, -0.19904640822989406, -0.2617412331638418, -0.4233892959477128, 0.496125212864175, 0.18586380971799718, -0.24031578408543364, -0.49054820191372894, -0.2598631595005962, 0.11896761129439185, -0.26639438899102535, -0.5301120041588058, 0.052335420861292926, 0.2105278074727818, -0.6886279874434852, 0.07595009543204118, 0.505492815765598, -0.26491644105074963, 0.8081640527944154, 0.4345186239102816, -0.6095115510978191, 0.04052865389188151, 0.5503300396581545, -0.1539419785417832, -0.09236762791062737, -0.6746749963492785, 0.9566509502397991, 0.5260874596903171, -0.3698469735232151, 0.154492823373499, -0.059305139912484886, -0.08224923290125163, -0.12470733892093731, -0.33199016522072605, 0.09269036771837195, -0.08433416463374556, 0.7755027639954127, -0.195332098251723, 0.4985745153416294, 0.4980467178449879, 0.2321013262932855, 0.27173691721447446, -0.12726247236959679, -0.04203746222115057, 0.031114651599915243, 0.1658162099301936, 0.02450917768219467, 0.12855953996608377, -0.6747180779773885, -0.6913056692777434, 0.5701302163232917, 0.42135665598695904, 0.31960703101937016, -0.502827580382016, -0.2656361163820918, 0.2577992485134486, 0.1518580255780595, -0.1652734922971868, 0.2956605833229098, -0.4587743355981582, 0.07113055985971582, -0.11375261030114316, -0.39063648188016065, -0.5927567207180603, 0.6416512122498157, -0.4524845695392424, -0.09238231026938362, 0.7685491124113587, -0.6331788036934574, -0.20239731684221401, -0.2787297057955542, 0.7473837789282624, 0.3226219310127965, -0.43414941488628694, 0.16628691308729232, -0.49628191883999107, 0.5513949495320418, 0.11028391711047011, 0.3640756580468272, 0.0205681348727437, -0.5384739340568916, 0.1637589124821131, -0.33060748630509695, 0.007603483259763177, -0.5141438154185398, 0.5451847657916464, 0.160730315811294, 0.02430014305050151, -0.1509968523236152, -0.15425906125800376, -0.5384102915677468, 0.7742259502592616, 0.5945004937663269, 0.30251245591504716, -0.6690766907913839, -0.0893235696231271, -0.6849422286209265, 0.1598430344088833, 0.6682730713454077, -0.09247985278894141, 0.5592090360781231, -0.4920674719540288, -0.013895697866288047, -0.14965953228173, -0.5701311174007243, -0.15468979783964412, 0.5285729365611451, -0.46001414764240905, 0.17686320777614306, 0.5468275265065077, 0.3349626382542937, -0.006359376978016293, -0.5005319098391134, -0.49653210412428195, 0.16270317940535803, -0.1983149920665382, -0.13264105843470914, -0.23745016873053754, 0.1929933885018206, 0.764958989596521, -0.5027734276588907, 0.04784636497249356, -0.3697475601373885, 0.4667444577628303, 0.20651773688046993, -0.028767543117741393, 0.009054342473112653, -0.3278995509210012, -0.17429518420582524, -0.5114472590063134, 0.13153824348200469, -0.5020194790911168, -0.3464925959360351, 0.025573595333215147, 0.5097832287174667, -0.3570011449141349, 0.5436662146713951, 0.7175180170537544, -0.081805696497275, -0.23077195301699982, -0.32508356398186455, 0.6735850261635948, -0.10794837334385171, 0.13965692497964793, 0.3430621559345446, -0.23601889997691505, -0.857407135764107, 0.4119428821955957, -0.6685306064273447, -0.18350864542001383, -0.2289867165495412, -0.2901839277275816, 0.4856191027565751, -0.3828582668231233, -0.01558199515263176, -0.3638029445221632, 0.18217672056602102, -0.4337183503223885, 0.25646924538362925, 0.47351914042953075, 0.3692169315435271, -0.18005515925037904, 0.3737278316596092, -0.24482483559374973, -0.3602544360096126, 0.6007792688319945, 0.511820369913324, -0.12472237672521666, -0.015234703854446016, -0.21341692827685674, 0.035683284025774864, 0.263904876867999, -0.009905418074806039, 0.007573998348347752, -0.6083854157818924, -0.08413569643065058, 0.25864466627051724, -0.14956972916716407, 0.40844714716456687, -0.6353194543338259, -0.3760150987836064, -0.11485812740503279, -0.19047676653456763, 0.3858640577909444, 0.7403213007066032, 0.5885865784591499, -0.7041291528463173, -0.5088632931835798, -0.17621507658917646, -0.2326501975134618, 0.44963365109991277, 0.09304121027139256, -0.43497936575901763, -0.36980777239146945, 0.08395951743557202, -0.26904752283128613, 0.23719028843610845, 0.2499266292681627, -0.20788098313205086, -0.3910855792709714, -0.5224121183946981, -0.14296027545475207, 0.3181759342127406, 0.39638995623766815, -0.12984674955486156, -0.7937926910157092, 0.6264786129226012, -0.25751554653290165, -0.469110811730878, -0.314861779018202, 0.30307825651555265, 0.3770320372124817, 0.5058035583609787, -0.004919976365807155, -0.13853226515888417, -0.20276192473710883, 0.46929076261162755, -0.14937383924318914, 0.25967798687358923, -0.20391984269221908, -0.20201929975094898, 0.286446274595488, -0.2331007316305916, 0.08973309599406129, -0.516143167626616, -0.1875302627547305, -0.09612262910254157, -0.4006327148574848, -0.4309558789124159, 0.5714134426082124, -0.509691409027145, -0.012203050952937524, 0.12750416546588858, -0.5718401229903267, 0.4975609141256171, -0.1933500080660973, 0.5423129561939348, 0.25765002466833226, -0.7669903773637546, 0.018990555719262225, -0.5177461893436108, -0.11361586054743716, 0.07900031901865946, -0.20333379718979785, 0.02435413641059632, -0.23341731478663297, 0.8191711392870585, -0.6743739008657637, 7.490422230096751E-4, 0.32400807822624306, 0.16023488614077527, 0.43800054703027835, 0.7316079638945195, -0.22593672759488168, 0.18757742756946216, -0.08895828417628317, 0.6663867178921555, -0.19309020682115005, 0.4005334809351328, 0.1910565292289419, 0.05010574449015374, -0.16158408094729898, -0.5971519677343251, 0.08340510503629314, -0.15296498139299813, -0.43104664610505555, -0.8223055154945358, -0.62821290612528, -0.5514670866501297, 0.5635339316284094, 0.2129282517147822, 0.7251708184841652, -0.26091428440406816, -0.3741212349582306, -0.13692826666417274, -0.3596004480651698, -0.32503238510699384, 0.2092324186509109, -0.11147450061075453, -0.46366002784167576, -0.12996524567117768, -0.7237756956351156, 0.5817996595485615, 0.007482406439501266, 0.5313570100468219, 0.03639467829448928, 0.32523440665782544, -0.1517611716596885, -0.5320885257602602, 0.5247909828838879, 0.3131920884458403, 0.1334180544068022, -0.791988202345888, -0.015746265299552174, -0.4060930015976034, -0.5744754026606179, -0.638376712704243, 0.3864190590157576, 0.6254185852331599, 0.30357781577974025, 0.037894155621221934, 0.15785945807332424, -0.4081812142384855, 0.04980097768189419, -0.7371661518501862, 0.11924101262935236, 0.43682313373261983, -0.1707593633136865, 0.17795270594424434, 0.516279152795391, 0.37912049348824783, 0.476324113703652, -0.1553068184091672, -0.03785077169181633, 0.37401268573046575, -0.4730071195692432, 0.8156342537499864, -0.12963311516361953, -0.003812809853790816, 0.257219709624262, -0.14817458871154596, 0.6282442154050348, -0.3034920627921598, 0.5664174911472495, 0.16970154965414197, 0.002513459326477098, -0.01945534253127367, -0.5012477723511589, 0.25947124918245, 0.11454323991215237, -0.14191022475427736, 0.5187419262492509, -0.1665944981147177, -0.62763523094591, 0.06024310313209084, 0.4330244322967735, -0.6055613599895375, 0.2841482349735971, 0.08958058118959808, 0.45537851208970037, -0.17701885286306207, -0.04074056697465775, -0.206790107832171, -0.3575746084509816, 0.6851571946568628, -0.3269243314454924, 0.39154084835160174, -0.46632474031252424, 0.2548215053359849, -0.08435850598657652, 0.022273145233729717, 0.15941759551776583, -0.23614569296900892, 0.014813227175235033, -0.15525413344119615, 0.27424862950434536, -0.16417073222113382, -0.34025115990001287, 0.33901913222112534, 0.32341505797156656, 0.3121896843125098, -0.11568241518691763, 0.07030213766799392, -0.2527712902967732, 0.12623733473874985, -0.18681241182215796, 0.2932319907095254, -0.14261008006120995, 0.030344250595930787, -0.18492587336391558, -0.3632184933157819, -0.3343887446688882};
	double w3_c[] = {0.37907572212812357, -0.2694399926241865, 0.29100255788397195, -0.40531051900919296, 0.39313389979147867, 0.7222667681674148, 0.7770049121349989, 0.23445264353554995, 0.141106301211846, -0.08635950754217439, -0.2644187604534568, -0.3679146394503834, 0.2906680943688318, 0.7388174161809444, -0.5002300383743092, 0.16435167141812207, -0.30883065781476626, -0.1206284996840908, -0.10036704943025263, 0.4974453111141497, 0.6122932502590445, -0.15869007567009263, -0.3839535493151277, -0.5496921388405727, -0.07409158441484058, 0.6875460584852215, 0.017875461870087983, 0.5314781721191798, 0.27450313102122975, -0.17973211513628923, -0.28090409852252085, 0.08490330062751605, -0.5991200374427537, 0.4547143207401374, 0.41100345234679175, 0.40389418936758575, 0.5122365784932366, 0.8137379426656357, -0.30911186004899194, 0.23893385887870836, 0.41266894306810686, -0.7399477669483496, -0.5913895318260841, -0.5323228564403283, 0.16870077877990697, -0.14470450083550104, 0.5736951867625157, -0.38170705923048176, -0.18022189968289376, 0.07884750098050494, 0.509648484851744, -0.2422922844272235, 0.4928634044878733, 0.3729803314424185, -0.07929777268587485, 0.300123041693852, -0.4058840345002602, -0.29653144462703984, -0.11699288900502668, 0.024209781263464077, -0.33242312202685725, -0.18756676774419095, -0.12250915116883061, -0.4932811401755801, 0.5697592245385168, -0.13896420691055184, 0.32958129788379015, 0.6717693620411456, 0.26354570132934413, -0.4486144005206954, 0.17722429394057518, -0.4555806834981746, -0.7062594172719585, -0.595855509242235, 0.25312559152129255, 0.18944524204616417, 0.03608119473307775, 0.3866505138311645, -0.01625977573280417, 0.0189882585121215, 0.2408896399163943, 0.4389338240892295, 0.25918208880029975, -0.5403729997230942, 0.06032371282076657, 0.11205450904368172, -0.4821229413982727, 0.7027841603758799, 0.24656380317034798, -0.3578451932776537, 0.30896208130670894, -0.23445771761035922, 0.6814679074904979, 0.2605373808326554, 0.13281452812948236, 0.10501211548678141, -0.5107302105838254, -0.3993430700606181, 0.36133134354026175, -0.24321371353757706, 0.48941984667615107, 0.03991204228420962, 0.15712608319209662, 0.43299512275226926, -0.1383120218621268, -0.09193157434457258, 0.37913353393905824, 0.10438243592729743, -0.10560062864029023, -0.5762995499595217, -0.07224860418915298, -0.29260279823137, 0.6358294421075462, 0.08586278423621711, 0.4370620248555902, 0.25047048141480904, -0.736379642111008, -0.23369571025403202, -0.07539961079161576, -0.44087392598849695, 0.20706695480978193, -0.7200975983153423, 0.08209334636390267, -0.1666527645025447, 0.25713264001280883, 0.5260694382011808, 0.36836265182574446, 0.2880954657109427, -0.175003214081945, -0.3010670897092204, 0.37933410012041713, -0.41201182481707455, -0.3423277713557259, 0.3507421317257416, 0.69980029896237, 0.4274545693558537, -0.6222913817020519, 0.2453986304029721, 0.15631395428851297, -0.03892595500316688, -0.18628455296566993, 0.6647009228298968, -0.6543683289052736, -0.5547423003980311, -0.4122720045885364, -0.09984697040242811, 0.2326483144532624, 0.19353869960863956, 0.7294335964841219, 0.5662804682057692, 0.38771189525996863, 0.5009065838710444, 0.4666733329734386, -0.2861808961515799, 0.26468761344892316, -0.746670590524129, -0.18344726271890366, -0.018265095220433777, -0.3286723267951628, -0.15026299992778708, -0.14300944098078847, 0.5239285284265095, 0.5526358011492609, 0.8133638154378703, -0.599991152333224, 0.5333516863161423, -0.3798957856865114, 0.25140540627466457, -0.3625619073810298, 0.2228885880372793, -0.2128442035039682, -0.06576794828880707, 0.332701812156395, 0.2722543824895933, -0.7403824667779751, -0.5815167145043185, 0.033863985608490854, 0.32753947689819213, -0.3376764769562349, -0.2854832735800407, -0.23264151637734568, -0.06432033128098022, -0.18050453834093935, -0.26895701883078893, 0.7189534750119176, 0.28296794597766395, 0.8949606280958641, -0.30491043306343946, -0.8368572201088448, -0.015298630821315704, -0.3779498045996609, 0.2084593313280503, 0.36223618912810085, 0.8887184796139939, -0.3110979142526835, 0.3459763280754903, -0.15245025334237794, -0.5550531337925327, -0.5541368581194688, 0.4948086145636155, 0.424115225854826, 0.3620280207202196, -0.6540007510418582, 0.19295707117643948, 0.34355882499873125, 0.4512719953002915, 0.4383594323210901, 0.2248955486361745, -0.6563317348240412, -0.378778843906819, 0.06866223977080087, -0.032803898320940356, -0.2888540890875189, 0.5383439494531972, -0.8580989117026383, 0.3238534634791278, -0.18501160270057881, -0.6671614850139189, -0.37547935725780196, 0.7448790626208428, -0.05623043471596406, -0.025881420985311626, 0.771293966442069, -0.3650827569182009, 0.6121008203516706, -0.822747118000981, 0.479553328963216, -0.22774733813181636, -0.3149620498251071, -0.42319664999659196, -0.4507389500238233, 0.13303239266443834, 0.08742415232178419, -0.7654970186626627, -0.0018843080251984296, 0.48368230640083515, 0.13876718820658174, 0.21651857036693226, 0.12222926406542976, 0.19524323185565548, -0.8364221984649438, 0.16750706630626563, -0.3422522260609389, 0.6856410709264964, 0.3309341904683849, 0.08112052151970592, -0.09726824400278758, -0.3744326078054669, 0.08711784717970739, 0.17407625463312237, -0.18987913070606127, 0.6079597794895077, 0.06709877172947795, -0.028498110743060634, -0.2451069449268889, 0.6960065043167764, 0.7306494004420373, -0.07510984018724412, -0.2233361908881657, 0.7055082493676731, -0.33140904099584106, 0.012793016455655518, -0.07710293637312582, 0.04913066622494984, 0.2635057943059945, -0.21959508622109816, 0.3805121264541516, 0.10573649268540934, -0.14608002861534955, -0.5867900289846, -0.14163707191446517, -0.030501901973258846, -0.3067546921017593, -0.17421596109056592, -0.00989531694152318, -0.42793100474641504, 0.6535089532674241, 0.6759989490945779, 0.13427519265366697, 0.17475518310392812, 0.6660291021653041, 0.21490858347217445, -0.012377911204994249, 0.3040425543147274, 0.8014455325661125, -0.4702567343818461, -0.23560078324581574, -0.2966476966778324, 0.025849403185892766, 0.5242659715399132, -0.24112354121240256, 0.5365877564862862, 0.3890754252587191, 0.36565283378569086, 0.4838539978933782, 0.7325580077502878, 0.7492714368489859, -0.7748287508677394, -0.33156319788771177, -0.6602848788356069, -0.18619726689562427, 0.1710083277639751, -0.39765727520747607, -0.7519564124345327, 0.46607257008326375, -0.3057748246677258, -0.4185793191352936, 0.3160233230588586, 0.7157313840935257, -0.5188305990184852, -0.2953261260017677, 0.7869642732408154, -0.2266636395119438, -0.09267275194093642, 0.9254114299631021, 0.6699476175886598, -0.09343976093712242, -0.6564444042554459, -0.7250033423551057, 0.4560239767581987, 0.22068522413273606, -0.020213745796123787, -0.4543101143051139, -0.49557967977433565, -0.38258155152990614, 0.09288755097133736, 0.17805463220286796, -0.3702738218703812, 0.034003103149070846, 0.23144767982833675, 0.13221084076964684, 0.6681251088452783, 0.24587667972781005, -0.04146191647427265, -0.3892310770288485, 0.22839048066372442, 0.3039205560153919, 0.16747023279770143, -0.16375900101872554, 0.018210439132017482, 0.19661541393528031, -0.17316065470162093, -0.28462502346283763, 0.19532762024081224, 0.0022038699443790825, -0.5215816015920286, -0.15046160404434827, -0.3668313711627765, 0.43340939741941675, 0.3834429741461043, -0.3906686702549159, 0.15633221750077775, 0.08807061115537286, 0.5093679989662472, -0.23986266580368926, -0.15509786651014348, -0.24190573962472967, -0.09991245875438207, -0.34681539224634006, 0.10806292428392353, -0.468911364121263, 0.2038574313167018, -0.570786099155953, 0.3035883959926227, 0.4081857125918824, -0.2460394071628199, 0.003774535764240222, 0.14876521591777384, 0.5523414302332568, 0.7423666410079507, 0.5749032238728828, -0.7118136457230568, 0.5458132525284404, -0.32797224251437457, -0.22110348108685118, -0.060375386731807604, 0.4098562270188549, 0.5521263629087307, 0.4004032775056371, -0.3908202182267864, -0.0621800333987029, 0.11588923885118581, 0.3649517477061621, 0.0011176688438848392, -0.25051647682601086, 0.0360498055601485, 0.1186387829097375, -0.14635684495994852, -0.34473403262988644, -0.3096181508613611, 0.3193081003784084, -0.08181276161103963, -0.5044914326078018, 0.8469429585069648, -0.2602192086453752, 0.10577523837838557, -0.3074914363890689, -0.3735835967338992, 0.295917276936538, -0.05540700270252322, 0.45710513448131534, 0.27863784796359686, -0.3022024693248291, -0.46050757556539623, -0.06311827203904198, 0.16067876228306482, -0.17682741944259256, 0.6131273607437677, -0.5364643018213519, -0.5821589585304615, -0.388970205266801, -0.5158745719547259, -0.45596482411918593, -0.02425911441204331, 0.0382169229467727, 0.48714491045949937, 0.3858077427362161, 0.2322145893665983, -0.21396104617358705, 0.6006026512202919, 0.08003012976895296, 0.49705196822719927, -0.2558530224909208, 0.5045798697962118, -0.12476414433999611, -0.045029928822923795, 0.2469496403143871, 0.13322637367082785, -0.18869050091229575, -0.7855406112122051, -0.4191448267962423, 0.03916542037791646, -0.16571583500709527, -0.8067453111159453, -0.17854891358793173, 0.2351465630959096, -0.18677310588060148, 0.030231149566396602, -0.3452305684544163, 0.1489683215162474, -0.033591920034276856, -0.16529713808290097, 0.20158364708221044, 0.27983542322039523, 0.6627303913495679, -0.6534724282880666, 0.33557092816696515, -0.7038848219828303, -0.14563840213031992, -0.14019613868302505, -0.011343610462450436, -0.46744130222757985, -0.07651346338067014, 0.5709375600058475, -0.14592095144483835, 0.182381310934304, -0.17056960220070388, 0.32872218205005876, -0.36750735706959625, -0.31507208388074204, 0.3582324551563064, 0.3869205877838702, -0.26666094054535106, 0.20568168493646877, -0.6745800261359963, -0.615118842464691, -0.3083305326369676, 0.027109299109488047, -0.2938244537719056, -0.06237139299581161, 0.07854136996870303, -0.042894565328363124, -0.11916062635987906, -0.511758940611614, 0.04960168859711986, -0.5311750222754383, -0.3412892068123452, 0.10991526822563333, 0.36103900690541857, 0.07142942108305142, -0.3867104954957571, -0.006644039260184094, 0.3516001612225113, -0.26933625821508816, -0.5606375346560791, -0.028860164941772806, -0.0036456485091643648, 0.15392430201359625, 0.4924286269226762, 0.6451053788666974, -0.3007736719608089, -0.5384925315756771, -0.1010926223070142, 0.28330064317972603, -0.943671886629494, -0.4895207944677966, 0.3656513459868142, -0.6217601875108875, 0.32265626320317276, -0.5235869901501982, 0.2103634800539803, 0.16469150528136683, -0.11930391030762982, 0.2580401727375436, 0.40278966820404416, -0.9335427613176386, 0.3311623827966822, 0.28303657748849986, 0.23445165917196362, -0.22055157817216664, -0.6578900731342306, 0.06542858850753076, -0.3383412291321015, -0.13376244097020532, 0.3533404041004323, -0.6559267534752737, -0.7781469894192327, 0.40190508271492287, 0.47891512210172166, -0.5647876388820551, -0.3520881181687615, 0.35557054211023587, -0.17483697857321, -0.011224752146244521, -0.10055344011984187, 0.4669325589806108, -0.27946455083335875, -0.40625980398587846, -0.42442356068043224, -0.06357016015558878, 0.3915449679347388, -0.6292284773878931, -0.10564286663345004, -0.3448380425406777, 0.730676354825902, -0.30322388038806225, 0.3723910257039982, -0.42499638795706135, 0.3316934190970261, 0.2096871428395765, -0.36395385913494316, 0.08893428984631785, -0.10826065937091779, 0.40655887665090085, -0.5812955873257987, -0.29062748493260276, 0.296204055339136, -0.18163775021599118, -0.305801505470682, 0.317488414634743, 0.13143451012428298, -0.06956338073983287, -0.11946719268597575, -0.8617253431682967, 0.46650674692932137, -0.29440822121086835, -0.3968657429951137, -0.6524384537265842, -0.2679075347372818, 0.05903981166314458, -0.06445060708046418, 0.44196644316175054, 0.4530264549682949, 0.2414873566431963, 0.39323823629268934, -0.4437222426993903, 0.2888389947610559, -0.13417106429425232, 0.07485754189762761, -0.32486996322702993, -0.5263324752284444, 0.1042688609695035, -0.6941587447331394, 0.07921357661327516, -0.24240278970234158, -0.11038820822538778, -0.14557594152323733, 0.27614676353392864, -0.504426022064594, 0.23869898346461482, -0.35457612760770096, 0.2610559792103245, 0.27028351224635006, -0.3473318097658161, -0.01946124827968189, 0.23319164454311886, -0.09941520336081333, -0.23577316221787065, -0.5249259059801998, -0.4558101469603829, -0.7447431798406028, -0.5645846404664913, -0.2861839932577998, 0.10876375587783792, 0.1825328995704932, 0.6479736992922471, 0.05457123101260413, -0.06416077288596152, -0.2621790759690321, 0.00929114704105909, 0.1118571135436588, 0.794054941744976, 0.2265554854887673, 0.37340948693567294, -0.49311675105278685, 0.3339410085409232, -0.4380289731653346, -0.04489023736877293, 0.44343631268593475, 0.7848344279461904, -0.32307744525435433, 0.7366480902079865, -0.07135723371165895, -0.6683590419606946, -0.5881170425084767, 0.05367469884450279, -0.4208510096100944, 0.5876371256613981, -0.5025421337111498, -0.17248164568112997, -0.22032545164276793, 0.443918049565385, -0.3604911774633816, 0.4661752290860205, 0.40310152629323115, -0.161962393667355, -0.01422652536789979, -0.10951586833063123, -0.10745617845330846, 0.3418154267643327, 0.21241168945172398, 0.24714407318655868, 0.08133232797134385, -0.5098280941709271, -0.5896509034893853, -0.07624712574469673, -0.0314332351057022, -0.49176083082593464, -0.4633793926013978, 0.37812236876118893, -0.5251125175013345, 0.806812195228884, -0.29052820357266096, 0.6618089207232467, 0.29057419079370805, 0.44666734780955486, -0.47324469537333586, -0.2810302099749848, 0.014951345487817132, -0.29930955219420247, -0.3570922797543493, 0.10744798829873861, 0.47980473055680484, 0.07327937204774228, -0.4177956530219476, 0.2764978956953237, -0.02391712880129601, 0.21694083651560658, 0.00698677477504582, -0.3584062340770682, 0.6875456472330378, -0.06980421936359657, 0.2894135668573931, 0.24221280255949912, -0.5706317717894054, 0.17840088482534427, 0.19532380863062415, 0.09934377169491918, 0.08272564320412293, -0.12536710969221557, -0.11610997230942911, -0.03611927011915883, -0.5771512249684809, -0.4512567550138898, 0.2971124153078001, 0.602094790020046, 0.392676698296452, 0.16433035551958078, -0.05089175349611443, -0.1973796296349557, 0.003582478771467265, 0.25979715357420957, 0.5514212853151801, 0.24408514805589254, -0.04415670899345714, -0.08038603103928592, 0.022583349971691244, -0.60135871314109, 0.8020933243860147, 0.03570801159293199, 0.09853849813911164, -0.06840111691686339, -0.19970266022391564, 0.10498253672014338, 0.08000002547149422, -0.536981100260892, 0.18596966620353808, -0.12657153447175476, 0.20081292401483347, 0.38675833665930726, 0.20227363590959785, 0.02192477602071724, -0.15489358707573717, -0.3789246680815795, -0.11804094277402258, 0.2158921651716656, 0.22645146922257453, -0.04957907109530214, -0.6026515834628597, -0.7177961626011092, -0.051121492393513726, -0.4649757367661024, -0.008538948451479844, 0.43513605304501213, -0.10563957140836591, 0.3924385394727881, -0.18758586258007764, 0.4510883074810137, -0.07534668433394105, 0.5579120938247187, -0.05068312733929692, -0.15799105530237523, -0.290201046714249, 0.2644846961818281, -0.22941382670792, 0.08845936601840662, -0.011501888083498182, -0.1318995488196289, 0.007125562492713382, 0.17566281178869245, -0.38027293519162586, 0.24851134780828066, -0.20847756204479465, 0.28433151100165244, -0.28547218889466763, -0.09231510900318882, -0.14987379028243517, 0.211198539934078, -0.18501527995678368, 0.21700963621713992, -0.2822663104210454, -0.18110516841913063};

	arbi->Set(w);
	w1->Set(w1_c);
	w2->Set(w2_c);
	w3->Set(w3_c);

	double fitness = 0.0f;
	for(int i = 0; i < 10; i++) {
		b2Vec2 gravity;
		gravity.Set(0.0f, 0.0f);
		b2World* world = new b2World(gravity);

		J0_S_Field::Configuration conf;
		conf.World = world;
		conf.TimeStep = 0.02f;
		conf.MaxStep = 6000;
		conf.TrainingMode = 0;

		J0_M_M0 monitor;
		assa2d::SceneMgr* scenemgr = new J0_S_Field(&conf, arbi, w1, w2, w3);
		scenemgr->Run(&monitor);

		delete scenemgr;
		delete world;

		fitness += ws1*monitor.GetFitnessS1() + ws2*monitor.GetFitnessS2() + ws3*monitor.GetFitnessS3() + monitor.GetBonus();
	}
	fitness /= 10.0f;

	delete arbi;
	delete w1;
	delete w2;
	delete w3;

	return fitness;
}

double J0_a(double w[], float ws1, float ws2, float ws3) {
	ANNWeights* wa_a = new ANNWeights({28, 20, 2}, {false, true, false}, {false, true, true}, true);
	ANNWeights* wa_d = new ANNWeights({28, 20, 3}, {false, true, false}, {false, true, true}, true);

	wa_a->Set(w);
	wa_d->Randomize();

	double fitness = 0.0f;
	for(int i = 0; i < 10; i++) {
		b2Vec2 gravity;
		gravity.Set(0.0f, 0.0f);
		b2World* world = new b2World(gravity);

		J0_S_Field_S::Configuration conf;
		conf.World = world;
		conf.TimeStep = 0.02f;
		conf.MaxStep = 6000;
		conf.TrainingMode = -2;

		J0_M_MA monitor;
		assa2d::SceneMgr* scenemgr = new J0_S_Field_S(&conf, wa_a, wa_d);
		scenemgr->Run(&monitor);

		delete scenemgr;
		delete world;

		fitness += ws1*monitor.GetFitnessS1() + ws2*monitor.GetFitnessS2() + ws3*monitor.GetFitnessS3() + monitor.GetBonus();
	}
	fitness /= 10.0f;

	delete wa_a;
	delete wa_d;

	return fitness;
}

double J0_d(double w[], float ws1, float ws2, float ws3) {
	ANNWeights* wa_a = new ANNWeights({28, 20, 2}, {false, true, false}, {false, true, true}, true);
	ANNWeights* wa_d = new ANNWeights({28, 20, 3}, {false, true, false}, {false, true, true}, true);

	wa_a->Randomize();
	wa_d->Set(w);

	double fitness = 0.0f;
	for(int i = 0; i < 10; i++) {
		b2Vec2 gravity;
		gravity.Set(0.0f, 0.0f);
		b2World* world = new b2World(gravity);

		J0_S_Field_S::Configuration conf;
		conf.World = world;
		conf.TimeStep = 0.02f;
		conf.MaxStep = 6000;
		conf.TrainingMode = -1;

		J0_M_MA monitor;
		assa2d::SceneMgr* scenemgr = new J0_S_Field_S(&conf, wa_a, wa_d);
		scenemgr->Run(&monitor);

		delete scenemgr;
		delete world;

		fitness += ws1*monitor.GetFitnessS1() + ws2*monitor.GetFitnessS2() + ws3*monitor.GetFitnessS3() + monitor.GetBonus();
	}
	fitness /= 10.0f;

	delete wa_a;
	delete wa_d;

	return fitness;
}


//-------------subtasks----------------//
double J0_s1(double w[], bool flag) {
	ANNWeights* arbi = new ANNWeights({8, 20, 3}, {false, true, false}, {false, true, true}, true);
	ANNWeights* w1 = new ANNWeights({14, 20, 2}, {false, true, false}, {false, true, true}, true);
	ANNWeights* w2 = new ANNWeights({19, 20, 2}, {false, true, false}, {false, true, true}, true);
	ANNWeights* w3 = new ANNWeights({14, 20, 2}, {false, true, false}, {false, true, true}, true);

	arbi->Randomize();
	//w1->Randomize();
	w2->Randomize();
	w3->Randomize();

	w1->Set(w);

	double fitness_A = 0.0f;
	double fitness_B = 0.0f;
	for(int i = 0; i < 10; i++) {
		b2Vec2 gravity;
		gravity.Set(0.0f, 0.0f);
		b2World* world = new b2World(gravity);

		J0_S_Field::Configuration conf;
		conf.World = world;
		conf.TimeStep = 0.02f;
		conf.MaxStep = 3000;
		conf.TrainingMode = 1;

		J0_M_M1 monitor;
		assa2d::SceneMgr* scenemgr = new J0_S_Field(&conf, arbi, w1, w2, w3);
		scenemgr->Run(&monitor);

		delete scenemgr;
		delete world;

		fitness_A += monitor.GetFitnessA();
		fitness_B += monitor.GetFitnessB();
	}
	fitness_A /= 10.0f;
	fitness_B /= 10.0f;

	delete arbi;
	delete w1;
	delete w2;
	delete w3;

	if(flag) {
		return fitness_A;
	} else {
		return fitness_B;
	}
}

double J0_s2(double w[]) {
	ANNWeights* arbi = new ANNWeights({8, 20, 3}, {false, true, false}, {false, true, true}, true);
	ANNWeights* w1 = new ANNWeights({14, 20, 2}, {false, true, false}, {false, true, true}, true);
	ANNWeights* w2 = new ANNWeights({19, 20, 2}, {false, true, false}, {false, true, true}, true);
	ANNWeights* w3 = new ANNWeights({14, 20, 2}, {false, true, false}, {false, true, true}, true);

	//double arbi_c[] = {};
	double w1_c[] = {0.7212837923759143, 0.20899140593263305, -0.5160097463928356, -0.22281126894597375, 0.2402175792678698, 0.09060646358910522, -0.6483974566419206, 0.24330924223262212, 0.6095363686613929, 0.3033359476576997, -0.521009739563151, -0.7913898073964601, -0.6283430869195129, -0.39292498483556815, -0.29118359825156864, -0.41889352312936157, 0.735685202145405, 0.36091000839472775, 0.8133851562330521, 0.4688371123688066, 0.7705902428562724, -0.6442832114426319, -0.03331030026781708, -0.5071459925187024, -0.11934140039994982, 0.08058600698834477, -0.028999538001757287, 0.03199647689978098, 0.05048407989417662, 0.029357393733288443, 0.4775484441448209, 0.02089290109124342, -0.719128104322337, -0.4729471724380313, -0.6609791536995315, -0.17668653458151184, 0.3576368498602259, 0.4094804357348315, 0.0038866520696800508, -0.1693599715354314, 0.6476301613820762, -0.6222818140178428, -0.5764864087674331, -0.19565623287995015, 0.3691853987731415, -0.45647560744035093, -0.12431765336237022, -0.6822777057176969, 0.4075352872192435, -0.6476058686279107, 0.7380156308723304, 0.3628067432391897, -0.16126448932097168, -0.5853078554625069, 0.15975981408499512, 0.5560754465214782, -0.4343756062212931, -0.25713686040277245, 0.1921909163182886, -0.6460921646165885, 0.529790773316748, 0.249904270906115, 0.5022744293771799, -0.17447892133706613, 0.33007608112811354, -0.4128028446489622, -0.764856236202436, -0.11374867744041714, -0.3450058966969777, -0.5493617069042965, 0.4392676369014143, 0.777675413025115, 0.35514986766895007, -0.2225292093524794, -0.03170921897200965, 0.054830464022567055, -0.20101403398496795, -0.6889324547118584, -0.3101600485160183, 0.18919429588001432, 0.09405894350108238, -0.5233904939444294, 0.6475173642615727, -0.03649978161494766, 0.5280165703500296, 0.42567847856856605, -0.09698430609782677, 0.339469315740076, -0.28121340155784347, 0.20854306339912682, -0.5058120139815242, 0.43255046064292924, -0.03037416957829805, 0.1978293601187987, -0.05250029253837364, -0.3818859508529201, 0.19856499913515893, 0.23204284168103495, -0.09318115922036793, -0.49287316626641975, 0.02732510065136639, 0.4520150676611786, -0.34766291479630596, 0.2575289997963064, -0.5941566058815111, -0.2703446484346287, 0.10601181065906992, -0.034116499716313864, -0.6277485513153774, -0.10927460771205896, 0.3825054309300878, -0.2651813356613293, 0.7860179241989796, -0.2561952325718885, -0.12277492244974486, -0.07169018929848221, -0.5964023533069068, -0.529100916596575, -0.08068700650492426, 0.826435016116875, -0.8523616245616976, 0.029861193601549485, -0.533831292844659, 0.12972117513731277, -0.32420067316213513, -0.4275728476082141, 0.49912540066350014, 0.38493726666609934, 0.3497468102128283, -0.30274682301745615, 0.16193926276590243, -0.5434480876100578, 0.5374021590678326, 0.7341508584992159, 0.534035990956772, 0.6753294165193285, 0.6942473089672476, 0.41761565298503117, 0.08838332521200673, 0.4528904184539197, -0.8057444087288909, 0.22102020115997653, -0.7520100616645033, 0.14447384677989164, -0.6604022093146897, 0.14768946961430096, 0.6847930620426028, 0.6546275625610128, 0.8150768148389477, 0.6557357781924434, -0.7840273962459031, -0.25242744008350687, -0.30187497494675153, 0.7436826558561468, 0.8901103202900141, -0.1628762950740077, -0.500266281236862, 0.5588542928133775, 0.6250616476218047, 0.6225487457753234, 0.7552870787181918, 0.6890718038329381, 0.27087694288096714, 0.44811702934360687, -0.5554362157285521, 0.2523342429480105, -0.12397161833722059, -0.15639781842865383, 0.42665709173092997, 0.14939791519994206, 0.0877974335977242, -0.26684689971124315, 0.44437000933245047, 0.14876543644261075, -0.3395194445534012, -0.5323760505359113, 0.4588801696291221, 0.18323922465535786, 0.020085632129645384, 0.2279976061036518, -0.24962191241107254, -0.7686509748103613, 0.28468290114683414, -0.7463146063796473, -0.18313618033660672, -0.231976765747021, -0.1496619552242341, 0.04801632002460457, -0.5453399630735469, -0.49365566035663283, -0.13652158982763996, -0.13139049359585012, 0.15226681292950192, 0.35770904939893444, 0.3362570160022417, 0.1609227675997899, -0.4624921929110696, -0.15811170169582414, 0.15095899431604032, -0.6693223117281278, -0.41249481663822707, 0.7568343505621448, -0.7118870402597719, 0.45983336989402307, 0.06167328864409226, 0.19521390832633928, 0.6542824568082682, -0.056900994685997464, -0.4360390464255378, 0.5919873165847572, 0.2086490230506557, -0.6537863730989724, 0.05684076962672599, 0.42886134996513026, 0.7417601166541998, 0.47769110269100795, -0.20395847341269951, -0.4314232697270039, -0.5591623399711043, 0.4575252318084024, -0.5747727946096212, 0.6048751055423489, 0.3206239821023139, 0.5877385951412553, 0.39601103978196117, 0.27810779179514544, 0.02347494734066819, 0.5780823728722218, -0.34955137276933557, -0.1738659791764412, 0.410680518590528, 0.07017170831521896, -0.5947095767192951, 0.12931193903185026, 0.31949959939162176, 0.49288082748446427, 0.6136349803155552, 0.049375020887658716, -0.4863115253844022, 0.39235896014266863, -0.3072060712111653, -0.1718288750698425, 0.2761724320286894, -0.3174490326455452, 0.13401830114853913, 0.560713911312656, -0.05738840627805117, -0.2561011326996173, -0.09673479821253075, 0.13086177346826025, -0.5706073644704021, 0.2600871909124503, 0.3356385100875222, -0.007961223559664395, 0.12113218797199807, 0.2581099447459799, -0.32615209259151623, -0.7797057532192649, -0.47133365310784126, 0.3497619021700032, 0.031894653217482916, 0.8035594946708348, 0.2830675762337735, 0.339165558218562, -0.3970992369214184, -0.4612539262948099, 0.5827092115088524, 0.08063488291645053, -0.7842022822595682, 0.7629321822504012, -0.3814423652562983, -0.2918040437020973, -0.1263894741666716, 0.7742692085288873, 0.45781791085563545, -0.013531996467168222, 0.23382205842540657, 0.08978025252409855, 0.7904746935119503, -0.09625259892623787, -0.0834382235305586, 0.6463583055087251, 0.8572161383050286, 0.31932073159667806, -0.6765708052647761, -0.6576759701377151, 0.7337488893762862, 0.6569680781541247, -0.6816564702439448, 0.3774773946819387, 0.5354732713358233, 0.5868835136586438, 0.6934725493848998, -0.886901448630531, 0.5328556052253142, 0.6195939827419353, 0.608925903536411, -0.2395630661373023, 0.8339186034343975, 0.19928548547896718, 0.07793072584795993, 0.7354874633790109, -0.7676480019610922, 0.8008203314198359, -0.15488849317710543, -0.7026678439859902, 0.44390117846294314, -0.6155297855020234, -0.16303674967141935, -0.8271285035521574, -0.7610217503355209, 0.07268456469337928, 0.3891074059734655, 0.9227892539959677, 0.9496957930031649, 0.06039717593369827, 0.6352472260694555, 0.8085692562313362, 0.8647692280585753, -0.37226086739189157, -0.05559548635638839, -0.2882713619822596, -0.09254998536296105, -0.3985400886778897, 0.3746974445549844, -0.12663269049648024, -0.6640503245604302, -0.22305525096116452, 0.72276731004242, -0.08781058538724898, 0.6301139943329326, 0.07723119941769306, -0.5508648902799966, 0.46371310721779885, -0.4438997805969124, 0.031784972162179674, 0.4433215642414657, -0.4057097060088595, -0.12897440779811142, -0.10820461342696201, -0.5026540550598548, 0.15607436390922574, 0.6658062972775888, -0.3716800353222328, -0.2670536676164842, 0.4017782689531167, -0.11649082862749965, -0.3493706725492305, 0.44817401382761274, 0.3867191018477922, -0.4735094189422686, -0.5162808544537207, 0.10778948893890986, 0.328821825650092, -0.23514265448388105, 0.24406898686445014, -0.11051143858013587, 0.333482762188563, -0.06598301836852907, -0.2907453574809847, -0.2224270207390316, -0.021489007795982923, 0.8100957364249559, 0.21854081427833671, 0.2035822212587939, -0.4765478384402118, -0.5526199145408766, 0.09178161426536725, -0.06068700268041784, -0.07821684816497688, 0.08282497420290971, -0.12848758345533592, -0.31897307285347953, -0.15190688229080057, 0.22377400229675856, 0.7391017688114525, -0.3563907129562569, -0.17260934159278793, -0.1603131018344991, -0.42784233189734777, 0.36996519542353246, -0.8445637327087621, -0.01044570119057088, -0.3112228149713348, 0.5423065822770535, 0.19991360653976617, 0.8793523406264606, 0.1149536855665675, -0.22213403335967813, -0.039921725260854815, -0.10345295622139837, 0.4675761438441157, 0.22607412934570026, -0.4768116880911549, 0.3039481504424974, 0.11535750937462809, -0.8039760583959377, -0.33728736214279903, 0.515519977952376, 0.42196137405508155, 0.447686073474468, -0.39908434038789353, 0.7084661840702614, -0.2781147442626147, -0.13868770420967094, -0.18327350144410795, -0.5360329610957997, 0.34954787339900406, -0.14423156450383956, -0.01970839081698046, -0.2058157038460123, 0.49172911278039266, 0.6553354312181501, 0.2466825663025811, -0.7633705605685945, 0.25567788916013884, 0.23381207780443442, -0.49850453127961414, -0.12549051794377136, 0.01779207084421688, 0.22807982799162502, -0.5787651393606436, -0.059340146527681575, 0.37093758174969327, 0.41025495524989036, 0.03199257294665777, -0.4172614891367361, -0.20036331670956736, 0.41635757706094617, 0.30707387254905494, -0.2710925468350993, 0.12431992104471655, -0.007349006882767059, 0.3129557706194694, 0.03548536627912198, -0.1731044086220217, 0.004380490822501127, 0.25169703624480755, 0.4357498983117374, -0.34386234108587715, -0.5991009778179446, -0.30374234837623604, 0.6890986167926114, -0.5146371234801722, -0.09735213032456672, 0.29641065874717654, 0.34907838474954905, -0.43833772417284145, 0.1928140099035181, 0.3915981316410273, -0.6699269102624806, 0.32470891008117925, -0.2859530219937164, 0.09411729570095262, 0.21546256427360577, -0.34600044941220537, -0.23235045262790716, 0.11650143503328239, 0.20152843290288724, 0.6103869112926826, -0.48355659421066227, -0.2802814470568802, -0.37434615427329376, 0.03146748268099789, -0.8176773840954674, 0.4430551745053419, -0.1355517842842633, -0.4429083027635613, 0.2546045713283263, -0.2908364310997778, -0.2572838681076858, -0.6359171226616952, -0.2352224576329553, 0.24399367201467642, -0.7979411775813006, 0.4898004757367602, -0.41405463932526937, 0.14744291567610146, 0.13313939096160424, 0.043384751944542777, 0.17288408618406684, 0.22950017709123752, -0.2775424892729219, 0.08708342586187598, -0.35059790702327187, 0.4418860234219133, -0.631590984613721, -0.1268391079002666, 0.43026470054243604, 0.7451652791768517, 0.37231430630827805, 0.38209983836303285, -0.010961627352323143, 0.13365333039093003, -0.8225910995020232, -0.1855455169829049, -0.5086086907305506, 0.11431118651851227, -0.3412409328006888, 0.23833665640364246, 0.2768203261526497, -0.4761866036095214, -0.8859224247651543, 0.07129913293300691, 0.3334122224297944, -0.19284245697271774, 0.3991940035030108, 0.35782780598364455, 0.1984533509019846, -0.5417286051719512, 0.49886556482698224, -0.6802129394441303, 0.33814294253708027, 0.21682176447110346, 0.2338205821589756, -0.07532970228760327, 0.5871456790563044, 0.30870373692924685, -0.07536480554874525, 0.19098488179654954, 0.22252377306661775, 0.1140947398163773, 0.39236317675207255, -0.5860617307970792, -0.15760819205433194, 0.18583678984477858, -0.04318927113553256, -0.38927362051282594, -0.739653484055494, -0.7520003487549126, -0.5941440970451686, 0.4646529617034065, 0.19160712858996848, -0.38885017353153867, -0.5139595353841918, -0.5499570581617609, -0.7360414779274596, -0.05112890040074084, 0.22605315931391398, -0.6048941784186057, 0.42866768241501224, 0.06170889814704911, 0.6659264235210982, -0.22176380164680387, -0.4690729762599931, -0.23991826931593097, -0.06261978783543558, 0.3161183521120342, -0.46319410862346766, 0.026916169196216, -0.02847660917571312, -0.30334560297351476, 0.6641865129664646, -0.1090658678796454, 0.1656332199013102, 0.7475983895646978, -0.027970310065786333, 0.4363467921111446, -0.31991005512159665, 0.34529973409054493, 0.3582605629077382, 0.28144464752858256, 0.42924668657701237, -0.3468909079627614, 0.27298821731193035, -0.3113137662031634, 0.5839454797900713, -0.778703914615509, 0.4094618921471786, -0.06117462963890941, -0.13008267676816865, -0.5247708495912485, -0.43117997848227874, 0.5483354664181864, -0.14430234662675798, 0.6290567408840053, -0.7308518489759976, -0.11925338112640113, 0.05221240305218036, 0.03850661690771465, -0.40414494909109816, 0.6639409205190695, 0.9035939009484277, -0.8271750376311822, -0.4160814569528676, -0.3956397913884256, 0.44382127958568707, 0.2595751536554605, 0.23664920008312895, 0.5713107537868423, -0.4994257334272338, 0.005345998468957544, 0.08318997072164794, -0.38736047198089074, 0.5420374703236067, -0.18765296118977912, 0.25598090938876217, 0.777915011304626, -0.1880447239131476, -0.6352532801597038, 0.4784086211159865, -0.5648929393687009, -0.08983016373313259, -0.31317660615251647, -8.352753389448409E-4, -0.028321372656983645, 0.38199470789536255, -0.32625101606132484, -0.40382598620628296, -0.13342287177236878, -0.05636183202760921, -0.7531891242799557, 0.6004689512873679, 0.37601398215475473, -0.09397822521205434, -0.36326558756270516, -0.382567061974189, -0.25429864261327184, 0.14902224351583926, 0.5437514348229825, 0.11014625292898285, -0.47926695278675013, -0.5203589697470498, -0.7357283562445084, 0.15419345751161928, 0.2797966634167929, 0.3010391302905548, 0.4665845779182889, -0.3507649228492631, -0.26398024507094114, -0.10198510821031775, -0.3855399255939451, 0.7122292680948794, 0.23352805566852008, 0.20764321191249713, -0.2166860085981167, 0.33088952356693446, -0.6399257811962511, -0.20726426518998037, 0.47542585821353023, 0.0037912937951173342, 0.41854434630168086, 0.10868237582027122, -0.15385372888291465, -0.04002266955544563, 0.18329732784964298, -0.7952032062534156, -0.5214360404914886, -0.09698275131376168, 0.4497982643953273, 0.6403316873913757, 0.4379438213461601, 0.023741521375429838, -0.07207070585046105, 0.21882966416205954, -0.4244182632947805, -0.25230157403201026, -0.2854739592409705, 0.050555323879107356, -0.5758926112431404, -0.8107185602195988, -0.08084751604590965, -0.35175399790866957, 0.6365601583654856, 0.02589325901023376, 0.44770557999944005, -0.16557395916447704, 0.48209819756825606, 0.3935286179194083, 0.519149566261212, -0.15333561677549223, -0.3368115488304986, -0.14457741411218875, -0.37915296978832047, 0.587270982652742, 0.06840494067775792, -0.1056710594099311, 0.4118304744657153, 0.3995600305911663, -0.5211292750193037, -0.15602385469010743, 0.5639037267149692, 0.2869758947740981, 0.572818536616136, -0.5081945923615037, -0.30558604768982717, 0.36130477553682716, 0.41871354120507376, -0.31468418989383007, -0.1622451962394424, 0.4698934958564237, -0.04010457783041328, -0.004963180902355799, 0.34854867310690496, -0.08781737883295472, 0.40033289509389697, -0.37550287184648856, 0.6566009457225759, 0.4391094770809984, -0.4629425231088525, -0.35776272019888095, -0.6054089173374291, -0.4546010650925736, -0.36159149334721963, -0.23459447255981794, -0.19438238764676288, 0.6435321886729891, 0.2756576105580669, 0.6385824761015235, -0.19413467289891612, 0.20106173934566268, 0.0486655928763233, 0.047941480646776224, 0.3447093936183318, 0.09181908914141657, -0.09712275828113197, 0.34707361027161865, 0.5046419126344852, 0.6621433619057921, -0.7600693460159877, -0.3060778987060895, 0.17166981657128091, 0.050335033260667295, 0.1591673942768702, -0.31380541805003137, 0.19080686877548886, 0.03674312892498404, 0.07826726259411368, -0.2206321517480972, 0.19913662567256096, 0.024493452467713617, -0.3032390671590994, 0.06949344537416766, 0.2586543288166356, 0.07432999791877727, -0.3354617290334898, 0.03100289380687159, 0.15080846703429301, -0.27387601983619997, 0.14688508119186267, 0.19281364597078798, -0.11998390261949599};
	//double w2_c[] = {};
	//double w3_c[] = {};

	arbi->Randomize();
	//w1->Randomize();
	//w2->Randomize();
	w3->Randomize();

	w1->Set(w1_c);
	w2->Set(w);

	double fitness = 0.0f;
	for(int i = 0; i < 10; i++) {
		b2Vec2 gravity;
		gravity.Set(0.0f, 0.0f);
		b2World* world = new b2World(gravity);

		J0_S_Field::Configuration conf;
		conf.World = world;
		conf.TimeStep = 0.02f;
		conf.MaxStep = 3000;
		conf.TrainingMode = 2;

		J0_M_M2 monitor;
		assa2d::SceneMgr* scenemgr = new J0_S_Field(&conf, arbi, w1, w2, w3);
		scenemgr->Run(&monitor);

		delete scenemgr;
		delete world;

		fitness += monitor.GetFitness();
	}
	fitness /= 10.0f;

	delete arbi;
	delete w1;
	delete w2;
	delete w3;

	return fitness;
}

double J0_s3(double w[]) {
	ANNWeights* arbi = new ANNWeights({8, 20, 3}, {false, true, false}, {false, true, true}, true);
	ANNWeights* w1 = new ANNWeights({14, 20, 2}, {false, true, false}, {false, true, true}, true);
	ANNWeights* w2 = new ANNWeights({19, 20, 2}, {false, true, false}, {false, true, true}, true);
	ANNWeights* w3 = new ANNWeights({14, 20, 2}, {false, true, false}, {false, true, true}, true);

	//double arbi_c[] = {};
	double w1_c[] = {0.7212837923759143, 0.20899140593263305, -0.5160097463928356, -0.22281126894597375, 0.2402175792678698, 0.09060646358910522, -0.6483974566419206, 0.24330924223262212, 0.6095363686613929, 0.3033359476576997, -0.521009739563151, -0.7913898073964601, -0.6283430869195129, -0.39292498483556815, -0.29118359825156864, -0.41889352312936157, 0.735685202145405, 0.36091000839472775, 0.8133851562330521, 0.4688371123688066, 0.7705902428562724, -0.6442832114426319, -0.03331030026781708, -0.5071459925187024, -0.11934140039994982, 0.08058600698834477, -0.028999538001757287, 0.03199647689978098, 0.05048407989417662, 0.029357393733288443, 0.4775484441448209, 0.02089290109124342, -0.719128104322337, -0.4729471724380313, -0.6609791536995315, -0.17668653458151184, 0.3576368498602259, 0.4094804357348315, 0.0038866520696800508, -0.1693599715354314, 0.6476301613820762, -0.6222818140178428, -0.5764864087674331, -0.19565623287995015, 0.3691853987731415, -0.45647560744035093, -0.12431765336237022, -0.6822777057176969, 0.4075352872192435, -0.6476058686279107, 0.7380156308723304, 0.3628067432391897, -0.16126448932097168, -0.5853078554625069, 0.15975981408499512, 0.5560754465214782, -0.4343756062212931, -0.25713686040277245, 0.1921909163182886, -0.6460921646165885, 0.529790773316748, 0.249904270906115, 0.5022744293771799, -0.17447892133706613, 0.33007608112811354, -0.4128028446489622, -0.764856236202436, -0.11374867744041714, -0.3450058966969777, -0.5493617069042965, 0.4392676369014143, 0.777675413025115, 0.35514986766895007, -0.2225292093524794, -0.03170921897200965, 0.054830464022567055, -0.20101403398496795, -0.6889324547118584, -0.3101600485160183, 0.18919429588001432, 0.09405894350108238, -0.5233904939444294, 0.6475173642615727, -0.03649978161494766, 0.5280165703500296, 0.42567847856856605, -0.09698430609782677, 0.339469315740076, -0.28121340155784347, 0.20854306339912682, -0.5058120139815242, 0.43255046064292924, -0.03037416957829805, 0.1978293601187987, -0.05250029253837364, -0.3818859508529201, 0.19856499913515893, 0.23204284168103495, -0.09318115922036793, -0.49287316626641975, 0.02732510065136639, 0.4520150676611786, -0.34766291479630596, 0.2575289997963064, -0.5941566058815111, -0.2703446484346287, 0.10601181065906992, -0.034116499716313864, -0.6277485513153774, -0.10927460771205896, 0.3825054309300878, -0.2651813356613293, 0.7860179241989796, -0.2561952325718885, -0.12277492244974486, -0.07169018929848221, -0.5964023533069068, -0.529100916596575, -0.08068700650492426, 0.826435016116875, -0.8523616245616976, 0.029861193601549485, -0.533831292844659, 0.12972117513731277, -0.32420067316213513, -0.4275728476082141, 0.49912540066350014, 0.38493726666609934, 0.3497468102128283, -0.30274682301745615, 0.16193926276590243, -0.5434480876100578, 0.5374021590678326, 0.7341508584992159, 0.534035990956772, 0.6753294165193285, 0.6942473089672476, 0.41761565298503117, 0.08838332521200673, 0.4528904184539197, -0.8057444087288909, 0.22102020115997653, -0.7520100616645033, 0.14447384677989164, -0.6604022093146897, 0.14768946961430096, 0.6847930620426028, 0.6546275625610128, 0.8150768148389477, 0.6557357781924434, -0.7840273962459031, -0.25242744008350687, -0.30187497494675153, 0.7436826558561468, 0.8901103202900141, -0.1628762950740077, -0.500266281236862, 0.5588542928133775, 0.6250616476218047, 0.6225487457753234, 0.7552870787181918, 0.6890718038329381, 0.27087694288096714, 0.44811702934360687, -0.5554362157285521, 0.2523342429480105, -0.12397161833722059, -0.15639781842865383, 0.42665709173092997, 0.14939791519994206, 0.0877974335977242, -0.26684689971124315, 0.44437000933245047, 0.14876543644261075, -0.3395194445534012, -0.5323760505359113, 0.4588801696291221, 0.18323922465535786, 0.020085632129645384, 0.2279976061036518, -0.24962191241107254, -0.7686509748103613, 0.28468290114683414, -0.7463146063796473, -0.18313618033660672, -0.231976765747021, -0.1496619552242341, 0.04801632002460457, -0.5453399630735469, -0.49365566035663283, -0.13652158982763996, -0.13139049359585012, 0.15226681292950192, 0.35770904939893444, 0.3362570160022417, 0.1609227675997899, -0.4624921929110696, -0.15811170169582414, 0.15095899431604032, -0.6693223117281278, -0.41249481663822707, 0.7568343505621448, -0.7118870402597719, 0.45983336989402307, 0.06167328864409226, 0.19521390832633928, 0.6542824568082682, -0.056900994685997464, -0.4360390464255378, 0.5919873165847572, 0.2086490230506557, -0.6537863730989724, 0.05684076962672599, 0.42886134996513026, 0.7417601166541998, 0.47769110269100795, -0.20395847341269951, -0.4314232697270039, -0.5591623399711043, 0.4575252318084024, -0.5747727946096212, 0.6048751055423489, 0.3206239821023139, 0.5877385951412553, 0.39601103978196117, 0.27810779179514544, 0.02347494734066819, 0.5780823728722218, -0.34955137276933557, -0.1738659791764412, 0.410680518590528, 0.07017170831521896, -0.5947095767192951, 0.12931193903185026, 0.31949959939162176, 0.49288082748446427, 0.6136349803155552, 0.049375020887658716, -0.4863115253844022, 0.39235896014266863, -0.3072060712111653, -0.1718288750698425, 0.2761724320286894, -0.3174490326455452, 0.13401830114853913, 0.560713911312656, -0.05738840627805117, -0.2561011326996173, -0.09673479821253075, 0.13086177346826025, -0.5706073644704021, 0.2600871909124503, 0.3356385100875222, -0.007961223559664395, 0.12113218797199807, 0.2581099447459799, -0.32615209259151623, -0.7797057532192649, -0.47133365310784126, 0.3497619021700032, 0.031894653217482916, 0.8035594946708348, 0.2830675762337735, 0.339165558218562, -0.3970992369214184, -0.4612539262948099, 0.5827092115088524, 0.08063488291645053, -0.7842022822595682, 0.7629321822504012, -0.3814423652562983, -0.2918040437020973, -0.1263894741666716, 0.7742692085288873, 0.45781791085563545, -0.013531996467168222, 0.23382205842540657, 0.08978025252409855, 0.7904746935119503, -0.09625259892623787, -0.0834382235305586, 0.6463583055087251, 0.8572161383050286, 0.31932073159667806, -0.6765708052647761, -0.6576759701377151, 0.7337488893762862, 0.6569680781541247, -0.6816564702439448, 0.3774773946819387, 0.5354732713358233, 0.5868835136586438, 0.6934725493848998, -0.886901448630531, 0.5328556052253142, 0.6195939827419353, 0.608925903536411, -0.2395630661373023, 0.8339186034343975, 0.19928548547896718, 0.07793072584795993, 0.7354874633790109, -0.7676480019610922, 0.8008203314198359, -0.15488849317710543, -0.7026678439859902, 0.44390117846294314, -0.6155297855020234, -0.16303674967141935, -0.8271285035521574, -0.7610217503355209, 0.07268456469337928, 0.3891074059734655, 0.9227892539959677, 0.9496957930031649, 0.06039717593369827, 0.6352472260694555, 0.8085692562313362, 0.8647692280585753, -0.37226086739189157, -0.05559548635638839, -0.2882713619822596, -0.09254998536296105, -0.3985400886778897, 0.3746974445549844, -0.12663269049648024, -0.6640503245604302, -0.22305525096116452, 0.72276731004242, -0.08781058538724898, 0.6301139943329326, 0.07723119941769306, -0.5508648902799966, 0.46371310721779885, -0.4438997805969124, 0.031784972162179674, 0.4433215642414657, -0.4057097060088595, -0.12897440779811142, -0.10820461342696201, -0.5026540550598548, 0.15607436390922574, 0.6658062972775888, -0.3716800353222328, -0.2670536676164842, 0.4017782689531167, -0.11649082862749965, -0.3493706725492305, 0.44817401382761274, 0.3867191018477922, -0.4735094189422686, -0.5162808544537207, 0.10778948893890986, 0.328821825650092, -0.23514265448388105, 0.24406898686445014, -0.11051143858013587, 0.333482762188563, -0.06598301836852907, -0.2907453574809847, -0.2224270207390316, -0.021489007795982923, 0.8100957364249559, 0.21854081427833671, 0.2035822212587939, -0.4765478384402118, -0.5526199145408766, 0.09178161426536725, -0.06068700268041784, -0.07821684816497688, 0.08282497420290971, -0.12848758345533592, -0.31897307285347953, -0.15190688229080057, 0.22377400229675856, 0.7391017688114525, -0.3563907129562569, -0.17260934159278793, -0.1603131018344991, -0.42784233189734777, 0.36996519542353246, -0.8445637327087621, -0.01044570119057088, -0.3112228149713348, 0.5423065822770535, 0.19991360653976617, 0.8793523406264606, 0.1149536855665675, -0.22213403335967813, -0.039921725260854815, -0.10345295622139837, 0.4675761438441157, 0.22607412934570026, -0.4768116880911549, 0.3039481504424974, 0.11535750937462809, -0.8039760583959377, -0.33728736214279903, 0.515519977952376, 0.42196137405508155, 0.447686073474468, -0.39908434038789353, 0.7084661840702614, -0.2781147442626147, -0.13868770420967094, -0.18327350144410795, -0.5360329610957997, 0.34954787339900406, -0.14423156450383956, -0.01970839081698046, -0.2058157038460123, 0.49172911278039266, 0.6553354312181501, 0.2466825663025811, -0.7633705605685945, 0.25567788916013884, 0.23381207780443442, -0.49850453127961414, -0.12549051794377136, 0.01779207084421688, 0.22807982799162502, -0.5787651393606436, -0.059340146527681575, 0.37093758174969327, 0.41025495524989036, 0.03199257294665777, -0.4172614891367361, -0.20036331670956736, 0.41635757706094617, 0.30707387254905494, -0.2710925468350993, 0.12431992104471655, -0.007349006882767059, 0.3129557706194694, 0.03548536627912198, -0.1731044086220217, 0.004380490822501127, 0.25169703624480755, 0.4357498983117374, -0.34386234108587715, -0.5991009778179446, -0.30374234837623604, 0.6890986167926114, -0.5146371234801722, -0.09735213032456672, 0.29641065874717654, 0.34907838474954905, -0.43833772417284145, 0.1928140099035181, 0.3915981316410273, -0.6699269102624806, 0.32470891008117925, -0.2859530219937164, 0.09411729570095262, 0.21546256427360577, -0.34600044941220537, -0.23235045262790716, 0.11650143503328239, 0.20152843290288724, 0.6103869112926826, -0.48355659421066227, -0.2802814470568802, -0.37434615427329376, 0.03146748268099789, -0.8176773840954674, 0.4430551745053419, -0.1355517842842633, -0.4429083027635613, 0.2546045713283263, -0.2908364310997778, -0.2572838681076858, -0.6359171226616952, -0.2352224576329553, 0.24399367201467642, -0.7979411775813006, 0.4898004757367602, -0.41405463932526937, 0.14744291567610146, 0.13313939096160424, 0.043384751944542777, 0.17288408618406684, 0.22950017709123752, -0.2775424892729219, 0.08708342586187598, -0.35059790702327187, 0.4418860234219133, -0.631590984613721, -0.1268391079002666, 0.43026470054243604, 0.7451652791768517, 0.37231430630827805, 0.38209983836303285, -0.010961627352323143, 0.13365333039093003, -0.8225910995020232, -0.1855455169829049, -0.5086086907305506, 0.11431118651851227, -0.3412409328006888, 0.23833665640364246, 0.2768203261526497, -0.4761866036095214, -0.8859224247651543, 0.07129913293300691, 0.3334122224297944, -0.19284245697271774, 0.3991940035030108, 0.35782780598364455, 0.1984533509019846, -0.5417286051719512, 0.49886556482698224, -0.6802129394441303, 0.33814294253708027, 0.21682176447110346, 0.2338205821589756, -0.07532970228760327, 0.5871456790563044, 0.30870373692924685, -0.07536480554874525, 0.19098488179654954, 0.22252377306661775, 0.1140947398163773, 0.39236317675207255, -0.5860617307970792, -0.15760819205433194, 0.18583678984477858, -0.04318927113553256, -0.38927362051282594, -0.739653484055494, -0.7520003487549126, -0.5941440970451686, 0.4646529617034065, 0.19160712858996848, -0.38885017353153867, -0.5139595353841918, -0.5499570581617609, -0.7360414779274596, -0.05112890040074084, 0.22605315931391398, -0.6048941784186057, 0.42866768241501224, 0.06170889814704911, 0.6659264235210982, -0.22176380164680387, -0.4690729762599931, -0.23991826931593097, -0.06261978783543558, 0.3161183521120342, -0.46319410862346766, 0.026916169196216, -0.02847660917571312, -0.30334560297351476, 0.6641865129664646, -0.1090658678796454, 0.1656332199013102, 0.7475983895646978, -0.027970310065786333, 0.4363467921111446, -0.31991005512159665, 0.34529973409054493, 0.3582605629077382, 0.28144464752858256, 0.42924668657701237, -0.3468909079627614, 0.27298821731193035, -0.3113137662031634, 0.5839454797900713, -0.778703914615509, 0.4094618921471786, -0.06117462963890941, -0.13008267676816865, -0.5247708495912485, -0.43117997848227874, 0.5483354664181864, -0.14430234662675798, 0.6290567408840053, -0.7308518489759976, -0.11925338112640113, 0.05221240305218036, 0.03850661690771465, -0.40414494909109816, 0.6639409205190695, 0.9035939009484277, -0.8271750376311822, -0.4160814569528676, -0.3956397913884256, 0.44382127958568707, 0.2595751536554605, 0.23664920008312895, 0.5713107537868423, -0.4994257334272338, 0.005345998468957544, 0.08318997072164794, -0.38736047198089074, 0.5420374703236067, -0.18765296118977912, 0.25598090938876217, 0.777915011304626, -0.1880447239131476, -0.6352532801597038, 0.4784086211159865, -0.5648929393687009, -0.08983016373313259, -0.31317660615251647, -8.352753389448409E-4, -0.028321372656983645, 0.38199470789536255, -0.32625101606132484, -0.40382598620628296, -0.13342287177236878, -0.05636183202760921, -0.7531891242799557, 0.6004689512873679, 0.37601398215475473, -0.09397822521205434, -0.36326558756270516, -0.382567061974189, -0.25429864261327184, 0.14902224351583926, 0.5437514348229825, 0.11014625292898285, -0.47926695278675013, -0.5203589697470498, -0.7357283562445084, 0.15419345751161928, 0.2797966634167929, 0.3010391302905548, 0.4665845779182889, -0.3507649228492631, -0.26398024507094114, -0.10198510821031775, -0.3855399255939451, 0.7122292680948794, 0.23352805566852008, 0.20764321191249713, -0.2166860085981167, 0.33088952356693446, -0.6399257811962511, -0.20726426518998037, 0.47542585821353023, 0.0037912937951173342, 0.41854434630168086, 0.10868237582027122, -0.15385372888291465, -0.04002266955544563, 0.18329732784964298, -0.7952032062534156, -0.5214360404914886, -0.09698275131376168, 0.4497982643953273, 0.6403316873913757, 0.4379438213461601, 0.023741521375429838, -0.07207070585046105, 0.21882966416205954, -0.4244182632947805, -0.25230157403201026, -0.2854739592409705, 0.050555323879107356, -0.5758926112431404, -0.8107185602195988, -0.08084751604590965, -0.35175399790866957, 0.6365601583654856, 0.02589325901023376, 0.44770557999944005, -0.16557395916447704, 0.48209819756825606, 0.3935286179194083, 0.519149566261212, -0.15333561677549223, -0.3368115488304986, -0.14457741411218875, -0.37915296978832047, 0.587270982652742, 0.06840494067775792, -0.1056710594099311, 0.4118304744657153, 0.3995600305911663, -0.5211292750193037, -0.15602385469010743, 0.5639037267149692, 0.2869758947740981, 0.572818536616136, -0.5081945923615037, -0.30558604768982717, 0.36130477553682716, 0.41871354120507376, -0.31468418989383007, -0.1622451962394424, 0.4698934958564237, -0.04010457783041328, -0.004963180902355799, 0.34854867310690496, -0.08781737883295472, 0.40033289509389697, -0.37550287184648856, 0.6566009457225759, 0.4391094770809984, -0.4629425231088525, -0.35776272019888095, -0.6054089173374291, -0.4546010650925736, -0.36159149334721963, -0.23459447255981794, -0.19438238764676288, 0.6435321886729891, 0.2756576105580669, 0.6385824761015235, -0.19413467289891612, 0.20106173934566268, 0.0486655928763233, 0.047941480646776224, 0.3447093936183318, 0.09181908914141657, -0.09712275828113197, 0.34707361027161865, 0.5046419126344852, 0.6621433619057921, -0.7600693460159877, -0.3060778987060895, 0.17166981657128091, 0.050335033260667295, 0.1591673942768702, -0.31380541805003137, 0.19080686877548886, 0.03674312892498404, 0.07826726259411368, -0.2206321517480972, 0.19913662567256096, 0.024493452467713617, -0.3032390671590994, 0.06949344537416766, 0.2586543288166356, 0.07432999791877727, -0.3354617290334898, 0.03100289380687159, 0.15080846703429301, -0.27387601983619997, 0.14688508119186267, 0.19281364597078798, -0.11998390261949599};
	//double w2_c[] = {};
	//double w3_c[] = {};

	arbi->Randomize();
	//w1->Randomize();
	w2->Randomize();
	//w3->Randomize();

	w1->Set(w1_c);
	w3->Set(w);

	double fitness = 0.0f;
	for(int i = 0; i < 10; i++) {
		b2Vec2 gravity;
		gravity.Set(0.0f, 0.0f);
		b2World* world = new b2World(gravity);

		J0_S_Field::Configuration conf;
		conf.World = world;
		conf.TimeStep = 0.02f;
		conf.MaxStep = 3000;
		conf.TrainingMode = 3;

		J0_M_M3 monitor;
		assa2d::SceneMgr* scenemgr = new J0_S_Field(&conf, arbi, w1, w2, w3);
		scenemgr->Run(&monitor);

		delete scenemgr;
		delete world;

		fitness += monitor.GetFitness();
	}
	fitness /= 10.0f;

	delete arbi;
	delete w1;
	delete w2;
	delete w3;

	return fitness;
}
//-------------subtasks----------------//
/////////////////---J_AROB_2018---/////////////////



