//
//  JNA_Functions.cpp
//
//  Created on: Dec 18, 2014
//      Author: wei
//

#include "JNA_Functions.h"

double e0(double w[], int supplement);
double e1(double w[]);
double e2(double w[]);
double e3(double w[]);

///////
double e0_nr_test(double w[]);
double e0_np_test(double w[], int supplement);

////////J0
double J0_s1(double w[], bool flag);
double J0_s2(double w[]);
double J0_s3(double w[]);

double J0_s0(double w[], float ws1, float ws2, float ws3);
double J0_a(double w[], float ws1, float ws2, float ws3);
double J0_d(double w[], float ws1, float ws2, float ws3);

///------------- JNA interface function -----------------///
double evaluateFcns(double individual[], int func_index) {
	double fitness = 0.0;
	switch(func_index)
	{
	case 1:
		fitness = e1(individual);
		break;
	case 2:
		fitness = e2(individual);
		break;
	case 3:
		fitness = e3(individual);
		break;
	case 10:
		fitness = e0(individual, 10);
		break;
	case 20:
		fitness = e0(individual, 20);
		break;
	case 30:
		fitness = e0(individual, 30);
		break;
	case 40:
		fitness = e0(individual, 40);
		break;
	case 50:
		fitness = e0(individual, 50);
		break;
	case 60:
		fitness = e0(individual, 60);
		break;
	case 70:
		fitness = e0(individual, 70);
		break;
	case 80:
		fitness = e0(individual, 80);
		break;
	case 90:
		fitness = e0(individual, 90);
		break;
	case 100:
		fitness = e0(individual, 100);
		break;
	case 110:
		fitness = e0(individual, 110);
		break;
	case 120:
		fitness = e0(individual, 120);
		break;
	case 130:
		fitness = e0(individual, 130);
		break;
	case 140:
		fitness = e0(individual, 140);
		break;
	case 150:
		fitness = e0(individual, 150);
		break;
	case 160:
		fitness = e0(individual, 160);
		break;
	case 170:
		fitness = e0(individual, 170);
		break;
	case 180:
		fitness = e0(individual, 180);
		break;
	case 190:
		fitness = e0(individual, 190);
		break;
	case 200:
		fitness = e0(individual, 200);
		break;
	case 900:
		fitness = e0_np_test(individual, -1);
		break;
	case 980:
		fitness = e0_np_test(individual, 80);
		break;
	case 1000:
		fitness = e0_nr_test(individual);
		break;
	case 10010:
		fitness = J0_s1(individual, false);
		break;
	case 10011:
		fitness = J0_s1(individual, true);
		break;
	case 10020:
		fitness = J0_s2(individual);
		break;
	case 10030:
		fitness = J0_s3(individual);
		break;
	case 999001:
		fitness = J0_s0(individual, 0.0f, 0.0f, 1.0f);
		break;
	case 999002:
		fitness = J0_s0(individual, 0.1f, 0.1f, 1.0f);
		break;
	case 888001:
		fitness = J0_a(individual, 0.0f, 0.0f, 1.0f);
		break;
	case 888002:
		fitness = J0_a(individual, 0.1f, 0.1f, 1.0f);
		break;
	case 777001:
		fitness = J0_d(individual, 0.0f, 0.0f, 1.0f);
		break;
	case 777002:
		fitness = J0_d(individual, 0.1f, 0.1f, 1.0f);
		break;
	default:
		break;
	}
	return fitness;
}

/////////////////
double J0_s0(double w[], float ws1, float ws2, float ws3) {
	ANNWeights* arbi = new ANNWeights({8, 20, 3}, {false, true, false}, {false, true, true}, true);
	ANNWeights* w1 = new ANNWeights({14, 20, 2}, {false, true, false}, {false, true, true}, true);
	ANNWeights* w2 = new ANNWeights({19, 20, 2}, {false, true, false}, {false, true, true}, true);
	ANNWeights* w3 = new ANNWeights({14, 20, 2}, {false, true, false}, {false, true, true}, true);

	double w1_c[] = {0.7212837923759143, 0.20899140593263305, -0.5160097463928356, -0.22281126894597375, 0.2402175792678698, 0.09060646358910522, -0.6483974566419206, 0.24330924223262212, 0.6095363686613929, 0.3033359476576997, -0.521009739563151, -0.7913898073964601, -0.6283430869195129, -0.39292498483556815, -0.29118359825156864, -0.41889352312936157, 0.735685202145405, 0.36091000839472775, 0.8133851562330521, 0.4688371123688066, 0.7705902428562724, -0.6442832114426319, -0.03331030026781708, -0.5071459925187024, -0.11934140039994982, 0.08058600698834477, -0.028999538001757287, 0.03199647689978098, 0.05048407989417662, 0.029357393733288443, 0.4775484441448209, 0.02089290109124342, -0.719128104322337, -0.4729471724380313, -0.6609791536995315, -0.17668653458151184, 0.3576368498602259, 0.4094804357348315, 0.0038866520696800508, -0.1693599715354314, 0.6476301613820762, -0.6222818140178428, -0.5764864087674331, -0.19565623287995015, 0.3691853987731415, -0.45647560744035093, -0.12431765336237022, -0.6822777057176969, 0.4075352872192435, -0.6476058686279107, 0.7380156308723304, 0.3628067432391897, -0.16126448932097168, -0.5853078554625069, 0.15975981408499512, 0.5560754465214782, -0.4343756062212931, -0.25713686040277245, 0.1921909163182886, -0.6460921646165885, 0.529790773316748, 0.249904270906115, 0.5022744293771799, -0.17447892133706613, 0.33007608112811354, -0.4128028446489622, -0.764856236202436, -0.11374867744041714, -0.3450058966969777, -0.5493617069042965, 0.4392676369014143, 0.777675413025115, 0.35514986766895007, -0.2225292093524794, -0.03170921897200965, 0.054830464022567055, -0.20101403398496795, -0.6889324547118584, -0.3101600485160183, 0.18919429588001432, 0.09405894350108238, -0.5233904939444294, 0.6475173642615727, -0.03649978161494766, 0.5280165703500296, 0.42567847856856605, -0.09698430609782677, 0.339469315740076, -0.28121340155784347, 0.20854306339912682, -0.5058120139815242, 0.43255046064292924, -0.03037416957829805, 0.1978293601187987, -0.05250029253837364, -0.3818859508529201, 0.19856499913515893, 0.23204284168103495, -0.09318115922036793, -0.49287316626641975, 0.02732510065136639, 0.4520150676611786, -0.34766291479630596, 0.2575289997963064, -0.5941566058815111, -0.2703446484346287, 0.10601181065906992, -0.034116499716313864, -0.6277485513153774, -0.10927460771205896, 0.3825054309300878, -0.2651813356613293, 0.7860179241989796, -0.2561952325718885, -0.12277492244974486, -0.07169018929848221, -0.5964023533069068, -0.529100916596575, -0.08068700650492426, 0.826435016116875, -0.8523616245616976, 0.029861193601549485, -0.533831292844659, 0.12972117513731277, -0.32420067316213513, -0.4275728476082141, 0.49912540066350014, 0.38493726666609934, 0.3497468102128283, -0.30274682301745615, 0.16193926276590243, -0.5434480876100578, 0.5374021590678326, 0.7341508584992159, 0.534035990956772, 0.6753294165193285, 0.6942473089672476, 0.41761565298503117, 0.08838332521200673, 0.4528904184539197, -0.8057444087288909, 0.22102020115997653, -0.7520100616645033, 0.14447384677989164, -0.6604022093146897, 0.14768946961430096, 0.6847930620426028, 0.6546275625610128, 0.8150768148389477, 0.6557357781924434, -0.7840273962459031, -0.25242744008350687, -0.30187497494675153, 0.7436826558561468, 0.8901103202900141, -0.1628762950740077, -0.500266281236862, 0.5588542928133775, 0.6250616476218047, 0.6225487457753234, 0.7552870787181918, 0.6890718038329381, 0.27087694288096714, 0.44811702934360687, -0.5554362157285521, 0.2523342429480105, -0.12397161833722059, -0.15639781842865383, 0.42665709173092997, 0.14939791519994206, 0.0877974335977242, -0.26684689971124315, 0.44437000933245047, 0.14876543644261075, -0.3395194445534012, -0.5323760505359113, 0.4588801696291221, 0.18323922465535786, 0.020085632129645384, 0.2279976061036518, -0.24962191241107254, -0.7686509748103613, 0.28468290114683414, -0.7463146063796473, -0.18313618033660672, -0.231976765747021, -0.1496619552242341, 0.04801632002460457, -0.5453399630735469, -0.49365566035663283, -0.13652158982763996, -0.13139049359585012, 0.15226681292950192, 0.35770904939893444, 0.3362570160022417, 0.1609227675997899, -0.4624921929110696, -0.15811170169582414, 0.15095899431604032, -0.6693223117281278, -0.41249481663822707, 0.7568343505621448, -0.7118870402597719, 0.45983336989402307, 0.06167328864409226, 0.19521390832633928, 0.6542824568082682, -0.056900994685997464, -0.4360390464255378, 0.5919873165847572, 0.2086490230506557, -0.6537863730989724, 0.05684076962672599, 0.42886134996513026, 0.7417601166541998, 0.47769110269100795, -0.20395847341269951, -0.4314232697270039, -0.5591623399711043, 0.4575252318084024, -0.5747727946096212, 0.6048751055423489, 0.3206239821023139, 0.5877385951412553, 0.39601103978196117, 0.27810779179514544, 0.02347494734066819, 0.5780823728722218, -0.34955137276933557, -0.1738659791764412, 0.410680518590528, 0.07017170831521896, -0.5947095767192951, 0.12931193903185026, 0.31949959939162176, 0.49288082748446427, 0.6136349803155552, 0.049375020887658716, -0.4863115253844022, 0.39235896014266863, -0.3072060712111653, -0.1718288750698425, 0.2761724320286894, -0.3174490326455452, 0.13401830114853913, 0.560713911312656, -0.05738840627805117, -0.2561011326996173, -0.09673479821253075, 0.13086177346826025, -0.5706073644704021, 0.2600871909124503, 0.3356385100875222, -0.007961223559664395, 0.12113218797199807, 0.2581099447459799, -0.32615209259151623, -0.7797057532192649, -0.47133365310784126, 0.3497619021700032, 0.031894653217482916, 0.8035594946708348, 0.2830675762337735, 0.339165558218562, -0.3970992369214184, -0.4612539262948099, 0.5827092115088524, 0.08063488291645053, -0.7842022822595682, 0.7629321822504012, -0.3814423652562983, -0.2918040437020973, -0.1263894741666716, 0.7742692085288873, 0.45781791085563545, -0.013531996467168222, 0.23382205842540657, 0.08978025252409855, 0.7904746935119503, -0.09625259892623787, -0.0834382235305586, 0.6463583055087251, 0.8572161383050286, 0.31932073159667806, -0.6765708052647761, -0.6576759701377151, 0.7337488893762862, 0.6569680781541247, -0.6816564702439448, 0.3774773946819387, 0.5354732713358233, 0.5868835136586438, 0.6934725493848998, -0.886901448630531, 0.5328556052253142, 0.6195939827419353, 0.608925903536411, -0.2395630661373023, 0.8339186034343975, 0.19928548547896718, 0.07793072584795993, 0.7354874633790109, -0.7676480019610922, 0.8008203314198359, -0.15488849317710543, -0.7026678439859902, 0.44390117846294314, -0.6155297855020234, -0.16303674967141935, -0.8271285035521574, -0.7610217503355209, 0.07268456469337928, 0.3891074059734655, 0.9227892539959677, 0.9496957930031649, 0.06039717593369827, 0.6352472260694555, 0.8085692562313362, 0.8647692280585753, -0.37226086739189157, -0.05559548635638839, -0.2882713619822596, -0.09254998536296105, -0.3985400886778897, 0.3746974445549844, -0.12663269049648024, -0.6640503245604302, -0.22305525096116452, 0.72276731004242, -0.08781058538724898, 0.6301139943329326, 0.07723119941769306, -0.5508648902799966, 0.46371310721779885, -0.4438997805969124, 0.031784972162179674, 0.4433215642414657, -0.4057097060088595, -0.12897440779811142, -0.10820461342696201, -0.5026540550598548, 0.15607436390922574, 0.6658062972775888, -0.3716800353222328, -0.2670536676164842, 0.4017782689531167, -0.11649082862749965, -0.3493706725492305, 0.44817401382761274, 0.3867191018477922, -0.4735094189422686, -0.5162808544537207, 0.10778948893890986, 0.328821825650092, -0.23514265448388105, 0.24406898686445014, -0.11051143858013587, 0.333482762188563, -0.06598301836852907, -0.2907453574809847, -0.2224270207390316, -0.021489007795982923, 0.8100957364249559, 0.21854081427833671, 0.2035822212587939, -0.4765478384402118, -0.5526199145408766, 0.09178161426536725, -0.06068700268041784, -0.07821684816497688, 0.08282497420290971, -0.12848758345533592, -0.31897307285347953, -0.15190688229080057, 0.22377400229675856, 0.7391017688114525, -0.3563907129562569, -0.17260934159278793, -0.1603131018344991, -0.42784233189734777, 0.36996519542353246, -0.8445637327087621, -0.01044570119057088, -0.3112228149713348, 0.5423065822770535, 0.19991360653976617, 0.8793523406264606, 0.1149536855665675, -0.22213403335967813, -0.039921725260854815, -0.10345295622139837, 0.4675761438441157, 0.22607412934570026, -0.4768116880911549, 0.3039481504424974, 0.11535750937462809, -0.8039760583959377, -0.33728736214279903, 0.515519977952376, 0.42196137405508155, 0.447686073474468, -0.39908434038789353, 0.7084661840702614, -0.2781147442626147, -0.13868770420967094, -0.18327350144410795, -0.5360329610957997, 0.34954787339900406, -0.14423156450383956, -0.01970839081698046, -0.2058157038460123, 0.49172911278039266, 0.6553354312181501, 0.2466825663025811, -0.7633705605685945, 0.25567788916013884, 0.23381207780443442, -0.49850453127961414, -0.12549051794377136, 0.01779207084421688, 0.22807982799162502, -0.5787651393606436, -0.059340146527681575, 0.37093758174969327, 0.41025495524989036, 0.03199257294665777, -0.4172614891367361, -0.20036331670956736, 0.41635757706094617, 0.30707387254905494, -0.2710925468350993, 0.12431992104471655, -0.007349006882767059, 0.3129557706194694, 0.03548536627912198, -0.1731044086220217, 0.004380490822501127, 0.25169703624480755, 0.4357498983117374, -0.34386234108587715, -0.5991009778179446, -0.30374234837623604, 0.6890986167926114, -0.5146371234801722, -0.09735213032456672, 0.29641065874717654, 0.34907838474954905, -0.43833772417284145, 0.1928140099035181, 0.3915981316410273, -0.6699269102624806, 0.32470891008117925, -0.2859530219937164, 0.09411729570095262, 0.21546256427360577, -0.34600044941220537, -0.23235045262790716, 0.11650143503328239, 0.20152843290288724, 0.6103869112926826, -0.48355659421066227, -0.2802814470568802, -0.37434615427329376, 0.03146748268099789, -0.8176773840954674, 0.4430551745053419, -0.1355517842842633, -0.4429083027635613, 0.2546045713283263, -0.2908364310997778, -0.2572838681076858, -0.6359171226616952, -0.2352224576329553, 0.24399367201467642, -0.7979411775813006, 0.4898004757367602, -0.41405463932526937, 0.14744291567610146, 0.13313939096160424, 0.043384751944542777, 0.17288408618406684, 0.22950017709123752, -0.2775424892729219, 0.08708342586187598, -0.35059790702327187, 0.4418860234219133, -0.631590984613721, -0.1268391079002666, 0.43026470054243604, 0.7451652791768517, 0.37231430630827805, 0.38209983836303285, -0.010961627352323143, 0.13365333039093003, -0.8225910995020232, -0.1855455169829049, -0.5086086907305506, 0.11431118651851227, -0.3412409328006888, 0.23833665640364246, 0.2768203261526497, -0.4761866036095214, -0.8859224247651543, 0.07129913293300691, 0.3334122224297944, -0.19284245697271774, 0.3991940035030108, 0.35782780598364455, 0.1984533509019846, -0.5417286051719512, 0.49886556482698224, -0.6802129394441303, 0.33814294253708027, 0.21682176447110346, 0.2338205821589756, -0.07532970228760327, 0.5871456790563044, 0.30870373692924685, -0.07536480554874525, 0.19098488179654954, 0.22252377306661775, 0.1140947398163773, 0.39236317675207255, -0.5860617307970792, -0.15760819205433194, 0.18583678984477858, -0.04318927113553256, -0.38927362051282594, -0.739653484055494, -0.7520003487549126, -0.5941440970451686, 0.4646529617034065, 0.19160712858996848, -0.38885017353153867, -0.5139595353841918, -0.5499570581617609, -0.7360414779274596, -0.05112890040074084, 0.22605315931391398, -0.6048941784186057, 0.42866768241501224, 0.06170889814704911, 0.6659264235210982, -0.22176380164680387, -0.4690729762599931, -0.23991826931593097, -0.06261978783543558, 0.3161183521120342, -0.46319410862346766, 0.026916169196216, -0.02847660917571312, -0.30334560297351476, 0.6641865129664646, -0.1090658678796454, 0.1656332199013102, 0.7475983895646978, -0.027970310065786333, 0.4363467921111446, -0.31991005512159665, 0.34529973409054493, 0.3582605629077382, 0.28144464752858256, 0.42924668657701237, -0.3468909079627614, 0.27298821731193035, -0.3113137662031634, 0.5839454797900713, -0.778703914615509, 0.4094618921471786, -0.06117462963890941, -0.13008267676816865, -0.5247708495912485, -0.43117997848227874, 0.5483354664181864, -0.14430234662675798, 0.6290567408840053, -0.7308518489759976, -0.11925338112640113, 0.05221240305218036, 0.03850661690771465, -0.40414494909109816, 0.6639409205190695, 0.9035939009484277, -0.8271750376311822, -0.4160814569528676, -0.3956397913884256, 0.44382127958568707, 0.2595751536554605, 0.23664920008312895, 0.5713107537868423, -0.4994257334272338, 0.005345998468957544, 0.08318997072164794, -0.38736047198089074, 0.5420374703236067, -0.18765296118977912, 0.25598090938876217, 0.777915011304626, -0.1880447239131476, -0.6352532801597038, 0.4784086211159865, -0.5648929393687009, -0.08983016373313259, -0.31317660615251647, -8.352753389448409E-4, -0.028321372656983645, 0.38199470789536255, -0.32625101606132484, -0.40382598620628296, -0.13342287177236878, -0.05636183202760921, -0.7531891242799557, 0.6004689512873679, 0.37601398215475473, -0.09397822521205434, -0.36326558756270516, -0.382567061974189, -0.25429864261327184, 0.14902224351583926, 0.5437514348229825, 0.11014625292898285, -0.47926695278675013, -0.5203589697470498, -0.7357283562445084, 0.15419345751161928, 0.2797966634167929, 0.3010391302905548, 0.4665845779182889, -0.3507649228492631, -0.26398024507094114, -0.10198510821031775, -0.3855399255939451, 0.7122292680948794, 0.23352805566852008, 0.20764321191249713, -0.2166860085981167, 0.33088952356693446, -0.6399257811962511, -0.20726426518998037, 0.47542585821353023, 0.0037912937951173342, 0.41854434630168086, 0.10868237582027122, -0.15385372888291465, -0.04002266955544563, 0.18329732784964298, -0.7952032062534156, -0.5214360404914886, -0.09698275131376168, 0.4497982643953273, 0.6403316873913757, 0.4379438213461601, 0.023741521375429838, -0.07207070585046105, 0.21882966416205954, -0.4244182632947805, -0.25230157403201026, -0.2854739592409705, 0.050555323879107356, -0.5758926112431404, -0.8107185602195988, -0.08084751604590965, -0.35175399790866957, 0.6365601583654856, 0.02589325901023376, 0.44770557999944005, -0.16557395916447704, 0.48209819756825606, 0.3935286179194083, 0.519149566261212, -0.15333561677549223, -0.3368115488304986, -0.14457741411218875, -0.37915296978832047, 0.587270982652742, 0.06840494067775792, -0.1056710594099311, 0.4118304744657153, 0.3995600305911663, -0.5211292750193037, -0.15602385469010743, 0.5639037267149692, 0.2869758947740981, 0.572818536616136, -0.5081945923615037, -0.30558604768982717, 0.36130477553682716, 0.41871354120507376, -0.31468418989383007, -0.1622451962394424, 0.4698934958564237, -0.04010457783041328, -0.004963180902355799, 0.34854867310690496, -0.08781737883295472, 0.40033289509389697, -0.37550287184648856, 0.6566009457225759, 0.4391094770809984, -0.4629425231088525, -0.35776272019888095, -0.6054089173374291, -0.4546010650925736, -0.36159149334721963, -0.23459447255981794, -0.19438238764676288, 0.6435321886729891, 0.2756576105580669, 0.6385824761015235, -0.19413467289891612, 0.20106173934566268, 0.0486655928763233, 0.047941480646776224, 0.3447093936183318, 0.09181908914141657, -0.09712275828113197, 0.34707361027161865, 0.5046419126344852, 0.6621433619057921, -0.7600693460159877, -0.3060778987060895, 0.17166981657128091, 0.050335033260667295, 0.1591673942768702, -0.31380541805003137, 0.19080686877548886, 0.03674312892498404, 0.07826726259411368, -0.2206321517480972, 0.19913662567256096, 0.024493452467713617, -0.3032390671590994, 0.06949344537416766, 0.2586543288166356, 0.07432999791877727, -0.3354617290334898, 0.03100289380687159, 0.15080846703429301, -0.27387601983619997, 0.14688508119186267, 0.19281364597078798, -0.11998390261949599};
	double w2_c[] = {0.3343626159897787, 0.5631547035294989, 0.04835908171711457, 0.4313789734876782, -0.6825252351720847, 0.5387790639981317, -0.3627349488643057, 0.6091415124002353, 0.5197713362928426, -0.2902694172255149, -0.4367875322230548, -0.6279848053967381, -0.5200517587443848, -0.5302797753502977, -0.1538773760585779, 0.6427719311521936, -0.5943193602095863, 0.148793045309054, -0.08596947480167023, 0.6951250779913376, 0.17284518218011052, 0.37589525922055783, -0.48650276011645394, 0.12530095901108146, -0.40075050325194495, 0.7131290108165802, 0.030248184063919353, 0.6826756313382445, 0.3110208255367022, -0.42559299990236926, -0.03848983181920666, -0.5960627161146963, -0.6018353022655499, -0.7724820634878312, -0.1724794922052379, 0.9420321365923432, 0.36892336161709777, -0.5951776081968709, 0.09474537881439213, 0.0683014394631743, -0.34201062140236493, -0.4467501442305423, 0.3634201852995379, 0.4472560377537105, -0.18092939370432976, -0.10156127908276964, 0.23862304140602061, -0.0028178835236150404, -0.287771811754235, -0.647609376838045, 0.579783245730996, -0.024332507727217408, 0.49688454864451903, -0.5715278592038536, 0.10423802521245121, -0.26702789371016994, 0.05002485288623873, -6.017098640535914E-4, 0.5668128538245231, 0.35019513649654915, -0.21639057032082973, -0.47396801358238183, 0.32438283987451927, 0.016396014699234778, 0.401139301526791, 0.6583883896580225, 0.45678073098399996, -0.40911042048918284, -0.18657889070293882, -0.2853260466090274, -0.20143083798599368, -0.22157481378806773, 0.125348624029638, 0.29653746751447346, -0.06217179133491924, -0.48771574258091605, -0.2378282961128046, 0.2079348298167998, -0.36104761014529385, -0.015090533484901539, -0.07077813937164973, 0.20373132165008032, 0.2749509709462357, -0.5235307025950895, 0.6443099315987294, -0.2580763521768557, 0.3767246897472536, 0.14655113449015014, -0.18940516234375307, 0.28469728180159154, 0.5063781572032184, 0.18714712365049427, 0.19221407617107922, 0.4485887190783532, 0.020200285837328996, -0.048088569271094464, -0.005890979443729644, 0.07232407603503234, -0.22999495878437876, -0.34953222017233004, -0.7382927995231382, -0.6378312991677394, 0.24757715268863695, 0.5474947462023677, -0.07959907641873165, -0.062120546206342525, 0.0756791532065417, 0.4445607028270276, -0.3236603435650365, 0.7510539654927594, -0.5376327387930058, 0.8437090975128747, 0.4751989812052338, -0.13649938641708875, 0.5885968108511993, -0.3314881075290653, -0.07462467487559532, -0.03500339965310971, -0.15137697123980856, 0.5314601697097948, -0.2030805118227613, 0.3871857240030688, -0.6978305653509487, -0.3111971497647468, -0.1398178172586499, 0.6622371065346055, 0.02373170729954907, -0.3703686458579035, 0.37517417002301623, 0.3062360381785757, -0.13284114784348308, 0.5730300411536234, 0.3864124512998305, 0.8451853623560373, 0.11725781491333735, 0.6443899977758434, -0.2098565573643954, 0.09049892055590068, 0.08940513561957061, -0.41192366095188565, -6.660222439054259E-4, 0.32538588106577215, -0.17214212445977267, -0.04322150188919095, -0.5294988212296152, 0.5531608393765143, 0.05602180146971675, -0.1513185686687585, -0.702040820394797, 0.17640001971134175, 0.41545169414686334, 0.2566198321973638, -0.6110467744716164, -0.16982675223301352, -0.6648156483610184, 0.03688556381085521, -0.024350471036491732, -0.2369591769003888, 0.09263466930612199, 0.14204036628442454, -0.40650036439446807, -0.04362570494717255, -0.06151094169143178, -0.6570264655098328, 0.13490066426781905, 0.020382652907196375, 0.15241703134538015, 0.8863451311946994, -0.0868330751412999, -0.23882235634770466, -0.5206632475928586, -0.03399020913148794, 0.06665109492895312, 0.5625947958882137, 0.4894206616431536, 0.3673262290243501, 0.4945746951897939, -0.22145505254027265, 0.02288125774826265, 0.5455970674405008, 0.11888796738319879, -0.39454776992293744, 0.24121281340823186, -0.4516863656025887, 0.37415320826862175, 0.22233590616765736, 0.0541439317890475, -0.34825151730050097, 0.2957637851625027, -0.06536922497476963, -0.1301672254149143, -0.21474114623218354, 0.46519305603670624, -0.6100768258254571, 0.1769957669578482, 0.3053976154545623, -0.05662346326584261, -0.5136253165013105, 0.011674772806617481, -0.6474259115428196, 0.25712855931104506, -0.05400482928954749, 0.2581420620501117, 0.21869998666554905, -0.07196592899397578, -0.7436037873973471, -0.09880703296556285, 0.4759737916375984, 0.3061339944712903, 0.19007286170346405, 0.30187037839727304, 0.19899174002641817, 0.4581162819894546, 0.31541278627507496, -0.22543086199595053, -0.18431496351967852, 0.18854653074229108, 0.3781415425106142, -0.3204171345619796, -0.4409861202711136, 0.2625786117368921, -0.4714218741142894, -0.3204323028746133, -0.42610998213373796, 0.21686444610174777, 0.0871270075860051, 0.3565581239174197, -0.0583874643774816, 0.718596264923025, -0.05908528444873349, 0.19751299570674558, 0.5367906415004362, -0.4571627950127098, -0.44349245409169713, 0.5265095525952999, 0.33474018543520256, 0.2665953396649036, 0.6087119613364288, 0.05359232307860369, -0.26098477971335676, 0.12223121958525027, -0.1802363770501785, 0.5753207936515841, -0.8260524400129707, 0.1314458546207849, 0.4033086390816825, -0.2580396916476675, -0.21521645691839453, -0.40345850425958385, 0.5294068599831493, -0.09102427483406636, 0.5405110219808956, -0.26821070762739324, 0.4573029953644207, -0.5990712231952796, -0.019035000258543905, 0.005954183170219465, 0.2239022887782575, -0.3298147550713632, -0.4110114438180904, -0.02214968358370157, 0.5455378199752839, -0.15119358435350005, -0.003480204963662907, -0.01575055536248958, -0.12951791289833853, -0.5994728891411699, 0.4786858472936993, -0.30927162459069774, 0.1872383238991665, -0.5308508437308637, 0.6059620374195509, -0.40274682975392234, 0.30127205951128017, 0.007116939600480918, -0.028977849141205547, 0.6360665352295157, 0.19103370295080174, -0.5940971545601816, 0.0741754658724409, 0.4260020146985177, 0.08155021900170636, 0.5806369484968262, -0.1781680078037354, 0.2411003974063244, -0.27875357617898133, 0.46002071432738656, -0.3656772894805209, -0.06193234354358794, -0.4680939216913691, 0.040462738529734865, -0.6226394891642, 0.029888035163405904, -0.46299109071192823, 0.265810189451217, 0.529786916306566, 0.10721916321968024, -0.08254706114857065, -0.410656473695213, -0.4201174473617244, 0.9489455722704578, -0.01917312384069189, -0.42087855395950036, -0.6540145241888362, 0.6647688769523383, 0.215149445435761, -0.645519691164816, -0.12907980208516606, 0.5045025300181634, 0.39607136711917257, 0.21104384009035984, 0.7525605134183289, -0.2289987974506694, 0.6046305000354159, 0.26818669579834137, -0.012931867112993212, 0.4641994088683093, 0.34317751381006323, 0.6647474410254135, -0.2682565670368201, -0.18131709483714156, 0.7508795871021339, 0.47470444291448755, 0.5777405318859762, -0.7498855342702782, -0.18791862489835692, -0.5155896162128619, 0.5168509880396686, 0.2699749065898318, -0.880795110199101, 0.7206315917153193, -0.658971283393358, -0.4317451969111281, -0.9032166531257229, 0.08788155541601263, -0.15690847659954993, 0.136425794791666, -0.5657892602833536, 0.6314459590952914, 0.42195922407305997, 0.4539692572722594, 0.7370668908860775, 0.38984372785165433, -0.2609126635277972, 0.5892827478347498, -0.9174074642448238, -0.6054143162871775, 0.45769845442739393, -0.2516298333537711, -0.5985344543007043, -0.12531972857831922, -0.2602016556399779, -0.15793459163430004, -0.5682064365460168, -0.17719351570417724, -0.5296609799528491, 0.001906510277973882, -0.6014980970397239, 0.8870548143183594, -0.3240014324174144, -0.2378172756381568, 0.2600341217283029, 0.41158526460106337, -0.26302228150452606, 0.5115778181835852, -0.43726917720791336, -0.2862344719931552, 0.323390765421693, -0.5611832279987093, 0.0044992823372695945, -0.5614582790288574, -0.43199901397823226, -0.6241605028797439, -0.1209572835879516, -0.27401008543720956, -0.46156472438556523, -0.8679162572439888, -0.5456795181321165, 0.2326339268306137, 0.1344340290678227, -0.1679124809389997, -0.13650280589504016, -0.041694663485851914, 0.6787532013237234, -0.1205749812556301, 0.6358543991858976, -0.7108408720640391, 0.09062326457400992, 0.7682504715285285, -0.8016877710798764, -0.15064940540203425, -0.5590120846152171, 0.036279710739104534, -0.596705728438004, -0.7305812308372284, 0.5421937807136428, 0.6370181484961981, 0.15475539520895598, -0.0868743772584635, -0.45486408206304946, -0.08534983787736192, 0.41903434598533384, 0.7216199861338306, -0.5270136846834951, -0.39183671743270987, -0.05774042976988993, 0.5524299289188945, -0.5358056005330347, 0.7013662197352817, -0.18161766178422661, 0.9292208398803339, 0.7200427376904193, 0.7221273016581983, -0.15457632268564078, 0.0807840299007529, -0.5221822304976682, -0.5213182220903033, 0.1458873112659533, -0.17535358243752844, 0.3894544942442288, -0.4888216497946557, -0.01989054670777521, -0.40343245042389075, 0.024490984597949253, -0.248165044193995, -0.5679081036948779, 0.10871193490698312, -0.035218561549720896, 0.2268120027219069, -0.01916763294793765, 0.05911098601471719, 0.5058319386897693, -0.4033384914749385, -0.14391791942468826, 0.2690392093114697, 0.43033201890499245, 0.4238854502430407, -0.5667894724578465, -0.4384139421947765, 0.5514535901041658, -0.6083973783518047, -0.03572582987984692, 0.37347693222670775, 0.1956646919136501, 0.1308812648998342, -0.4873318734019031, -0.20467911543702566, -0.49452410506984745, 0.026444296309353077, -0.8650536619638707, 0.5516026586236992, -0.19992017737427406, -0.7419522537633908, -0.17098517800525137, -0.5073278706178821, 0.166889365000442, 0.05866931713311395, 0.11826286613229312, -0.37926561894088817, -0.04918374357323577, -0.0997757407548435, 0.07703351969087721, 0.28356770775196877, -0.33106975217984747, -0.41571306456445856, -0.03425713873907463, -0.5464641767240732, 0.16588632675991521, -0.7943765892685379, -0.2555506227862147, -0.16619967888276713, 0.19910642488358965, -0.21797113682289232, 0.0183076627277953, -0.5683242075184973, -0.13461865190570385, 0.03957179113439274, -0.39394365388287816, -0.29465111043169445, 0.5013656966424769, -0.30800389366720926, 0.23631350403676799, -0.17214301568864582, 0.44462681415020405, -0.16132265455901534, 0.06528952777551783, -0.6973567004677075, 0.6144886699690135, -0.23659782385209446, 0.1672540522213451, -0.2950758963727451, -0.5989433274865114, -0.17634868843224735, 0.5633575479011832, 0.7477284579873668, -0.3793935273523201, -0.058610125358314405, -0.031187845595288102, -0.460987973611114, 0.029524526446076088, -0.2784079164961776, -0.12425008965420259, -0.5046545875136264, -0.27163713913686494, 0.19735318600425572, -0.3988763086113118, -0.465986284820073, -0.3267105204401609, -0.12076862537207766, 0.4655742903786189, -0.18683477823806904, 0.037008012193191844, -0.10394930522226441, -0.048060529291965595, -0.09272259012780534, -0.5956545073391849, 0.07723887506382786, 0.28174988112621424, -0.5656606362091069, 0.23907078482925462, 0.582185806354691, -0.3518593940618494, -0.2518054676894025, -9.79665107496669E-4, -0.9822037363287162, 0.20495722938997407, -0.12048549301493071, -0.6903443205278311, -0.911312100224335, 0.5854507312353456, -0.4536710058535203, 0.49936194622313473, 0.03295018973130877, -0.21528997644320638, 0.3891898998945116, 0.6730486727677504, 0.23015108094612352, 0.5822638806838726, 0.0650613123807548, 0.20627994700346663, -0.6536968701548129, 0.03335775348035502, -0.4286177890113119, -0.2684753103939924, -0.5372309924482123, 0.8635811967811149, -0.34889682212788153, -0.5190613710545685, -0.7147369080254744, 0.0032828863103977132, 0.5471673955424795, -0.4168385830795593, 0.35556304342896317, -0.14167417701594423, 0.2001765263805647, 0.0453121439687326, 0.6439612135386753, 0.4108938920255054, 0.017596584686490085, -0.05865862053769459, -0.4482036946681631, 0.3720119768791895, 0.799344862574409, -0.42409393808923207, 0.24028344460965614, -0.10744232813773712, -0.8047694983645021, 0.43649494565648284, -0.5944519480977121, -0.4472469562675831, -0.020203389273888636, -0.2638370941231365, 0.08258602088475336, -0.38800460312023966, -0.42788972975740497, 0.44575127211854104, -0.7238641041519026, -0.24910526326729343, 0.43688754280705555, 0.31236502647218145, -0.16032745060734613, 0.63989101682739, -0.36514853768100075, 0.47086692253822027, -0.16995828557764492, -0.4728176442596274, -0.22381929953809587, -0.12382187438117326, -0.09026435553814549, 0.22213788376359422, 0.4467398301187683, -0.6121939636756777, 0.2942732411038506, 0.18070933019523974, -0.5108204881192875, -0.20002267596929538, -0.32064196804547435, -0.23246599378299265, -0.5535829170404806, -0.4555875700813559, 0.27687106044008336, -0.5745929250853596, 0.44558787575602987, 0.5128019700571524, -0.18700368763901165, -0.06478923286254731, 0.3642734296145555, -0.77858157624154, -0.02555108378893346, 0.4498490769208795, 0.4304916000935927, 0.4585072843939819, 0.5400090434243002, 0.6200438638865664, 0.03636504327787617, 0.08345926982060964, 0.1721236649848941, -0.28787954121595527, -0.4840755963089474, 0.42115558242352386, 0.08961489329184445, -0.14301547995421776, 0.5378540860191579, -0.5617305341159423, 0.3141641765637797, 0.4198435691272449, 0.01693312007934611, 0.5140699538349619, 0.38127387866023066, -0.05616545693251629, -0.4046673950081289, 0.1693744734719772, -0.012685742452585577, 0.6432371021896858, -0.5611928264315909, 0.5987883315071862, -0.4216658538909797, -0.6927846510814398, 0.08717685387532759, 0.08892201828072116, 0.6246819374084162, -0.2388337362840508, -0.027558396810046806, -0.37537170524657304, 0.1530447510867351, 0.3181256284703333, 0.17246137242254056, -0.5108726710034844, 0.5826803014897407, 0.2934797534822602, -0.18478480682789755, -0.5344786875351112, -0.26371828958779475, 0.07133615300492603, 0.7484215778881401, 0.060819420978940754, 0.16893038512530914, -0.3416621624681755, -0.07596066469933496, -0.4414105449004889, 0.4909470971878369, -0.31252386505144925, -0.31759238517283783, -0.0699069784698994, -0.2487085380048055, -0.009901205491503653, 0.15593709058060523, -0.4959820498585252, 0.4282369414114604, -0.3028285630982833, -0.6638921436059657, 0.3624581367733799, 0.23400621915407996, -0.1118885080999128, -0.5256208522756012, 0.7574991278710224, 0.515321537266574, 0.0969105406996574, -0.44641733464393024, -0.7344276468370414, -0.23089648092653126, -0.49985184166256985, -0.35009834450875055, -0.15296220526929655, 0.5698644011652229, 0.273827211775645, -0.12976167419356144, -0.769565222220868, -0.4251250883256632, 0.37828339478365186, -0.6101705811218918, -0.19746391813678169, 0.4014302086574295, 0.3852922651154573, 0.0741759742839743, 0.028822665663165485, -0.31422793710125774, 0.050198142588246744, 0.28782532860087884, -0.287837832570074, -0.5581922176537094, 0.23608908386036728, 0.10593155708003224, 0.19746400378854057, 0.4451396360097464, -0.24891463743722314, -0.24390673853961897, -0.4703848294018566, 0.8854262529256766, 0.38809131406323943, -0.30045981944644307, 0.0569350719177679, -0.26694369094787995, 0.01839312963904332, -0.25212958351383785, 0.36494150229128713, 0.447489898082189, 0.1759570629231674, -0.22963121809778309, 0.05903630439380857, -0.1543365703864593, 0.17203262603642794, 0.15510003638778855, 0.8856920737148255, 0.36400067700822547, 0.318405539528058, -0.2242444332667523, -0.5292303244497075, 0.41777669350962604, 0.4777313539533097, 0.45049784744498467, -0.0026176215887977194, 0.4148498890515537, 0.39460753351490924, 0.08202915182307795, 0.17276205058498562, 0.6786526021298359, 0.36650074446452136, 0.28212899695480675, -0.7129725962123119, -0.21159669484264731, 0.43394268230304034, 0.2837810145226216, 0.5418583488207943, 0.40434692288316343, 0.010871128179689962, -0.25390845093192466, -0.028481654980255136, -0.7750260558156267, 0.10721875758186768, -0.3578931944587772, 0.05360835400104286, -0.2062046762674642, -0.5762257322493329, 0.21034032945281092, -0.138886223869016, 0.4101614349643619, -0.3707901265680187, 0.19144562394288192, -0.7874262108461565, 0.4345662177357134, -0.528775416524022, -0.06908632642651096, 0.21424877139389786, 0.8275054494011769, -0.31988618497403676, 0.13627726303236246, 0.33861218900558976, 0.14490293215779182, 0.7189109204563084, 0.1599045780805385, -0.48272871437488213, 0.45170706436922026, 0.2295151124802784, 0.35518485041092956, 0.16869291742981488, 0.36627440636178854, -0.15853060633198263, -0.25479012394159006, 0.05351349966357588, 0.20958206007403962, -0.07481206397001933, -0.15242844994782595, -0.49318129219788004, 0.5087954267488674, -0.3476225218861904, -0.25429280881376143, 0.1296361128871995, 0.18488307881154747, -0.15662428777089415, -0.3224774528227634, 0.1769749329648627, -0.12870758126686632, -0.35825687227279013, 0.70515105601147, -0.5601261648703088, -0.10469573337034568, -0.06468665564468486, -0.3172647221394366, 0.3094107491041182, -0.25770233539088044, 0.3152785679691328, 0.3035943732938715, -0.2906337721904284, -0.03894683091836575, -0.3397438531622045, -0.035552672078250816, -0.38130783837700793, 0.18193071315019216, -0.12435827620665897, -0.5996217725653363, 0.6451005668146531, -0.6937175449796453, -0.0657506130206884, 0.08778030786707677, -0.257556009623627, -0.8359256086147504, -0.4088744315074955, -0.3870892698654999, 0.2116034778916321, -0.060579370105008495, -0.22077794881343327, -0.3471619604297705, -0.17702171660912364, -0.1510950505371764, -0.17602999462812485, -0.060356431652746206, -0.1781315923001287, 0.06013967934592654, 0.12667439006328624, -0.2921380621403921, 0.03737818030339711, 0.09956880774690158, -0.12320207316569759, -0.0787824818815571, -0.14406843951362144, -0.364535331107856, 0.17632839651992513, 0.21102842401162825, -0.09478897852640787, 0.08609105241630843, -0.2103545013844062};
	double w3_c[] = {0.13602595102214293, -0.16526867298161474, -0.23344868228227542, -0.431692552591122, 0.392720637901135, 0.20642250921166216, -0.012231844314768255, 0.07862331095127385, -0.1025822069427395, -0.023665416341951198, 0.28238405285363233, -0.241326893367461, 0.06251300524946103, 0.05376249089125992, 0.25643734302331306, -0.08900665434860199, 0.7528689819798278, 0.5521349084881138, -0.5841822039074592, -0.2902756818613585, 0.44489530393976934, 0.4869777247199766, -0.41314753033544427, 0.29544321855311206, 0.2628888032573563, -0.47499122890933293, 0.30300712763477866, 0.3759434462940147, -0.4729857984048871, 0.6456779666215996, 0.05735572702563965, 0.1071894422220699, -0.09536136196276629, -0.14441254844560825, 0.18154316720128624, 0.40855250850799857, 0.7014616791291903, 0.2455031098038275, 0.108821014165941, -0.5356435289109938, 0.022422698108983646, 0.15101568457639672, 0.44436889257200035, 0.05961288780491339, 0.4307675572090228, 0.3623026938549571, -0.6130467462976478, 0.7089460695662887, 0.12174379826361001, 0.6543480964861021, 0.06448219685888074, -0.06186276478644044, -0.6720562581052809, 0.1739749736947248, -0.06090921067549457, 0.10869631824364344, 0.14333610834355143, 0.0872197630734853, -0.41413119812135873, 0.5095333982027866, 0.9139178554000071, 0.551061944571301, -0.7145712904725088, -0.25797320535636925, 0.4016075606413093, 0.08121545409478892, 0.5492710333296318, -0.4980515606314436, -0.6695433675354527, 0.7796817871828631, -0.0942195224370789, 0.39918893327791094, 0.42686361174103576, -0.4331618316127498, -0.6874628969066829, 0.2655457668539928, -0.626169719226956, -0.6882015819113535, -0.677041508163081, -0.7625777934663375, 0.15485885030178131, 0.09544730742130252, 0.08024685771075232, 0.9365067964677796, -0.48685881276791165, 0.04111146771185814, 3.828926979699415E-4, 0.2520967146601041, 0.5436929628950221, 0.23412117645946212, -0.4632488836190288, 0.24596187713306364, -0.3912023449312467, 0.1852924110450692, -0.6647262798228714, -0.15658244034206195, 0.5604048004930372, 0.5120989900578197, 0.01030770266306108, -0.06773840115916838, -0.39902588788857113, -0.015150415713759913, 0.2622345355808982, 0.4204908801261298, -0.17194470742824677, -0.2720792258849638, 0.055677847764360716, -0.2477491852051928, -0.21254113311910772, 0.7403415087880046, 0.5014173050495796, -0.03684757126224378, -0.4359667399968586, -0.26954117447677284, 0.29799068678878987, 0.21429058207274404, -0.03865938994684759, -0.6218329875949198, -0.27034161357103653, 0.42402762585286635, -0.39564597966484544, 0.5913632507669039, 0.3222247100135035, 0.6699634672903206, 0.05261297431574796, 0.024130561497617865, 0.06871460919482622, 0.39721868035393715, 0.0808452247956528, 0.33173725051529146, 0.05200251749338115, 0.1695252266631445, -0.43710990241410297, 0.3852491648362528, 0.7975829330399193, 0.1666395112342734, -0.039060817644937476, 0.5999091069474745, 0.060909223263042545, -0.10512347511823185, -0.2405967602485004, 0.22435153687491888, 0.32178324297829647, 0.10895817193278329, -0.13100523149766902, 0.6545579456678601, -0.8308710806416479, 0.05143106348090535, -0.5755119663586221, 0.036016951354366465, 0.35911919408353615, -0.22967502284763436, -0.7857473095682996, 0.14286207499555886, 0.3387030270716209, -0.5131682876925329, -0.3272234052254479, -0.30999687600382575, -0.30826425525107787, -0.30515232166835005, -0.8200832806297705, -0.5333792554394741, 0.07456256957631105, -0.22794793848348804, -0.201725832650331, 0.21949534900634693, 0.015761638129981825, -0.27163007914050874, -0.606752353762546, -0.8643111591744168, -0.12820741116147882, -0.7112255488330985, 0.1565294526654038, -0.06429934817989034, -0.7133709022919774, 0.6307642629526495, -0.17589269351035133, -0.2788743966904587, 0.09770282381232792, 0.22932518486445036, -0.5583481779214549, 0.14208789050385284, 0.5235283406592117, 0.500978744511232, 0.2940040105771407, 0.4141710597904121, -0.32607397604586313, 0.3681727561380656, 0.21788791383919848, 0.24471239972824635, 0.5367278365594296, 0.22835356055540668, -0.58922894333917, 0.43534986407249004, 0.6713337654879543, -0.5186485210028633, -0.6693984264217584, -0.13471011808624822, 0.6977464132206707, -0.48152631415813657, 0.6786230646793572, 0.3178740386961342, -0.6271414916383224, -0.5625559445757238, 0.19421663882058313, -0.8425797894488503, 0.32181692248930066, -0.8575415340712207, 0.3637584581876927, 0.3131611932891112, -0.3168760596182183, -0.6576973098595345, 0.4038169811338078, -0.7255961223361737, -0.7099081602067819, 0.3773343936413371, 0.4067796596415282, 0.08188412391956944, -0.8234443208536251, -0.4719382324632479, -0.34389623303888084, 0.28601224679727816, -0.06431993791064791, -0.18855880969919675, -0.04155024977287591, 0.0758162151873461, -0.5073192335126249, 0.41154606913919645, -0.2444445137515268, -0.3892051363634714, 0.27064694044261933, 0.48787831066443493, -0.5202003157216843, 0.38680084111707286, -0.5947786855550408, -0.5736178650540112, -0.27105115149984, 0.06438898636695783, 0.21771704243364456, -0.4955396160876535, -0.2996922100503474, 0.7623480132805489, 0.04960543028489524, -0.8309415294271578, -0.11944264576909246, -0.9814304057223544, 0.32866211565602377, -0.3625961927027114, 0.4482154303650041, 0.7921053503422786, 0.865267901143954, -0.08828664371098648, 0.538250761635812, -0.32351387416141764, -0.41733458385662725, -0.08293878979599481, 0.042007785083792326, 0.451766248204033, -0.739710723348539, -0.3444394266253659, -0.5479474253958269, 0.2109824368528146, 0.1259665925474197, -0.3563761869349749, -0.6226319484184373, 0.027167183639652457, -0.28679402936723564, -0.43052066115130133, -0.7465409279077269, 0.4612213628953046, -0.1264045722361891, 0.39961888650719163, 0.03731606280783603, -0.612209053998977, -0.4631756025241989, -0.3546639254303924, -0.49610080545544205, -0.069484151557206, 0.059331204458350446, -0.1901357274870505, -0.8259994031825857, -0.13351047150772327, 0.11443505210729839, 0.5418188266118782, 0.5795048112395151, 0.03009658642936234, 0.7086922004678006, -0.2970051808762143, 0.3413442152196645, 0.16883347192252218, 0.8741847081925014, 0.15345212148494916, -0.4099733971622282, -0.4393745066345025, 0.30905045391348895, -0.21070907304015893, -0.6714953256715301, -0.5740994747469761, 0.6278030515938375, 0.6010346301589532, 0.534747763962411, -0.7473236119238192, 0.6217904311698664, -0.006888384334934723, -0.6349075079331183, -0.46657024592943624, 0.5843021272556789, -0.43430120203913364, 0.6637357839495008, -0.9207094290365115, -0.11358904280470768, -0.081801412381314, -0.7232326010296969, 0.6525803687410037, 0.007552525157944107, 0.3296058486382364, 0.5878229892254948, -0.3928801606651469, -0.6262817218349277, -0.6631272993243034, 0.3419979090576084, -0.15205546406370102, -0.5417306845082691, 0.06464102104931604, -0.7400385677262094, -0.491845418301685, -0.40216678504763637, -0.1975515192165468, 0.2892114284470515, 0.5264538826735664, -0.6463077852409223, -0.6611835848563579, 0.2929565529705216, -0.1773160183700429, -0.3881041567898164, -0.2609299951347368, 0.20302985636370385, 0.2238129134506933, -0.41264217250723756, 0.1092564364674788, -0.8150723955822209, -0.047108071320797335, 0.6208744764610268, -0.2615499806144082, -0.4128935020250608, -0.753267161889445, 0.06297804732502321, 0.1648073068259294, -0.2654250181795691, -0.12038417574180987, -0.08868076375810344, 0.6557421449916024, -0.18484077171931118, -0.4893156884600326, 0.5784172191419883, -0.09171772546821116, 0.2836888322954814, 0.19442905635416396, -0.4775322246881367, -0.418219968295544, 0.04327434087657408, -0.12174840274812783, -0.37649925976597004, 0.340179192846374, 0.338381664326426, -0.8120896531173429, 0.0762934159960747, -0.430714689129302, 0.14568776111227105, -0.23373725448977445, 0.38190191886732133, 0.8110709126014556, -0.43209630101738156, 0.5217555972577671, 0.6174673667016426, -0.5935023968138442, -0.19150251380797934, 0.28898978558503124, 0.7208274725468086, -0.5435386507496076, -0.40822387723647163, -0.7431147815329202, 0.0788123598513277, -0.4736095157011384, 0.26166224702996754, 0.5460574057185579, 0.26454106664466165, -0.07846405708465543, -0.24219690663887183, -0.37642447728683565, 0.4948121330086689, 0.6002029965927557, 0.16572861913281456, 0.24408232818522035, 0.30048491354447726, -0.2689417334612439, 0.2039589659000638, -0.44465309447098167, 0.403614874784085, -0.29617976364151555, 0.3779242981211334, -0.087019375442845, 0.0939861977492479, -0.440959069735674, -0.44527553339872816, -0.007048401003733329, 0.4007381491742995, -0.19158302499644245, 0.48902033754843055, -0.38883098002391625, -0.48806070838662363, 0.6862968065516906, 0.35020471398238584, 0.2583059555347969, 0.2817718200971234, -0.1452120831463829, -0.6224944331092283, 0.682555106686092, -0.27114144741234614, 0.5197903714197168, 0.5626027575987538, 0.04039724187293591, 0.5685074343003217, -0.04919098986753452, -0.23369054575173281, 0.011988477015819739, -0.1843491406746625, 0.36317901039673695, -0.37015126991614533, 0.10661847290855392, -0.3306793837194578, 0.6597774859032367, 0.441487047374312, 0.4528711856991346, -0.12848228240332374, -0.4689925969837087, -0.6334501173478242, 0.27738566230473516, 0.31736468551010993, 0.4765847997052767, -0.3231069099515973, -0.19506354561097336, 0.2749496491876998, -0.06620642252365203, -0.18355051780167286, -0.7723957554149219, 0.022105885665904372, 0.014100821329258696, -0.3638015391277802, 0.23301185116907996, 0.013037806001809855, -0.549163011466079, 0.3741496684784216, -0.7271355726289743, -0.08833630608009799, -0.19544943073889967, -0.2744943145856684, -0.4453318989109777, -0.12144399091792756, -0.07638782812893477, -0.11085113127171267, 0.20195954206953698, 0.6122118527506931, 0.3918550121503017, -0.40749777184664343, -0.36179565770566335, -0.33056511037704317, -0.4579919024245638, -0.06697845330469859, -0.13650630553948795, 0.19903077483402112, 0.45058696384320635, 0.10315021671653313, 0.3843282823483909, 0.2731937113230622, 0.05805349419784385, -0.5815057618780552, -0.1469779029711128, -0.47661605698428594, -0.4255356970315422, 0.6689311177818115, 0.7694642134061146, 0.11661137409383288, -0.5129306223347234, 0.35795580598203375, -0.4621620808982109, 0.45972010700634014, -0.19359639257980893, 0.41696560308649133, 0.5212849651426767, 0.7004656564226401, 0.744308837475319, -0.310569257543038, -0.014978808272032403, 0.1873395314475033, 0.30769298510732207, -0.34922321515766036, -0.09755163948881033, -0.7256148038422201, 0.6091075625017106, 0.14789157267870306, -0.15916520658055244, -0.2569844799148773, -0.31263671992295855, -0.5127227301446311, -0.14382676247379675, -0.23376888458157197, 0.2973663628397208, 0.10874468735675312, 0.405391026281707, -0.7629687602073749, 0.019561076172129904, -0.06659471109495764, -0.4107783165255566, -0.4323099069763152, -0.01417720558946961, -0.20099019569707183, 0.5963231181517037, 0.0943342554640448, 0.10741882278525879, 0.017612554362236937, 0.6474644751989087, 0.014985059751372473, -0.30560898985703483, -0.28892265846756415, -0.1417106773378367, 0.23241653611842464, -0.008783071563373337, -0.46344479360332347, 0.39294848714440744, -0.2034511670013277, 0.681337246426919, 0.505340728649649, 0.5701054434688777, -0.13239650264560537, 0.27414129035740054, -0.28843999363296124, 0.6315508717526854, -0.4426501824487496, -0.020971352035482893, 0.008883652739263143, 0.4084470213600304, 0.27005170143131696, -0.13424311470406583, 0.6861944217647599, 0.6165321584789623, -0.07515841411746768, -0.5848250416042949, -0.08967492743648595, 0.3517906305187445, -0.05977907629735346, -0.010667571954550346, -0.5102336332914535, 0.4764296775933301, 0.052645279049518205, -0.41942173253049536, 0.13281588328148647, -0.039054420028566086, 0.5012208445953028, 0.3514060757772516, 0.16987724420182548, 0.12168406542325093, -0.45648132269452535, 0.27736800289688157, -0.17244746331201835, -0.12511334089130696, 0.41022339676553377, -0.5535637060176046, 0.14183034147310142, -0.6349401663197386, -0.2891285211003961, -0.022200739528687133, -0.2825595355414995, -0.48849442258948883, 0.1403096459349105, -0.708709391510409, 0.4494819999018527, -0.5153305128799269, -0.5500501398532818, 0.29910956728922544, 0.322806354060209, -0.18810183032752134, -0.3146208553688451, 0.10079601598011144, -0.13852394218926428, 0.5980459910736701, 0.2690693451531755, 0.25396529765312453, 0.2588569405098054, -0.4182117177881751, -0.5312888182272382, -0.19774137778822032, -0.649301600183041, 0.19489204896842066, 0.021511533326110402, -0.13498516810343414, 0.16317070464259714, 0.35058074971189496, -0.2143357529493013, 0.7997016266276794, -0.3569075943981127, -0.7361692490562779, -0.3044177310968519, 0.7878126525507142, -0.19280608969370833, 0.873261608255163, -0.0759276148929587, 0.3011005069076753, -0.6626250895866139, 0.32093838128660457, 0.6700184409589613, 0.3162340631255147, 0.5573526820069675, 0.8406503074100649, 0.6394671451788931, -0.4858468833773202, -0.3011788619361783, 0.3797948192243933, 0.06252047502975698, -0.38141077203121465, -0.877305039043147, 0.0959280302302625, -0.08814169849106673, 0.0950171573962542, 0.05020501724627896, -0.6286595127090636, 0.07214912083255201, 0.03381214565485244, -0.1063573676185184, 0.20686419624759328, -0.40194649277225303, -0.4486134966626554, 0.29148694826208854, -0.15813602954006883, -0.38756249923388786, -0.6892982992626747, -0.43542029206492877, 0.005314576014841567, -0.4208988231976555, 0.5163940051602413, 0.16638617500761801, 0.06647397711855836, -0.3673961117151533, -0.41859253999351936, 0.8793308485567637, 0.05756729389675148, 0.7958376455569418, 0.23834378687514485, 0.5176013670009457, -0.6448120314486855, 0.19315598793290809, -0.6970171616608156, -0.5019401090232672, 0.043260230138931, 0.4111611995242462, 0.06055444719589789, 0.19105824242612612, 0.6069325458484782, -0.40923916496211454, 0.10433123699986868, 0.7337597384947111, 0.2825152474309045, 0.34290625944196607, 0.3786269255990174, 0.38620116156720763, 0.140822277067283, -0.695737811080024, -0.4880619352835818, 0.40639582268302143, 0.7945907305031196, 0.011758102914637924, -0.23840207897154514, 0.2376453848320911, -0.8057084815228167, 0.6390342382631661, 0.056212205496431814, -0.23560167206198407, 0.2332484680223217, -0.11348441648944022, -0.1346493053186842, 0.6319717237631735, 0.4199500226584775, -0.08117324677567381, 0.13241753773882925, 0.23700637381380701, -0.11116663631628414, 0.21221031519327288, 0.19399840132553153, -0.5115891616999693, -0.5469671822729568, 0.3612991860846298, -0.41751164256994855, -0.1888332875291523, -0.10863925252414966, 0.48236798002868553, -0.8383133415736814, -0.550549309697792, -0.4387326173520303, 0.23751681903544725, 0.04128214294108723, 0.22752306899349278, 0.4638737051637707, -0.04220175923010354, 0.43062171793032555, -0.39825935814705027, -0.10258500059906009, 0.29171220462588504, -0.1272099280966473, 0.17490701371083667, -0.22322069905159164, 0.4422515106725352, -0.2354279243517181, -0.5974861576592535, -0.733390502539214, 0.31859244373475515, 0.45860923431537903, -0.3650946523283896, -0.7133334224133258, 0.5165458893651017, -0.02035782447073945, 0.3353128980807863, 0.07273888711909707, 0.3169162113297102, 0.29923227899094035, -0.14826504595258694, 0.008695512394816834, 0.011334735387627215, 0.24606994288933653, 0.19420429052254545, -0.04612024060276902, -0.09779888029242167, 0.04550649638257148, -0.1061175819086139, -0.16348005602987395, 0.2837482436355893, 0.037012412280643635, -0.10603378860881618, 0.28057011802623594, 0.27709254247402204, -0.2722009700743021, -0.3678586459193404, -0.28096344349897234};

	arbi->Set(w);
	w1->Set(w1_c);
	w2->Set(w2_c);
	w3->Set(w3_c);

	double fitness = 0.0f;
	for(int i = 0; i < 10; i++) {
		b2Vec2 gravity;
		gravity.Set(0.0f, 0.0f);
		b2World* world = new b2World(gravity);

		J0_S_Field::Configuration conf;
		conf.World = world;
		conf.TimeStep = 0.02f;
		conf.MaxStep = 6000;
		conf.TrainingMode = 0;

		J0_M_M0 monitor;
		assa2d::SceneMgr* scenemgr = new J0_S_Field(&conf, arbi, w1, w2, w3);
		scenemgr->Run(&monitor);

		delete scenemgr;
		delete world;

		fitness += ws1*monitor.GetFitnessS1() + ws2*monitor.GetFitnessS2() + ws3*monitor.GetFitnessS3() + monitor.GetBonus();
	}
	fitness /= 10.0f;

	delete arbi;
	delete w1;
	delete w2;
	delete w3;

	return fitness;
}

double J0_a(double w[], float ws1, float ws2, float ws3) {
	ANNWeights* wa_a = new ANNWeights({28, 20, 2}, {false, true, false}, {false, true, true}, true);
	ANNWeights* wa_d = new ANNWeights({28, 20, 3}, {false, true, false}, {false, true, true}, true);

	wa_a->Set(w);
	wa_d->Randomize();

	double fitness = 0.0f;
	for(int i = 0; i < 10; i++) {
		b2Vec2 gravity;
		gravity.Set(0.0f, 0.0f);
		b2World* world = new b2World(gravity);

		J0_S_Field_S::Configuration conf;
		conf.World = world;
		conf.TimeStep = 0.02f;
		conf.MaxStep = 6000;
		conf.TrainingMode = -2;

		J0_M_MA monitor;
		assa2d::SceneMgr* scenemgr = new J0_S_Field_S(&conf, wa_a, wa_d);
		scenemgr->Run(&monitor);

		delete scenemgr;
		delete world;

		fitness += ws1*monitor.GetFitnessS1() + ws2*monitor.GetFitnessS2() + ws3*monitor.GetFitnessS3() + monitor.GetBonus();
	}
	fitness /= 10.0f;

	delete wa_a;
	delete wa_d;

	return fitness;
}

double J0_d(double w[], float ws1, float ws2, float ws3) {
	ANNWeights* wa_a = new ANNWeights({28, 20, 2}, {false, true, false}, {false, true, true}, true);
	ANNWeights* wa_d = new ANNWeights({28, 20, 3}, {false, true, false}, {false, true, true}, true);

	wa_a->Randomize();
	wa_d->Set(w);

	double fitness = 0.0f;
	for(int i = 0; i < 10; i++) {
		b2Vec2 gravity;
		gravity.Set(0.0f, 0.0f);
		b2World* world = new b2World(gravity);

		J0_S_Field_S::Configuration conf;
		conf.World = world;
		conf.TimeStep = 0.02f;
		conf.MaxStep = 6000;
		conf.TrainingMode = -1;

		J0_M_MA monitor;
		assa2d::SceneMgr* scenemgr = new J0_S_Field_S(&conf, wa_a, wa_d);
		scenemgr->Run(&monitor);

		delete scenemgr;
		delete world;

		fitness += ws1*monitor.GetFitnessS1() + ws2*monitor.GetFitnessS2() + ws3*monitor.GetFitnessS3() + monitor.GetBonus();
	}
	fitness /= 10.0f;

	delete wa_a;
	delete wa_d;

	return fitness;
}



//-------------subtasks----------------//
double J0_s1(double w[], bool flag) {
	ANNWeights* arbi = new ANNWeights({8, 20, 3}, {false, true, false}, {false, true, true}, true);
	ANNWeights* w1 = new ANNWeights({14, 20, 2}, {false, true, false}, {false, true, true}, true);
	ANNWeights* w2 = new ANNWeights({19, 20, 2}, {false, true, false}, {false, true, true}, true);
	ANNWeights* w3 = new ANNWeights({14, 20, 2}, {false, true, false}, {false, true, true}, true);

	arbi->Randomize();
	//w1->Randomize();
	w2->Randomize();
	w3->Randomize();

	w1->Set(w);

	double fitness_A = 0.0f;
	double fitness_B = 0.0f;
	for(int i = 0; i < 10; i++) {
		b2Vec2 gravity;
		gravity.Set(0.0f, 0.0f);
		b2World* world = new b2World(gravity);

		J0_S_Field::Configuration conf;
		conf.World = world;
		conf.TimeStep = 0.02f;
		conf.MaxStep = 3000;
		conf.TrainingMode = 1;

		J0_M_M1 monitor;
		assa2d::SceneMgr* scenemgr = new J0_S_Field(&conf, arbi, w1, w2, w3);
		scenemgr->Run(&monitor);

		delete scenemgr;
		delete world;

		fitness_A += monitor.GetFitnessA();
		fitness_B += monitor.GetFitnessB();
	}
	fitness_A /= 10.0f;
	fitness_B /= 10.0f;

	delete arbi;
	delete w1;
	delete w2;
	delete w3;

	if(flag) {
		return fitness_A;
	} else {
		return fitness_B;
	}
}

double J0_s2(double w[]) {
	ANNWeights* arbi = new ANNWeights({8, 20, 3}, {false, true, false}, {false, true, true}, true);
	ANNWeights* w1 = new ANNWeights({14, 20, 2}, {false, true, false}, {false, true, true}, true);
	ANNWeights* w2 = new ANNWeights({19, 20, 2}, {false, true, false}, {false, true, true}, true);
	ANNWeights* w3 = new ANNWeights({14, 20, 2}, {false, true, false}, {false, true, true}, true);

	//double arbi_c[] = {};
	double w1_c[] = {0.7212837923759143, 0.20899140593263305, -0.5160097463928356, -0.22281126894597375, 0.2402175792678698, 0.09060646358910522, -0.6483974566419206, 0.24330924223262212, 0.6095363686613929, 0.3033359476576997, -0.521009739563151, -0.7913898073964601, -0.6283430869195129, -0.39292498483556815, -0.29118359825156864, -0.41889352312936157, 0.735685202145405, 0.36091000839472775, 0.8133851562330521, 0.4688371123688066, 0.7705902428562724, -0.6442832114426319, -0.03331030026781708, -0.5071459925187024, -0.11934140039994982, 0.08058600698834477, -0.028999538001757287, 0.03199647689978098, 0.05048407989417662, 0.029357393733288443, 0.4775484441448209, 0.02089290109124342, -0.719128104322337, -0.4729471724380313, -0.6609791536995315, -0.17668653458151184, 0.3576368498602259, 0.4094804357348315, 0.0038866520696800508, -0.1693599715354314, 0.6476301613820762, -0.6222818140178428, -0.5764864087674331, -0.19565623287995015, 0.3691853987731415, -0.45647560744035093, -0.12431765336237022, -0.6822777057176969, 0.4075352872192435, -0.6476058686279107, 0.7380156308723304, 0.3628067432391897, -0.16126448932097168, -0.5853078554625069, 0.15975981408499512, 0.5560754465214782, -0.4343756062212931, -0.25713686040277245, 0.1921909163182886, -0.6460921646165885, 0.529790773316748, 0.249904270906115, 0.5022744293771799, -0.17447892133706613, 0.33007608112811354, -0.4128028446489622, -0.764856236202436, -0.11374867744041714, -0.3450058966969777, -0.5493617069042965, 0.4392676369014143, 0.777675413025115, 0.35514986766895007, -0.2225292093524794, -0.03170921897200965, 0.054830464022567055, -0.20101403398496795, -0.6889324547118584, -0.3101600485160183, 0.18919429588001432, 0.09405894350108238, -0.5233904939444294, 0.6475173642615727, -0.03649978161494766, 0.5280165703500296, 0.42567847856856605, -0.09698430609782677, 0.339469315740076, -0.28121340155784347, 0.20854306339912682, -0.5058120139815242, 0.43255046064292924, -0.03037416957829805, 0.1978293601187987, -0.05250029253837364, -0.3818859508529201, 0.19856499913515893, 0.23204284168103495, -0.09318115922036793, -0.49287316626641975, 0.02732510065136639, 0.4520150676611786, -0.34766291479630596, 0.2575289997963064, -0.5941566058815111, -0.2703446484346287, 0.10601181065906992, -0.034116499716313864, -0.6277485513153774, -0.10927460771205896, 0.3825054309300878, -0.2651813356613293, 0.7860179241989796, -0.2561952325718885, -0.12277492244974486, -0.07169018929848221, -0.5964023533069068, -0.529100916596575, -0.08068700650492426, 0.826435016116875, -0.8523616245616976, 0.029861193601549485, -0.533831292844659, 0.12972117513731277, -0.32420067316213513, -0.4275728476082141, 0.49912540066350014, 0.38493726666609934, 0.3497468102128283, -0.30274682301745615, 0.16193926276590243, -0.5434480876100578, 0.5374021590678326, 0.7341508584992159, 0.534035990956772, 0.6753294165193285, 0.6942473089672476, 0.41761565298503117, 0.08838332521200673, 0.4528904184539197, -0.8057444087288909, 0.22102020115997653, -0.7520100616645033, 0.14447384677989164, -0.6604022093146897, 0.14768946961430096, 0.6847930620426028, 0.6546275625610128, 0.8150768148389477, 0.6557357781924434, -0.7840273962459031, -0.25242744008350687, -0.30187497494675153, 0.7436826558561468, 0.8901103202900141, -0.1628762950740077, -0.500266281236862, 0.5588542928133775, 0.6250616476218047, 0.6225487457753234, 0.7552870787181918, 0.6890718038329381, 0.27087694288096714, 0.44811702934360687, -0.5554362157285521, 0.2523342429480105, -0.12397161833722059, -0.15639781842865383, 0.42665709173092997, 0.14939791519994206, 0.0877974335977242, -0.26684689971124315, 0.44437000933245047, 0.14876543644261075, -0.3395194445534012, -0.5323760505359113, 0.4588801696291221, 0.18323922465535786, 0.020085632129645384, 0.2279976061036518, -0.24962191241107254, -0.7686509748103613, 0.28468290114683414, -0.7463146063796473, -0.18313618033660672, -0.231976765747021, -0.1496619552242341, 0.04801632002460457, -0.5453399630735469, -0.49365566035663283, -0.13652158982763996, -0.13139049359585012, 0.15226681292950192, 0.35770904939893444, 0.3362570160022417, 0.1609227675997899, -0.4624921929110696, -0.15811170169582414, 0.15095899431604032, -0.6693223117281278, -0.41249481663822707, 0.7568343505621448, -0.7118870402597719, 0.45983336989402307, 0.06167328864409226, 0.19521390832633928, 0.6542824568082682, -0.056900994685997464, -0.4360390464255378, 0.5919873165847572, 0.2086490230506557, -0.6537863730989724, 0.05684076962672599, 0.42886134996513026, 0.7417601166541998, 0.47769110269100795, -0.20395847341269951, -0.4314232697270039, -0.5591623399711043, 0.4575252318084024, -0.5747727946096212, 0.6048751055423489, 0.3206239821023139, 0.5877385951412553, 0.39601103978196117, 0.27810779179514544, 0.02347494734066819, 0.5780823728722218, -0.34955137276933557, -0.1738659791764412, 0.410680518590528, 0.07017170831521896, -0.5947095767192951, 0.12931193903185026, 0.31949959939162176, 0.49288082748446427, 0.6136349803155552, 0.049375020887658716, -0.4863115253844022, 0.39235896014266863, -0.3072060712111653, -0.1718288750698425, 0.2761724320286894, -0.3174490326455452, 0.13401830114853913, 0.560713911312656, -0.05738840627805117, -0.2561011326996173, -0.09673479821253075, 0.13086177346826025, -0.5706073644704021, 0.2600871909124503, 0.3356385100875222, -0.007961223559664395, 0.12113218797199807, 0.2581099447459799, -0.32615209259151623, -0.7797057532192649, -0.47133365310784126, 0.3497619021700032, 0.031894653217482916, 0.8035594946708348, 0.2830675762337735, 0.339165558218562, -0.3970992369214184, -0.4612539262948099, 0.5827092115088524, 0.08063488291645053, -0.7842022822595682, 0.7629321822504012, -0.3814423652562983, -0.2918040437020973, -0.1263894741666716, 0.7742692085288873, 0.45781791085563545, -0.013531996467168222, 0.23382205842540657, 0.08978025252409855, 0.7904746935119503, -0.09625259892623787, -0.0834382235305586, 0.6463583055087251, 0.8572161383050286, 0.31932073159667806, -0.6765708052647761, -0.6576759701377151, 0.7337488893762862, 0.6569680781541247, -0.6816564702439448, 0.3774773946819387, 0.5354732713358233, 0.5868835136586438, 0.6934725493848998, -0.886901448630531, 0.5328556052253142, 0.6195939827419353, 0.608925903536411, -0.2395630661373023, 0.8339186034343975, 0.19928548547896718, 0.07793072584795993, 0.7354874633790109, -0.7676480019610922, 0.8008203314198359, -0.15488849317710543, -0.7026678439859902, 0.44390117846294314, -0.6155297855020234, -0.16303674967141935, -0.8271285035521574, -0.7610217503355209, 0.07268456469337928, 0.3891074059734655, 0.9227892539959677, 0.9496957930031649, 0.06039717593369827, 0.6352472260694555, 0.8085692562313362, 0.8647692280585753, -0.37226086739189157, -0.05559548635638839, -0.2882713619822596, -0.09254998536296105, -0.3985400886778897, 0.3746974445549844, -0.12663269049648024, -0.6640503245604302, -0.22305525096116452, 0.72276731004242, -0.08781058538724898, 0.6301139943329326, 0.07723119941769306, -0.5508648902799966, 0.46371310721779885, -0.4438997805969124, 0.031784972162179674, 0.4433215642414657, -0.4057097060088595, -0.12897440779811142, -0.10820461342696201, -0.5026540550598548, 0.15607436390922574, 0.6658062972775888, -0.3716800353222328, -0.2670536676164842, 0.4017782689531167, -0.11649082862749965, -0.3493706725492305, 0.44817401382761274, 0.3867191018477922, -0.4735094189422686, -0.5162808544537207, 0.10778948893890986, 0.328821825650092, -0.23514265448388105, 0.24406898686445014, -0.11051143858013587, 0.333482762188563, -0.06598301836852907, -0.2907453574809847, -0.2224270207390316, -0.021489007795982923, 0.8100957364249559, 0.21854081427833671, 0.2035822212587939, -0.4765478384402118, -0.5526199145408766, 0.09178161426536725, -0.06068700268041784, -0.07821684816497688, 0.08282497420290971, -0.12848758345533592, -0.31897307285347953, -0.15190688229080057, 0.22377400229675856, 0.7391017688114525, -0.3563907129562569, -0.17260934159278793, -0.1603131018344991, -0.42784233189734777, 0.36996519542353246, -0.8445637327087621, -0.01044570119057088, -0.3112228149713348, 0.5423065822770535, 0.19991360653976617, 0.8793523406264606, 0.1149536855665675, -0.22213403335967813, -0.039921725260854815, -0.10345295622139837, 0.4675761438441157, 0.22607412934570026, -0.4768116880911549, 0.3039481504424974, 0.11535750937462809, -0.8039760583959377, -0.33728736214279903, 0.515519977952376, 0.42196137405508155, 0.447686073474468, -0.39908434038789353, 0.7084661840702614, -0.2781147442626147, -0.13868770420967094, -0.18327350144410795, -0.5360329610957997, 0.34954787339900406, -0.14423156450383956, -0.01970839081698046, -0.2058157038460123, 0.49172911278039266, 0.6553354312181501, 0.2466825663025811, -0.7633705605685945, 0.25567788916013884, 0.23381207780443442, -0.49850453127961414, -0.12549051794377136, 0.01779207084421688, 0.22807982799162502, -0.5787651393606436, -0.059340146527681575, 0.37093758174969327, 0.41025495524989036, 0.03199257294665777, -0.4172614891367361, -0.20036331670956736, 0.41635757706094617, 0.30707387254905494, -0.2710925468350993, 0.12431992104471655, -0.007349006882767059, 0.3129557706194694, 0.03548536627912198, -0.1731044086220217, 0.004380490822501127, 0.25169703624480755, 0.4357498983117374, -0.34386234108587715, -0.5991009778179446, -0.30374234837623604, 0.6890986167926114, -0.5146371234801722, -0.09735213032456672, 0.29641065874717654, 0.34907838474954905, -0.43833772417284145, 0.1928140099035181, 0.3915981316410273, -0.6699269102624806, 0.32470891008117925, -0.2859530219937164, 0.09411729570095262, 0.21546256427360577, -0.34600044941220537, -0.23235045262790716, 0.11650143503328239, 0.20152843290288724, 0.6103869112926826, -0.48355659421066227, -0.2802814470568802, -0.37434615427329376, 0.03146748268099789, -0.8176773840954674, 0.4430551745053419, -0.1355517842842633, -0.4429083027635613, 0.2546045713283263, -0.2908364310997778, -0.2572838681076858, -0.6359171226616952, -0.2352224576329553, 0.24399367201467642, -0.7979411775813006, 0.4898004757367602, -0.41405463932526937, 0.14744291567610146, 0.13313939096160424, 0.043384751944542777, 0.17288408618406684, 0.22950017709123752, -0.2775424892729219, 0.08708342586187598, -0.35059790702327187, 0.4418860234219133, -0.631590984613721, -0.1268391079002666, 0.43026470054243604, 0.7451652791768517, 0.37231430630827805, 0.38209983836303285, -0.010961627352323143, 0.13365333039093003, -0.8225910995020232, -0.1855455169829049, -0.5086086907305506, 0.11431118651851227, -0.3412409328006888, 0.23833665640364246, 0.2768203261526497, -0.4761866036095214, -0.8859224247651543, 0.07129913293300691, 0.3334122224297944, -0.19284245697271774, 0.3991940035030108, 0.35782780598364455, 0.1984533509019846, -0.5417286051719512, 0.49886556482698224, -0.6802129394441303, 0.33814294253708027, 0.21682176447110346, 0.2338205821589756, -0.07532970228760327, 0.5871456790563044, 0.30870373692924685, -0.07536480554874525, 0.19098488179654954, 0.22252377306661775, 0.1140947398163773, 0.39236317675207255, -0.5860617307970792, -0.15760819205433194, 0.18583678984477858, -0.04318927113553256, -0.38927362051282594, -0.739653484055494, -0.7520003487549126, -0.5941440970451686, 0.4646529617034065, 0.19160712858996848, -0.38885017353153867, -0.5139595353841918, -0.5499570581617609, -0.7360414779274596, -0.05112890040074084, 0.22605315931391398, -0.6048941784186057, 0.42866768241501224, 0.06170889814704911, 0.6659264235210982, -0.22176380164680387, -0.4690729762599931, -0.23991826931593097, -0.06261978783543558, 0.3161183521120342, -0.46319410862346766, 0.026916169196216, -0.02847660917571312, -0.30334560297351476, 0.6641865129664646, -0.1090658678796454, 0.1656332199013102, 0.7475983895646978, -0.027970310065786333, 0.4363467921111446, -0.31991005512159665, 0.34529973409054493, 0.3582605629077382, 0.28144464752858256, 0.42924668657701237, -0.3468909079627614, 0.27298821731193035, -0.3113137662031634, 0.5839454797900713, -0.778703914615509, 0.4094618921471786, -0.06117462963890941, -0.13008267676816865, -0.5247708495912485, -0.43117997848227874, 0.5483354664181864, -0.14430234662675798, 0.6290567408840053, -0.7308518489759976, -0.11925338112640113, 0.05221240305218036, 0.03850661690771465, -0.40414494909109816, 0.6639409205190695, 0.9035939009484277, -0.8271750376311822, -0.4160814569528676, -0.3956397913884256, 0.44382127958568707, 0.2595751536554605, 0.23664920008312895, 0.5713107537868423, -0.4994257334272338, 0.005345998468957544, 0.08318997072164794, -0.38736047198089074, 0.5420374703236067, -0.18765296118977912, 0.25598090938876217, 0.777915011304626, -0.1880447239131476, -0.6352532801597038, 0.4784086211159865, -0.5648929393687009, -0.08983016373313259, -0.31317660615251647, -8.352753389448409E-4, -0.028321372656983645, 0.38199470789536255, -0.32625101606132484, -0.40382598620628296, -0.13342287177236878, -0.05636183202760921, -0.7531891242799557, 0.6004689512873679, 0.37601398215475473, -0.09397822521205434, -0.36326558756270516, -0.382567061974189, -0.25429864261327184, 0.14902224351583926, 0.5437514348229825, 0.11014625292898285, -0.47926695278675013, -0.5203589697470498, -0.7357283562445084, 0.15419345751161928, 0.2797966634167929, 0.3010391302905548, 0.4665845779182889, -0.3507649228492631, -0.26398024507094114, -0.10198510821031775, -0.3855399255939451, 0.7122292680948794, 0.23352805566852008, 0.20764321191249713, -0.2166860085981167, 0.33088952356693446, -0.6399257811962511, -0.20726426518998037, 0.47542585821353023, 0.0037912937951173342, 0.41854434630168086, 0.10868237582027122, -0.15385372888291465, -0.04002266955544563, 0.18329732784964298, -0.7952032062534156, -0.5214360404914886, -0.09698275131376168, 0.4497982643953273, 0.6403316873913757, 0.4379438213461601, 0.023741521375429838, -0.07207070585046105, 0.21882966416205954, -0.4244182632947805, -0.25230157403201026, -0.2854739592409705, 0.050555323879107356, -0.5758926112431404, -0.8107185602195988, -0.08084751604590965, -0.35175399790866957, 0.6365601583654856, 0.02589325901023376, 0.44770557999944005, -0.16557395916447704, 0.48209819756825606, 0.3935286179194083, 0.519149566261212, -0.15333561677549223, -0.3368115488304986, -0.14457741411218875, -0.37915296978832047, 0.587270982652742, 0.06840494067775792, -0.1056710594099311, 0.4118304744657153, 0.3995600305911663, -0.5211292750193037, -0.15602385469010743, 0.5639037267149692, 0.2869758947740981, 0.572818536616136, -0.5081945923615037, -0.30558604768982717, 0.36130477553682716, 0.41871354120507376, -0.31468418989383007, -0.1622451962394424, 0.4698934958564237, -0.04010457783041328, -0.004963180902355799, 0.34854867310690496, -0.08781737883295472, 0.40033289509389697, -0.37550287184648856, 0.6566009457225759, 0.4391094770809984, -0.4629425231088525, -0.35776272019888095, -0.6054089173374291, -0.4546010650925736, -0.36159149334721963, -0.23459447255981794, -0.19438238764676288, 0.6435321886729891, 0.2756576105580669, 0.6385824761015235, -0.19413467289891612, 0.20106173934566268, 0.0486655928763233, 0.047941480646776224, 0.3447093936183318, 0.09181908914141657, -0.09712275828113197, 0.34707361027161865, 0.5046419126344852, 0.6621433619057921, -0.7600693460159877, -0.3060778987060895, 0.17166981657128091, 0.050335033260667295, 0.1591673942768702, -0.31380541805003137, 0.19080686877548886, 0.03674312892498404, 0.07826726259411368, -0.2206321517480972, 0.19913662567256096, 0.024493452467713617, -0.3032390671590994, 0.06949344537416766, 0.2586543288166356, 0.07432999791877727, -0.3354617290334898, 0.03100289380687159, 0.15080846703429301, -0.27387601983619997, 0.14688508119186267, 0.19281364597078798, -0.11998390261949599};
	//double w2_c[] = {};
	//double w3_c[] = {};

	arbi->Randomize();
	//w1->Randomize();
	//w2->Randomize();
	w3->Randomize();

	w1->Set(w1_c);
	w2->Set(w);

	double fitness = 0.0f;
	for(int i = 0; i < 10; i++) {
		b2Vec2 gravity;
		gravity.Set(0.0f, 0.0f);
		b2World* world = new b2World(gravity);

		J0_S_Field::Configuration conf;
		conf.World = world;
		conf.TimeStep = 0.02f;
		conf.MaxStep = 3000;
		conf.TrainingMode = 2;

		J0_M_M2 monitor;
		assa2d::SceneMgr* scenemgr = new J0_S_Field(&conf, arbi, w1, w2, w3);
		scenemgr->Run(&monitor);

		delete scenemgr;
		delete world;

		fitness += monitor.GetFitness();
	}
	fitness /= 10.0f;

	delete arbi;
	delete w1;
	delete w2;
	delete w3;

	return fitness;
}

double J0_s3(double w[]) {
	ANNWeights* arbi = new ANNWeights({8, 20, 3}, {false, true, false}, {false, true, true}, true);
	ANNWeights* w1 = new ANNWeights({14, 20, 2}, {false, true, false}, {false, true, true}, true);
	ANNWeights* w2 = new ANNWeights({19, 20, 2}, {false, true, false}, {false, true, true}, true);
	ANNWeights* w3 = new ANNWeights({14, 20, 2}, {false, true, false}, {false, true, true}, true);

	//double arbi_c[] = {};
	double w1_c[] = {0.7212837923759143, 0.20899140593263305, -0.5160097463928356, -0.22281126894597375, 0.2402175792678698, 0.09060646358910522, -0.6483974566419206, 0.24330924223262212, 0.6095363686613929, 0.3033359476576997, -0.521009739563151, -0.7913898073964601, -0.6283430869195129, -0.39292498483556815, -0.29118359825156864, -0.41889352312936157, 0.735685202145405, 0.36091000839472775, 0.8133851562330521, 0.4688371123688066, 0.7705902428562724, -0.6442832114426319, -0.03331030026781708, -0.5071459925187024, -0.11934140039994982, 0.08058600698834477, -0.028999538001757287, 0.03199647689978098, 0.05048407989417662, 0.029357393733288443, 0.4775484441448209, 0.02089290109124342, -0.719128104322337, -0.4729471724380313, -0.6609791536995315, -0.17668653458151184, 0.3576368498602259, 0.4094804357348315, 0.0038866520696800508, -0.1693599715354314, 0.6476301613820762, -0.6222818140178428, -0.5764864087674331, -0.19565623287995015, 0.3691853987731415, -0.45647560744035093, -0.12431765336237022, -0.6822777057176969, 0.4075352872192435, -0.6476058686279107, 0.7380156308723304, 0.3628067432391897, -0.16126448932097168, -0.5853078554625069, 0.15975981408499512, 0.5560754465214782, -0.4343756062212931, -0.25713686040277245, 0.1921909163182886, -0.6460921646165885, 0.529790773316748, 0.249904270906115, 0.5022744293771799, -0.17447892133706613, 0.33007608112811354, -0.4128028446489622, -0.764856236202436, -0.11374867744041714, -0.3450058966969777, -0.5493617069042965, 0.4392676369014143, 0.777675413025115, 0.35514986766895007, -0.2225292093524794, -0.03170921897200965, 0.054830464022567055, -0.20101403398496795, -0.6889324547118584, -0.3101600485160183, 0.18919429588001432, 0.09405894350108238, -0.5233904939444294, 0.6475173642615727, -0.03649978161494766, 0.5280165703500296, 0.42567847856856605, -0.09698430609782677, 0.339469315740076, -0.28121340155784347, 0.20854306339912682, -0.5058120139815242, 0.43255046064292924, -0.03037416957829805, 0.1978293601187987, -0.05250029253837364, -0.3818859508529201, 0.19856499913515893, 0.23204284168103495, -0.09318115922036793, -0.49287316626641975, 0.02732510065136639, 0.4520150676611786, -0.34766291479630596, 0.2575289997963064, -0.5941566058815111, -0.2703446484346287, 0.10601181065906992, -0.034116499716313864, -0.6277485513153774, -0.10927460771205896, 0.3825054309300878, -0.2651813356613293, 0.7860179241989796, -0.2561952325718885, -0.12277492244974486, -0.07169018929848221, -0.5964023533069068, -0.529100916596575, -0.08068700650492426, 0.826435016116875, -0.8523616245616976, 0.029861193601549485, -0.533831292844659, 0.12972117513731277, -0.32420067316213513, -0.4275728476082141, 0.49912540066350014, 0.38493726666609934, 0.3497468102128283, -0.30274682301745615, 0.16193926276590243, -0.5434480876100578, 0.5374021590678326, 0.7341508584992159, 0.534035990956772, 0.6753294165193285, 0.6942473089672476, 0.41761565298503117, 0.08838332521200673, 0.4528904184539197, -0.8057444087288909, 0.22102020115997653, -0.7520100616645033, 0.14447384677989164, -0.6604022093146897, 0.14768946961430096, 0.6847930620426028, 0.6546275625610128, 0.8150768148389477, 0.6557357781924434, -0.7840273962459031, -0.25242744008350687, -0.30187497494675153, 0.7436826558561468, 0.8901103202900141, -0.1628762950740077, -0.500266281236862, 0.5588542928133775, 0.6250616476218047, 0.6225487457753234, 0.7552870787181918, 0.6890718038329381, 0.27087694288096714, 0.44811702934360687, -0.5554362157285521, 0.2523342429480105, -0.12397161833722059, -0.15639781842865383, 0.42665709173092997, 0.14939791519994206, 0.0877974335977242, -0.26684689971124315, 0.44437000933245047, 0.14876543644261075, -0.3395194445534012, -0.5323760505359113, 0.4588801696291221, 0.18323922465535786, 0.020085632129645384, 0.2279976061036518, -0.24962191241107254, -0.7686509748103613, 0.28468290114683414, -0.7463146063796473, -0.18313618033660672, -0.231976765747021, -0.1496619552242341, 0.04801632002460457, -0.5453399630735469, -0.49365566035663283, -0.13652158982763996, -0.13139049359585012, 0.15226681292950192, 0.35770904939893444, 0.3362570160022417, 0.1609227675997899, -0.4624921929110696, -0.15811170169582414, 0.15095899431604032, -0.6693223117281278, -0.41249481663822707, 0.7568343505621448, -0.7118870402597719, 0.45983336989402307, 0.06167328864409226, 0.19521390832633928, 0.6542824568082682, -0.056900994685997464, -0.4360390464255378, 0.5919873165847572, 0.2086490230506557, -0.6537863730989724, 0.05684076962672599, 0.42886134996513026, 0.7417601166541998, 0.47769110269100795, -0.20395847341269951, -0.4314232697270039, -0.5591623399711043, 0.4575252318084024, -0.5747727946096212, 0.6048751055423489, 0.3206239821023139, 0.5877385951412553, 0.39601103978196117, 0.27810779179514544, 0.02347494734066819, 0.5780823728722218, -0.34955137276933557, -0.1738659791764412, 0.410680518590528, 0.07017170831521896, -0.5947095767192951, 0.12931193903185026, 0.31949959939162176, 0.49288082748446427, 0.6136349803155552, 0.049375020887658716, -0.4863115253844022, 0.39235896014266863, -0.3072060712111653, -0.1718288750698425, 0.2761724320286894, -0.3174490326455452, 0.13401830114853913, 0.560713911312656, -0.05738840627805117, -0.2561011326996173, -0.09673479821253075, 0.13086177346826025, -0.5706073644704021, 0.2600871909124503, 0.3356385100875222, -0.007961223559664395, 0.12113218797199807, 0.2581099447459799, -0.32615209259151623, -0.7797057532192649, -0.47133365310784126, 0.3497619021700032, 0.031894653217482916, 0.8035594946708348, 0.2830675762337735, 0.339165558218562, -0.3970992369214184, -0.4612539262948099, 0.5827092115088524, 0.08063488291645053, -0.7842022822595682, 0.7629321822504012, -0.3814423652562983, -0.2918040437020973, -0.1263894741666716, 0.7742692085288873, 0.45781791085563545, -0.013531996467168222, 0.23382205842540657, 0.08978025252409855, 0.7904746935119503, -0.09625259892623787, -0.0834382235305586, 0.6463583055087251, 0.8572161383050286, 0.31932073159667806, -0.6765708052647761, -0.6576759701377151, 0.7337488893762862, 0.6569680781541247, -0.6816564702439448, 0.3774773946819387, 0.5354732713358233, 0.5868835136586438, 0.6934725493848998, -0.886901448630531, 0.5328556052253142, 0.6195939827419353, 0.608925903536411, -0.2395630661373023, 0.8339186034343975, 0.19928548547896718, 0.07793072584795993, 0.7354874633790109, -0.7676480019610922, 0.8008203314198359, -0.15488849317710543, -0.7026678439859902, 0.44390117846294314, -0.6155297855020234, -0.16303674967141935, -0.8271285035521574, -0.7610217503355209, 0.07268456469337928, 0.3891074059734655, 0.9227892539959677, 0.9496957930031649, 0.06039717593369827, 0.6352472260694555, 0.8085692562313362, 0.8647692280585753, -0.37226086739189157, -0.05559548635638839, -0.2882713619822596, -0.09254998536296105, -0.3985400886778897, 0.3746974445549844, -0.12663269049648024, -0.6640503245604302, -0.22305525096116452, 0.72276731004242, -0.08781058538724898, 0.6301139943329326, 0.07723119941769306, -0.5508648902799966, 0.46371310721779885, -0.4438997805969124, 0.031784972162179674, 0.4433215642414657, -0.4057097060088595, -0.12897440779811142, -0.10820461342696201, -0.5026540550598548, 0.15607436390922574, 0.6658062972775888, -0.3716800353222328, -0.2670536676164842, 0.4017782689531167, -0.11649082862749965, -0.3493706725492305, 0.44817401382761274, 0.3867191018477922, -0.4735094189422686, -0.5162808544537207, 0.10778948893890986, 0.328821825650092, -0.23514265448388105, 0.24406898686445014, -0.11051143858013587, 0.333482762188563, -0.06598301836852907, -0.2907453574809847, -0.2224270207390316, -0.021489007795982923, 0.8100957364249559, 0.21854081427833671, 0.2035822212587939, -0.4765478384402118, -0.5526199145408766, 0.09178161426536725, -0.06068700268041784, -0.07821684816497688, 0.08282497420290971, -0.12848758345533592, -0.31897307285347953, -0.15190688229080057, 0.22377400229675856, 0.7391017688114525, -0.3563907129562569, -0.17260934159278793, -0.1603131018344991, -0.42784233189734777, 0.36996519542353246, -0.8445637327087621, -0.01044570119057088, -0.3112228149713348, 0.5423065822770535, 0.19991360653976617, 0.8793523406264606, 0.1149536855665675, -0.22213403335967813, -0.039921725260854815, -0.10345295622139837, 0.4675761438441157, 0.22607412934570026, -0.4768116880911549, 0.3039481504424974, 0.11535750937462809, -0.8039760583959377, -0.33728736214279903, 0.515519977952376, 0.42196137405508155, 0.447686073474468, -0.39908434038789353, 0.7084661840702614, -0.2781147442626147, -0.13868770420967094, -0.18327350144410795, -0.5360329610957997, 0.34954787339900406, -0.14423156450383956, -0.01970839081698046, -0.2058157038460123, 0.49172911278039266, 0.6553354312181501, 0.2466825663025811, -0.7633705605685945, 0.25567788916013884, 0.23381207780443442, -0.49850453127961414, -0.12549051794377136, 0.01779207084421688, 0.22807982799162502, -0.5787651393606436, -0.059340146527681575, 0.37093758174969327, 0.41025495524989036, 0.03199257294665777, -0.4172614891367361, -0.20036331670956736, 0.41635757706094617, 0.30707387254905494, -0.2710925468350993, 0.12431992104471655, -0.007349006882767059, 0.3129557706194694, 0.03548536627912198, -0.1731044086220217, 0.004380490822501127, 0.25169703624480755, 0.4357498983117374, -0.34386234108587715, -0.5991009778179446, -0.30374234837623604, 0.6890986167926114, -0.5146371234801722, -0.09735213032456672, 0.29641065874717654, 0.34907838474954905, -0.43833772417284145, 0.1928140099035181, 0.3915981316410273, -0.6699269102624806, 0.32470891008117925, -0.2859530219937164, 0.09411729570095262, 0.21546256427360577, -0.34600044941220537, -0.23235045262790716, 0.11650143503328239, 0.20152843290288724, 0.6103869112926826, -0.48355659421066227, -0.2802814470568802, -0.37434615427329376, 0.03146748268099789, -0.8176773840954674, 0.4430551745053419, -0.1355517842842633, -0.4429083027635613, 0.2546045713283263, -0.2908364310997778, -0.2572838681076858, -0.6359171226616952, -0.2352224576329553, 0.24399367201467642, -0.7979411775813006, 0.4898004757367602, -0.41405463932526937, 0.14744291567610146, 0.13313939096160424, 0.043384751944542777, 0.17288408618406684, 0.22950017709123752, -0.2775424892729219, 0.08708342586187598, -0.35059790702327187, 0.4418860234219133, -0.631590984613721, -0.1268391079002666, 0.43026470054243604, 0.7451652791768517, 0.37231430630827805, 0.38209983836303285, -0.010961627352323143, 0.13365333039093003, -0.8225910995020232, -0.1855455169829049, -0.5086086907305506, 0.11431118651851227, -0.3412409328006888, 0.23833665640364246, 0.2768203261526497, -0.4761866036095214, -0.8859224247651543, 0.07129913293300691, 0.3334122224297944, -0.19284245697271774, 0.3991940035030108, 0.35782780598364455, 0.1984533509019846, -0.5417286051719512, 0.49886556482698224, -0.6802129394441303, 0.33814294253708027, 0.21682176447110346, 0.2338205821589756, -0.07532970228760327, 0.5871456790563044, 0.30870373692924685, -0.07536480554874525, 0.19098488179654954, 0.22252377306661775, 0.1140947398163773, 0.39236317675207255, -0.5860617307970792, -0.15760819205433194, 0.18583678984477858, -0.04318927113553256, -0.38927362051282594, -0.739653484055494, -0.7520003487549126, -0.5941440970451686, 0.4646529617034065, 0.19160712858996848, -0.38885017353153867, -0.5139595353841918, -0.5499570581617609, -0.7360414779274596, -0.05112890040074084, 0.22605315931391398, -0.6048941784186057, 0.42866768241501224, 0.06170889814704911, 0.6659264235210982, -0.22176380164680387, -0.4690729762599931, -0.23991826931593097, -0.06261978783543558, 0.3161183521120342, -0.46319410862346766, 0.026916169196216, -0.02847660917571312, -0.30334560297351476, 0.6641865129664646, -0.1090658678796454, 0.1656332199013102, 0.7475983895646978, -0.027970310065786333, 0.4363467921111446, -0.31991005512159665, 0.34529973409054493, 0.3582605629077382, 0.28144464752858256, 0.42924668657701237, -0.3468909079627614, 0.27298821731193035, -0.3113137662031634, 0.5839454797900713, -0.778703914615509, 0.4094618921471786, -0.06117462963890941, -0.13008267676816865, -0.5247708495912485, -0.43117997848227874, 0.5483354664181864, -0.14430234662675798, 0.6290567408840053, -0.7308518489759976, -0.11925338112640113, 0.05221240305218036, 0.03850661690771465, -0.40414494909109816, 0.6639409205190695, 0.9035939009484277, -0.8271750376311822, -0.4160814569528676, -0.3956397913884256, 0.44382127958568707, 0.2595751536554605, 0.23664920008312895, 0.5713107537868423, -0.4994257334272338, 0.005345998468957544, 0.08318997072164794, -0.38736047198089074, 0.5420374703236067, -0.18765296118977912, 0.25598090938876217, 0.777915011304626, -0.1880447239131476, -0.6352532801597038, 0.4784086211159865, -0.5648929393687009, -0.08983016373313259, -0.31317660615251647, -8.352753389448409E-4, -0.028321372656983645, 0.38199470789536255, -0.32625101606132484, -0.40382598620628296, -0.13342287177236878, -0.05636183202760921, -0.7531891242799557, 0.6004689512873679, 0.37601398215475473, -0.09397822521205434, -0.36326558756270516, -0.382567061974189, -0.25429864261327184, 0.14902224351583926, 0.5437514348229825, 0.11014625292898285, -0.47926695278675013, -0.5203589697470498, -0.7357283562445084, 0.15419345751161928, 0.2797966634167929, 0.3010391302905548, 0.4665845779182889, -0.3507649228492631, -0.26398024507094114, -0.10198510821031775, -0.3855399255939451, 0.7122292680948794, 0.23352805566852008, 0.20764321191249713, -0.2166860085981167, 0.33088952356693446, -0.6399257811962511, -0.20726426518998037, 0.47542585821353023, 0.0037912937951173342, 0.41854434630168086, 0.10868237582027122, -0.15385372888291465, -0.04002266955544563, 0.18329732784964298, -0.7952032062534156, -0.5214360404914886, -0.09698275131376168, 0.4497982643953273, 0.6403316873913757, 0.4379438213461601, 0.023741521375429838, -0.07207070585046105, 0.21882966416205954, -0.4244182632947805, -0.25230157403201026, -0.2854739592409705, 0.050555323879107356, -0.5758926112431404, -0.8107185602195988, -0.08084751604590965, -0.35175399790866957, 0.6365601583654856, 0.02589325901023376, 0.44770557999944005, -0.16557395916447704, 0.48209819756825606, 0.3935286179194083, 0.519149566261212, -0.15333561677549223, -0.3368115488304986, -0.14457741411218875, -0.37915296978832047, 0.587270982652742, 0.06840494067775792, -0.1056710594099311, 0.4118304744657153, 0.3995600305911663, -0.5211292750193037, -0.15602385469010743, 0.5639037267149692, 0.2869758947740981, 0.572818536616136, -0.5081945923615037, -0.30558604768982717, 0.36130477553682716, 0.41871354120507376, -0.31468418989383007, -0.1622451962394424, 0.4698934958564237, -0.04010457783041328, -0.004963180902355799, 0.34854867310690496, -0.08781737883295472, 0.40033289509389697, -0.37550287184648856, 0.6566009457225759, 0.4391094770809984, -0.4629425231088525, -0.35776272019888095, -0.6054089173374291, -0.4546010650925736, -0.36159149334721963, -0.23459447255981794, -0.19438238764676288, 0.6435321886729891, 0.2756576105580669, 0.6385824761015235, -0.19413467289891612, 0.20106173934566268, 0.0486655928763233, 0.047941480646776224, 0.3447093936183318, 0.09181908914141657, -0.09712275828113197, 0.34707361027161865, 0.5046419126344852, 0.6621433619057921, -0.7600693460159877, -0.3060778987060895, 0.17166981657128091, 0.050335033260667295, 0.1591673942768702, -0.31380541805003137, 0.19080686877548886, 0.03674312892498404, 0.07826726259411368, -0.2206321517480972, 0.19913662567256096, 0.024493452467713617, -0.3032390671590994, 0.06949344537416766, 0.2586543288166356, 0.07432999791877727, -0.3354617290334898, 0.03100289380687159, 0.15080846703429301, -0.27387601983619997, 0.14688508119186267, 0.19281364597078798, -0.11998390261949599};
	//double w2_c[] = {};
	//double w3_c[] = {};

	arbi->Randomize();
	//w1->Randomize();
	w2->Randomize();
	//w3->Randomize();

	w1->Set(w1_c);
	w3->Set(w);

	double fitness = 0.0f;
	for(int i = 0; i < 10; i++) {
		b2Vec2 gravity;
		gravity.Set(0.0f, 0.0f);
		b2World* world = new b2World(gravity);

		J0_S_Field::Configuration conf;
		conf.World = world;
		conf.TimeStep = 0.02f;
		conf.MaxStep = 3000;
		conf.TrainingMode = 3;

		J0_M_M3 monitor;
		assa2d::SceneMgr* scenemgr = new J0_S_Field(&conf, arbi, w1, w2, w3);
		scenemgr->Run(&monitor);

		delete scenemgr;
		delete world;

		fitness += monitor.GetFitness();
	}
	fitness /= 10.0f;

	delete arbi;
	delete w1;
	delete w2;
	delete w3;

	return fitness;
}

///------------------------------------------------------///
double e0(double w[], int supplement) {
	ANNWeights* arbi = new ANNWeights({9, 10, 3}, {false, true, false}, {false, true, true}, true);
	ANNWeights* w1 = new ANNWeights({19, 20, 2}, {false, true, false}, {false, true, true}, true);
	ANNWeights* w2 = new ANNWeights({14, 20, 2}, {false, true, false}, {false, true, true}, true);
	ANNWeights* w3 = new ANNWeights({11, 20, 2}, {false, true, false}, {false, true, true}, true);

